34 64
1 0.041750625 -0.018955827 0.04397956 0.15678135 -0.10679382 0.04443095 -0.04174559 0.050702684 -0.20978826 0.15246132 0.14973208 0.019178545 -0.017829973 -0.03492196 0.11358136 -0.2359879 0.034724843 -0.13720638 0.353032 0.11041451 -0.05976265 0.10296521 -0.07506404 0.006133635 -0.012919123 -0.07792312 0.13863342 0.2068877 0.012233985 0.102208726 0.1083637 0.10292953 0.12933162 -0.34989995 -0.03138708 -0.3108281 0.10454848 -0.09477108 0.114496656 0.07290452 -0.23960146 -0.2710983 0.07038698 -0.0050460896 -0.060277272 -0.053195976 0.061048966 0.116718605 -0.24145171 -0.37567022 0.24444407 0.09604398 -0.041455552 0.28372008 0.0067795473 -0.09549941 -0.32628834 -0.20159434 -0.28853709 -0.3459689 -0.17333664 -0.04895712 0.17147467 0.0057515567
34 0.10355876 0.24515697 0.21779905 -0.16991699 -0.022104982 0.013492238 0.08286764 0.20501694 -0.24908419 -0.16578457 0.15639332 0.24551642 0.058274116 0.21318004 0.09069344 -0.1421363 -0.09607165 -0.06693486 -0.20420296 -0.20913312 0.23556344 0.14300121 0.22953954 -0.11835753 -0.11814449 -0.13691929 0.16675986 0.3180045 -0.1574271 -0.010668226 0.3904563 0.2765994 0.07871954 -0.29161847 0.13037619 -0.008978649 0.2832714 -0.02957951 -0.045985606 0.04500726 0.16491704 -0.11500907 -0.1660661 -0.024834896 -0.050436903 -0.22566408 -0.13777535 0.20386073 -0.088996306 -0.376554 0.118258394 -0.062750876 -0.16994329 -0.06922014 0.28912655 -0.030102924 -0.0969829 -0.13387775 0.034438614 -0.308676 0.17730558 0.053363364 0.099049434 0.04541577
33 0.08078686 0.25489643 0.18963441 -0.19953838 0.0012783243 0.01534518 0.032754466 0.20936628 -0.29046184 -0.16476135 0.15738395 0.24166583 0.098035276 0.23141886 0.092321865 -0.11514997 -0.10662246 -0.061155196 -0.20236966 -0.26019835 0.26591048 0.18226399 0.28546995 -0.10363 -0.10154246 -0.14334849 0.19513981 0.24984257 -0.21307634 0.036982544 0.37143192 0.2821959 0.047311362 -0.24039398 0.1271852 0.039500177 0.19148071 -0.008697972 -0.05076342 0.0085878465 0.15844811 -0.15712963 -0.17953573 0.03451232 -0.020613171 -0.23618025 -0.13996446 0.17903474 -0.050152272 -0.3416632 0.14989994 -0.023787545 -0.21933843 -0.027981257 0.28145903 -0.0027140854 -0.120147385 -0.0740957 0.1053618 -0.33762667 0.21022405 -0.018784948 0.083460644 0.037928857
3 0.116528876 0.15239356 0.22940323 -0.03925054 -0.09735744 -0.07354837 0.009106634 0.17414673 -0.24431948 -0.019604763 0.23933859 0.18293512 0.016202057 0.029865691 0.11817094 -0.16371594 -0.06700114 -0.04329613 0.0055409 0.039807275 0.08370746 0.18096708 0.044784572 -0.06386275 -0.028304957 -0.19082962 0.090362296 0.29160166 0.004403379 -0.050454237 0.22441114 0.22473548 0.18614429 -0.2875616 0.0057714237 -0.18718177 0.23907307 -0.13323528 0.116424344 0.004198912 -0.069213435 -0.16072623 -0.06634396 -0.10552587 -0.075024806 -0.19066139 -0.017777493 0.2403518 -0.063312285 -0.29345766 0.1567587 0.025470775 -0.26126534 0.12509501 0.21401484 -0.033905957 -0.18710716 -0.13123749 -0.08966905 -0.2510328 -0.08440679 -0.038516253 0.24175303 0.0936046
2 0.082894884 0.06641877 0.23202462 0.07147066 -0.16282088 -0.10069922 -0.066418365 0.16836491 -0.24672428 0.091286756 0.28913963 0.12484166 0.006465571 -0.08352935 0.15337293 -0.21079393 -0.05483406 -0.059896376 0.16641703 0.17652337 0.008319025 0.23033454 -0.0649991 -0.044835992 0.015782144 -0.20869166 0.07970914 0.23566392 0.08803202 -0.020275924 0.15045044 0.17545138 0.22244594 -0.28788233 -0.0875682 -0.3059152 0.22422625 -0.19869633 0.17839977 -0.03390258 -0.2537747 -0.21886095 -0.0025860395 -0.12977435 -0.07797228 -0.14173146 0.06468976 0.2782689 -0.07156808 -0.28581864 0.22001025 0.09070119 -0.2851499 0.285724 0.13908724 -0.029147355 -0.2934728 -0.13714933 -0.20576228 -0.26457542 -0.26063618 -0.10790625 0.31003502 0.12623711
4 0.117442176 0.059205223 0.23158576 0.07249098 -0.16661195 -0.118244864 -0.045452222 0.16589105 -0.23999146 0.08702307 0.3091794 0.13745566 -0.0009350865 -0.108644694 0.14047606 -0.22067453 -0.054495122 -0.0493347 0.18509255 0.20961843 -0.011786513 0.22247304 -0.11124073 -0.03170745 0.028611025 -0.22212298 0.05855318 0.27263564 0.12528811 -0.0595297 0.12437654 0.1938574 0.2656404 -0.31574532 -0.085481405 -0.3325073 0.24922806 -0.2090208 0.23269176 -0.029628327 -0.26717582 -0.22257775 0.023805503 -0.16223027 -0.097435154 -0.13822524 0.07325341 0.28289166 -0.065379076 -0.2834917 0.20555896 0.08338172 -0.29861203 0.292239 0.13362965 -0.04318763 -0.30452156 -0.14332834 -0.22524841 -0.2392673 -0.28532517 -0.09391915 0.32848948 0.14244495
32 0.0607082 0.1450093 0.0046415534 -0.009507685 -0.10903467 0.15927629 0.25927672 0.069984354 -0.13176902 -0.1791793 0.23377489 0.110958874 0.1982758 0.24821123 -0.038729385 -0.17442873 -0.068070665 -0.13806202 -0.05703059 -0.13344993 0.114906386 -0.077264756 0.12614189 -0.1180861 -0.26212987 0.10078806 0.059717104 0.35758984 -0.07656733 0.0418335 0.29649952 0.25934914 0.13530707 -0.26839545 0.15090425 -0.15611008 0.3230807 -0.07400444 0.010305978 0.1459643 0.12451729 -0.040812958 -0.09535485 -0.07551201 0.032241233 -0.07788884 0.02345802 0.0780739 -0.23384373 -0.5119188 -0.117191106 -0.07254317 0.13883872 -0.05262223 0.22612396 -0.14014196 0.06633635 -0.24032444 -0.26654014 -0.31281728 0.20171808 0.15107755 0.028787937 0.051918156
14 0.080728844 0.10062695 0.16487816 0.014246273 -0.10352775 -0.033822972 -0.013199742 0.15331003 -0.23791878 0.038470995 0.2264728 0.10757449 0.02848197 0.018802581 0.10914802 -0.18327338 -0.046184186 -0.079566754 0.133562 0.037660144 0.04661152 0.16329052 0.035425503 -0.027775753 -0.01948238 -0.13008066 0.11147913 0.23254494 -0.0036269415 0.030628208 0.1678593 0.18611373 0.15605924 -0.29589915 -0.0003835527 -0.21781199 0.16761917 -0.107311025 0.10486919 0.017024714 -0.13056053 -0.20273688 -0.010793988 -0.036173884 -0.06254225 -0.14904276 0.014131895 0.17246266 -0.124956064 -0.3177331 0.19497138 0.06924365 -0.19482316 0.20642233 0.13715847 -0.030932838 -0.26408058 -0.14304434 -0.16263309 -0.31031612 -0.1008712 -0.06534521 0.19677497 0.07695989
24 0.07424844 0.2418803 0.12278117 -0.14847949 -0.07771974 0.10984572 0.25479093 0.17864054 -0.17261112 -0.2808524 0.2688322 0.20537037 0.20258982 0.30363187 -0.008350979 -0.14309223 -0.12841502 -0.10116061 -0.27740136 -0.21189617 0.24696888 0.015936468 0.21946153 -0.16572739 -0.25172544 0.018245917 0.07182812 0.362001 -0.12870224 -0.005899986 0.40621343 0.32432073 0.13557804 -0.22382908 0.1531996 -0.05993797 0.38514215 -0.07472019 -0.026087314 0.09534711 0.22162122 -0.00034316914 -0.20066883 -0.112891845 0.016959056 -0.16899407 -0.053027965 0.16024518 -0.13345642 -0.47048953 -0.11435835 -0.10283751 -0.007143185 -0.13434348 0.34326786 -0.08397241 0.08084561 -0.1813887 -0.11778779 -0.2951724 0.27884024 0.12767383 0.04714672 0.09476884
9 0.076177076 0.17883004 0.15729511 -0.09736332 -0.04214794 0.020485522 0.04572086 0.16419403 -0.23094366 -0.08136882 0.1604773 0.16899458 0.045114398 0.14776225 0.09771528 -0.16093394 -0.06245382 -0.08549663 -0.06369256 -0.13980834 0.16354737 0.12552935 0.16192569 -0.074733816 -0.09625685 -0.10806023 0.14835638 0.2577276 -0.11243396 0.028374517 0.31455985 0.21474677 0.08014867 -0.27388746 0.07826977 -0.07260656 0.21465378 -0.032451566 -0.019752573 0.041173983 0.0671108 -0.15969741 -0.10785936 -0.005313446 -0.039464954 -0.18017682 -0.08886786 0.16853583 -0.12485599 -0.36646172 0.1383057 -0.009998428 -0.13093969 0.023897577 0.2226751 -0.026564823 -0.14773846 -0.13702495 -0.041401993 -0.32427207 0.09943575 0.006626486 0.10850574 0.026122306
8 0.105938196 0.08763448 0.25110364 0.037268877 -0.15185992 -0.1160966 -0.050020773 0.1830958 -0.25803202 0.05002876 0.28430063 0.14254092 -0.023377672 -0.058072448 0.14324553 -0.20966648 -0.043280013 -0.06866012 0.14159648 0.14437042 0.014627045 0.23620275 -0.038494326 -0.037717912 0.03719292 -0.21891645 0.09829524 0.27686188 0.06015209 -0.044853326 0.15250756 0.19183093 0.23752235 -0.32593074 -0.062823534 -0.2784262 0.22955008 -0.17533812 0.18640849 -0.0057206233 -0.21125232 -0.20963876 0.008256373 -0.13326299 -0.105760284 -0.17316873 0.02152368 0.26356283 -0.07333692 -0.28085402 0.2202451 0.08310203 -0.28712907 0.24168006 0.14470845 -0.03262654 -0.30799922 -0.14475265 -0.16768892 -0.26679 -0.22970428 -0.080272734 0.29405287 0.119809404
28 0.061118726 0.15698224 0.10112664 -0.039882164 -0.13654332 0.078701615 0.2432899 0.12653291 -0.14837946 -0.21100461 0.28161857 0.1393674 0.17336297 0.2263551 -0.019507078 -0.15460674 -0.08596699 -0.12623549 -0.1301696 -0.09539131 0.124993734 0.0067168023 0.11179427 -0.14428912 -0.23640089 0.036851417 0.036477692 0.37634504 -0.054151367 -0.024254275 0.29921195 0.28552282 0.18420437 -0.25330913 0.12400733 -0.15478075 0.38260084 -0.120896414 0.055960573 0.115072265 0.095967956 -0.005027249 -0.1334855 -0.14790083 0.017768335 -0.11431258 0.023180116 0.15919895 -0.16369703 -0.4523922 -0.12286521 -0.09046096 0.04640225 -0.062154576 0.25807083 -0.12753184 0.057819784 -0.22541799 -0.23436952 -0.25699764 0.121269874 0.1460615 0.06317891 0.08844613
6 0.004696665 -0.123891026 -0.17601332 0.3347182 -0.04705002 0.19311437 -0.08920496 -0.0607956 -0.3018137 0.3346852 0.030465972 -0.08835301 0.02152819 0.033416796 0.11974346 -0.28487298 0.15413608 -0.24315166 0.7305691 -0.00057391217 -0.13753122 0.062272705 -0.03332671 0.12530814 -0.0608838 0.008774822 0.2819227 0.1405869 -0.12992075 0.3597422 0.05190371 0.070498265 0.014109542 -0.51370984 0.06341471 -0.3872823 -0.12162162 0.009162542 0.07524929 0.15427777 -0.3342842 -0.4888114 0.18366884 0.26380914 0.009530166 0.009819072 0.10681925 -0.06978657 -0.4941294 -0.5918081 0.4426543 0.17089292 0.14417519 0.48928854 -0.1997693 -0.14126691 -0.47504133 -0.27135268 -0.4375687 -0.60945725 -0.10679511 -0.11960103 0.051961258 -0.1518189
7 0.0056725405 -0.06552778 -0.19784376 0.26299837 -0.01132538 0.245671 -0.055752132 -0.054848555 -0.2914608 0.26911756 -0.011996418 -0.0711868 0.028926324 0.102730215 0.10095478 -0.2492786 0.13299829 -0.24737488 0.63672334 -0.10493756 -0.100009054 0.016062278 0.052516088 0.110020645 -0.10750909 0.06344935 0.2858225 0.1504144 -0.17263047 0.37372163 0.09734279 0.098964855 -0.0320252 -0.49021634 0.11291988 -0.31355715 -0.124060765 0.059038773 0.004839462 0.19722545 -0.19609736 -0.45016444 0.12810244 0.29056466 0.023221793 -0.017460894 0.06409212 -0.11000564 -0.49419558 -0.61679715 0.41378593 0.15144745 0.18162477 0.41633102 -0.1451123 -0.12569891 -0.40558568 -0.27474543 -0.3793131 -0.6146106 0.0059058922 -0.093176946 0.0037318596 -0.16761614
31 0.08961664 0.19545819 0.22436713 -0.102906734 -0.05486324 -0.031902134 0.051962916 0.18743077 -0.23506977 -0.104993664 0.19077824 0.20666648 0.060785633 0.13375945 0.09366728 -0.14775231 -0.0908883 -0.07172659 -0.114136696 -0.09631296 0.16868666 0.15407096 0.15163685 -0.08831083 -0.08202488 -0.14016785 0.11381696 0.27260846 -0.09714836 -0.0038145732 0.30734566 0.24608089 0.11802275 -0.25985795 0.065604135 -0.066773556 0.24355325 -0.06283648 0.015579952 0.013542488 0.045106124 -0.13519843 -0.13186099 -0.04331969 -0.044090822 -0.20616123 -0.08206925 0.20751332 -0.065440156 -0.32347867 0.13167785 -0.017549256 -0.21207453 0.03203425 0.2549963 -0.016301578 -0.12879786 -0.12088615 -0.019172233 -0.2865651 0.060700577 0.008458665 0.14825681 0.07933808
30 0.08475977 0.26324302 0.184684 -0.19525504 -0.036823165 0.07269277 0.19556145 0.21289156 -0.22274213 -0.27583325 0.20374781 0.25541806 0.14984658 0.31433415 0.037676618 -0.14010917 -0.12929335 -0.09155094 -0.30486277 -0.26766044 0.29584044 0.06965848 0.25642908 -0.16897012 -0.20408644 -0.050565556 0.12916343 0.35520625 -0.19567928 -0.015230876 0.45468885 0.32896164 0.087098606 -0.25157708 0.18004058 0.0073011345 0.3799974 -0.029323023 -0.084656715 0.062322356 0.24165727 -0.0377777 -0.2425528 -0.0641534 -0.0049291626 -0.22223122 -0.12042893 0.197827 -0.11976313 -0.44169804 -0.018523855 -0.13229448 -0.08283366 -0.16678819 0.3456962 -0.06085414 0.022913808 -0.16006139 -0.006042869 -0.31258887 0.2898197 0.11485576 0.04871106 0.076234296
25 0.063393734 0.16386043 0.020761177 -0.016559938 -0.15118301 0.17359802 0.37532535 0.089675434 -0.08805191 -0.28668138 0.3120302 0.1222996 0.253949 0.29560602 -0.09267151 -0.1878219 -0.09819612 -0.15395714 -0.17825459 -0.12261934 0.14685625 -0.13733493 0.10497653 -0.17922853 -0.34026742 0.14376597 -0.0013350933 0.43172783 -0.05619455 -0.019616665 0.35801202 0.30200365 0.20056431 -0.25654495 0.15254727 -0.16716252 0.4528556 -0.11404587 0.014123506 0.16599073 0.17189008 0.05494845 -0.1344171 -0.18071531 0.04025613 -0.070659354 0.040930413 0.12399673 -0.22655511 -0.55154026 -0.2700774 -0.14139359 0.19574279 -0.14082976 0.29767853 -0.18591677 0.19102144 -0.2736158 -0.32547504 -0.26808318 0.2372706 0.22105576 0.025551355 0.104233004
29 0.096032135 0.17575857 0.14816104 -0.052827656 -0.08409632 0.027226591 0.12133416 0.1641638 -0.18456507 -0.12299613 0.24244335 0.15711577 0.10142086 0.1388133 0.04176362 -0.15311687 -0.08250699 -0.06713265 -0.08164446 -0.08995603 0.124572165 0.07379992 0.09712205 -0.08878794 -0.1247256 -0.08096259 0.0804441 0.29254767 -0.04078037 -0.018605934 0.28711554 0.23449539 0.15925159 -0.26877382 0.06699107 -0.13038729 0.28126118 -0.0878233 0.039749637 0.060566425 0.045276746 -0.093148924 -0.10862352 -0.076471046 -0.032653514 -0.15449713 -0.019623725 0.17211929 -0.12146787 -0.37995368 0.033849392 -0.02912745 -0.11521684 0.0212404 0.23343202 -0.06595615 -0.08816757 -0.1381097 -0.13244179 -0.276053 0.07641506 0.020546801 0.13057573 0.08424071
5 0.02005759 -0.077934 -0.113729775 0.25327525 -0.047645807 0.1723 -0.11188354 -0.017918047 -0.30177587 0.29815426 0.05878329 -0.056715265 -0.0076910676 0.0020231062 0.13279086 -0.26933837 0.12510686 -0.21485928 0.6508103 0.017776253 -0.11885418 0.0824154 -0.017797085 0.10270394 -0.021688594 -0.026314182 0.26063716 0.144115 -0.09291692 0.29603332 0.051117044 0.08248825 0.021889927 -0.46121666 0.038681924 -0.36153564 -0.09443218 0.004231054 0.0679245 0.13223271 -0.29235905 -0.44934428 0.16110563 0.21453923 -0.022510488 -0.03213179 0.085496925 -0.041832253 -0.42103305 -0.53486305 0.42821237 0.17609449 0.07143026 0.4543748 -0.13309178 -0.11949176 -0.48478886 -0.234991 -0.36113065 -0.5566692 -0.10755726 -0.12697959 0.101987906 -0.10634874
11 0.028093232 -0.04980199 -0.14250617 0.25041664 -0.010116278 0.18401136 -0.15024815 -0.017363632 -0.3395133 0.32428163 0.0071720183 -0.048956778 -0.0074050366 0.027664024 0.13938625 -0.2548416 0.122030154 -0.21944623 0.66720676 -0.04035249 -0.1164378 0.10559579 0.04176391 0.12151177 -0.025067367 -0.008469982 0.28684637 0.11542309 -0.14826879 0.35990167 0.04856227 0.09792468 -0.008962431 -0.4645954 0.046228476 -0.3228678 -0.17860577 0.028769698 0.06394676 0.15255433 -0.27485073 -0.4833658 0.15757602 0.2825962 8.661601e-05 -0.04584178 0.0684965 -0.058833987 -0.41039076 -0.5389738 0.49852324 0.20277865 0.043546688 0.49487633 -0.14574353 -0.09699241 -0.49994534 -0.2371917 -0.3233722 -0.6016296 -0.07716014 -0.1636714 0.07797482 -0.12228233
26 0.06061337 0.1908413 0.027924359 -0.046435926 -0.16816393 0.16502957 0.41124746 0.103128746 -0.106130324 -0.3435281 0.34392437 0.14491658 0.26590118 0.33046022 -0.10105054 -0.18068127 -0.11460824 -0.16953613 -0.21644951 -0.15443076 0.15459226 -0.12320514 0.13052577 -0.20698753 -0.36391807 0.15793812 0.0070486753 0.47454166 -0.05410566 -0.042567354 0.37201092 0.34034666 0.22904845 -0.26939937 0.17741627 -0.16121301 0.50474006 -0.14205898 0.03871283 0.18651469 0.20650455 0.076669425 -0.17560649 -0.20689657 0.056536634 -0.07374522 0.051487494 0.1401644 -0.22533749 -0.5789692 -0.3189182 -0.16956834 0.21450883 -0.18389416 0.329229 -0.20454602 0.22638784 -0.28769106 -0.3280389 -0.26072866 0.24568263 0.25406727 0.011223947 0.106776826
20 0.06751246 0.08885015 0.14891815 0.042053565 -0.09671044 -0.017019566 -0.008995996 0.1289237 -0.23918965 0.031143704 0.210048 0.11150252 0.019202333 0.020165423 0.11719246 -0.18668264 -0.028197382 -0.08937679 0.13922682 0.040282946 0.03911461 0.1662242 0.01337868 -0.043772355 -0.017246779 -0.1294909 0.12699442 0.232793 -0.008636904 0.03349959 0.17512457 0.16986203 0.15857989 -0.3106003 0.0027131157 -0.21704763 0.18498476 -0.11873068 0.10880611 0.029857676 -0.14013003 -0.20972693 -0.019774107 -0.039839994 -0.052917052 -0.13966055 0.017646568 0.17638941 -0.123098455 -0.33907908 0.18359327 0.039456345 -0.15655795 0.18793555 0.1163696 -0.051707506 -0.2558178 -0.1488252 -0.16499913 -0.30203506 -0.10931041 -0.05095083 0.18794021 0.07046725
13 0.08853982 0.059210125 0.17757605 0.07534879 -0.1475899 -0.05583481 -0.014847767 0.14880472 -0.24543233 0.06619777 0.279563 0.10383289 0.010261036 -0.048431132 0.12500189 -0.22518602 -0.038877673 -0.086363845 0.20503291 0.15017354 -0.009319449 0.18299815 -0.061229303 -0.03643282 0.019655226 -0.15690085 0.09818554 0.27284166 0.06386075 -0.0006413384 0.1373905 0.1786705 0.22953019 -0.32305348 -0.054633446 -0.3020376 0.21172737 -0.18092354 0.18432504 0.01562968 -0.22564976 -0.21943066 0.025649207 -0.12560804 -0.079877354 -0.12503259 0.0614366 0.22344416 -0.114936724 -0.32691643 0.18140958 0.07774803 -0.20465055 0.2567985 0.12246508 -0.075099766 -0.3014564 -0.1778862 -0.23345582 -0.27500474 -0.21224526 -0.0537394 0.2712929 0.11344585
18 0.0638736 0.039978147 0.12219554 0.123948105 -0.13567233 -0.01846824 -0.04491574 0.114912 -0.26099107 0.11296028 0.2372898 0.07519893 0.017474568 -0.04664366 0.119766586 -0.23195502 -0.0034721654 -0.11468723 0.29013413 0.12838455 -0.03973514 0.18490902 -0.04134832 -0.008887742 -0.0064627663 -0.12640232 0.11979331 0.22909841 0.033920866 0.05996992 0.11876519 0.15637416 0.18715724 -0.34640503 -0.048337515 -0.31154037 0.13575947 -0.15657784 0.17764226 0.040098175 -0.2616207 -0.2713196 0.05673528 -0.058004517 -0.04780473 -0.112360924 0.074993566 0.18406868 -0.16290966 -0.35972282 0.24144152 0.10507897 -0.17021333 0.312462 0.060392823 -0.07171977 -0.31787017 -0.18654071 -0.25460756 -0.34074345 -0.21345061 -0.08934098 0.233618 0.0765408
22 0.063270174 0.02942794 0.12088021 0.13342305 -0.12896758 -0.029845888 -0.02141328 0.10427863 -0.24182181 0.11068 0.21657845 0.06955593 -0.00027926473 -0.036294747 0.11973929 -0.22698371 0.0081083 -0.122952364 0.2628822 0.12320381 -0.037051942 0.16608796 -0.05544061 -0.0139463935 -0.0038645114 -0.12275711 0.12186121 0.22344409 0.024099221 0.054497097 0.12007161 0.14582704 0.19282119 -0.34168294 -0.027516842 -0.29676458 0.1604505 -0.15001594 0.16446324 0.0472748 -0.24978757 -0.24700321 0.047673896 -0.05717119 -0.046002973 -0.1035056 0.06705551 0.18333258 -0.1710753 -0.3496043 0.21116495 0.06763618 -0.13949198 0.27656192 0.04664667 -0.07715345 -0.28167996 -0.19080557 -0.2595504 -0.31475133 -0.21041042 -0.053570047 0.20404705 0.065039024
17 -0.007356585 -0.08498198 -0.24293305 0.29890525 0.04158672 0.27186888 -0.18338317 -0.069475725 -0.37005985 0.39515424 -0.076532446 -0.09384685 0.011924116 0.08393887 0.14372073 -0.25706148 0.18634972 -0.26310325 0.7912227 -0.15842901 -0.1182393 0.06432641 0.10355217 0.17168084 -0.062330462 0.029392362 0.38136014 0.058406197 -0.2524364 0.4786362 0.059020113 0.0780091 -0.11238641 -0.5333371 0.11713364 -0.31388712 -0.2828888 0.1135958 -0.019212661 0.18396007 -0.25106537 -0.59590936 0.1832025 0.42543086 0.036959555 -0.040952414 0.043327965 -0.15390833 -0.5441881 -0.64413446 0.60144264 0.22165427 0.14007325 0.54154205 -0.23324008 -0.092816174 -0.54235405 -0.23543955 -0.34041074 -0.73431665 0.010994215 -0.19192792 0.007856927 -0.22364047
23 0.06679547 0.23474085 0.18079977 -0.1653262 -0.029414225 0.04853405 0.12401736 0.18164387 -0.22370082 -0.18840462 0.17943767 0.21755667 0.12251907 0.24501824 0.059964593 -0.13981798 -0.09423764 -0.08534352 -0.22469084 -0.21194223 0.24435267 0.088543095 0.2285796 -0.1309825 -0.17497385 -0.07297076 0.13038284 0.31238103 -0.17442152 0.010889984 0.39801037 0.26911035 0.069050945 -0.23987448 0.12779012 -0.006221025 0.29249397 -0.023941882 -0.06776249 0.05080566 0.1857903 -0.08692743 -0.18973874 -0.028441284 -0.011649771 -0.20924103 -0.11580261 0.18654248 -0.12400798 -0.4002062 0.05378586 -0.08210993 -0.10070504 -0.0987923 0.3075135 -0.034638382 -0.025080709 -0.13979614 0.0020880906 -0.31862783 0.20790012 0.064977944 0.073818244 0.05311231
10 0.09625461 0.20674786 0.26707557 -0.11383109 -0.08265158 -0.06406861 0.065845914 0.22318944 -0.22600287 -0.12150247 0.24091852 0.22867356 0.050186735 0.11626154 0.08905507 -0.16069658 -0.10711788 -0.04850168 -0.14219859 -0.05852848 0.180609 0.17301627 0.11308865 -0.10901804 -0.074890144 -0.17325163 0.099207945 0.302301 -0.052836683 -0.051296823 0.31211904 0.25629252 0.16328558 -0.2665787 0.05226231 -0.08948014 0.3114416 -0.098290384 0.03932461 0.0038675265 0.036835898 -0.10756072 -0.13756584 -0.10898629 -0.056349214 -0.20406044 -0.07374558 0.25000718 -0.053265348 -0.31471506 0.10651865 -0.033825923 -0.25496992 0.021573683 0.27158034 -0.022954633 -0.1361274 -0.12260899 -0.0387906 -0.26599056 0.029735819 0.012078569 0.18587933 0.111223124
15 0.07431632 0.23872854 0.12523808 -0.16850938 0.0020348679 0.08504165 0.092282094 0.1708936 -0.23196751 -0.1697673 0.1377799 0.19479594 0.12397475 0.26464465 0.065507956 -0.1155704 -0.091330804 -0.085170485 -0.17637984 -0.28418472 0.23847017 0.07681225 0.2682282 -0.092143476 -0.17260414 -0.066509075 0.16681564 0.26188916 -0.21619745 0.05872422 0.37917036 0.26012042 0.02239678 -0.2508012 0.15230303 0.016921885 0.21949708 0.026447045 -0.10391883 0.063069634 0.20659137 -0.11764489 -0.17110069 0.060777042 -0.0039339354 -0.20801584 -0.12981242 0.12754574 -0.14221336 -0.41853848 0.10330505 -0.05788406 -0.090741605 -0.059072156 0.27415994 -0.019377679 -0.062148083 -0.11318933 0.017800026 -0.36320743 0.26809415 0.024847813 0.035674125 0.0167322
19 0.07447845 0.254358 0.18309312 -0.17675152 -0.020761117 0.037734877 0.10961701 0.18639195 -0.22704563 -0.18654208 0.16780096 0.21635064 0.09490876 0.23282743 0.07633024 -0.13906467 -0.09508484 -0.07574593 -0.1988465 -0.22699393 0.24779771 0.09513176 0.24052931 -0.12661386 -0.15045364 -0.0891658 0.15255725 0.3116332 -0.18221508 0.026769234 0.4086837 0.26193067 0.05522205 -0.26458123 0.13468672 -0.0046205255 0.27720317 -0.003177262 -0.07690396 0.06162227 0.19032556 -0.10552639 -0.19276395 -0.0040980354 -0.029401522 -0.2262594 -0.13124514 0.17698614 -0.13828462 -0.39870733 0.09557554 -0.07292854 -0.13131236 -0.079804376 0.31534374 -0.02415539 -0.07378442 -0.13480085 0.012053461 -0.34541583 0.22624183 0.05480116 0.06928377 0.041460965
16 0.083918124 0.2880317 0.19593407 -0.22890595 0.02462808 0.05039655 0.10933043 0.21427022 -0.25959584 -0.21653536 0.13149276 0.25427222 0.11483032 0.29203287 0.078985035 -0.110280484 -0.11660737 -0.072613254 -0.2876405 -0.3249981 0.3010054 0.11720982 0.3244639 -0.120769866 -0.17175227 -0.09103031 0.17426464 0.2932814 -0.248419 0.033043828 0.43255633 0.29604983 0.011440939 -0.23795852 0.1746559 0.081989795 0.254542 0.03476803 -0.12813717 0.04818301 0.2594841 -0.10054025 -0.23203868 0.04806205 -0.0073873103 -0.2468484 -0.17133622 0.1683883 -0.10486256 -0.3934586 0.099642165 -0.08864632 -0.15344647 -0.12733822 0.32777187 -0.00552471 -0.047598325 -0.10284689 0.09812385 -0.3465508 0.30608922 0.051344477 0.03835887 0.024607262
21 0.07222953 0.2552395 0.19715755 -0.18401226 -0.0027692432 0.03220247 0.05089834 0.19241062 -0.25575343 -0.151186 0.14646284 0.23784664 0.080407985 0.22742264 0.098023936 -0.11408344 -0.09890144 -0.0679975 -0.19459163 -0.24508762 0.26025745 0.15148275 0.25363117 -0.10073101 -0.13773622 -0.12659296 0.16006854 0.26025414 -0.20363352 0.044958718 0.3817389 0.27229524 0.035182778 -0.23860656 0.13127996 0.025730599 0.2311701 -0.0029525605 -0.07462473 0.015588942 0.17723033 -0.13936052 -0.18225212 0.031801816 -0.022299293 -0.22754355 -0.14686477 0.1797999 -0.09653605 -0.37158734 0.14622973 -0.041411743 -0.18429042 -0.040459994 0.28248936 0.0126776155 -0.09716573 -0.096355595 0.06343723 -0.34222543 0.20607097 0.010851272 0.07884552 0.026221013
27 0.08259625 0.26381415 0.21359707 -0.21681635 -0.011327696 0.026782043 0.100450434 0.23047785 -0.2447175 -0.22062577 0.1851475 0.23713298 0.09588304 0.25316682 0.08942925 -0.11639183 -0.1296547 -0.050398275 -0.27422982 -0.25728965 0.28354847 0.14397973 0.26314956 -0.14084229 -0.1406282 -0.1079133 0.15413153 0.30518803 -0.1822143 0.0018599158 0.42115593 0.28760505 0.061381668 -0.23833029 0.14835922 0.007912613 0.3066044 -0.024662742 -0.069864236 0.048033096 0.21211441 -0.077747576 -0.2231336 -0.016653148 -0.029145226 -0.25372052 -0.14761268 0.20344515 -0.076136574 -0.3807389 0.08637612 -0.07972183 -0.17204818 -0.10249328 0.33774653 -0.012960037 -0.082407 -0.10965964 0.04848154 -0.32307345 0.23106743 0.043056916 0.08008521 0.06180867
12 0.064960495 0.0050552245 0.039396215 0.15342699 -0.10439367 0.027988458 -0.05741287 0.06756033 -0.25534135 0.16336916 0.18683153 0.021145208 -0.0018235269 -0.044077203 0.11497661 -0.22034143 0.017161027 -0.13044997 0.3872478 0.11873007 -0.07814511 0.13613023 -0.047297258 0.024416246 0.0018871494 -0.08544516 0.1425491 0.21232064 0.015589339 0.117610715 0.07748441 0.13395081 0.14953548 -0.3474589 -0.025280762 -0.31228307 0.06151586 -0.10627304 0.14464875 0.07315889 -0.2545327 -0.2897108 0.07287874 0.010628238 -0.057224903 -0.06750126 0.08388601 0.1101698 -0.20888478 -0.3810986 0.2589635 0.1218265 -0.082735516 0.3337446 0.0076934914 -0.09621755 -0.3495706 -0.18946107 -0.27853075 -0.35226858 -0.18628204 -0.09790269 0.19701017 0.020768745
