34 64
1 -0.061702684 0.22264384 0.06296395 -0.19983016 0.31329003 -0.06747685 0.31315407 -0.073247656 -0.10783052 0.22772354 -0.18487282 -0.056471627 -0.024139578 0.21297741 -0.05045927 -0.21366996 -0.26273847 0.12330946 0.007725954 0.23975895 -0.020095788 -0.06869444 0.28409117 0.031331077 -0.10014987 -0.024397604 0.1339766 -0.25218925 0.042345386 0.094102554 0.055025503 -0.12101159 -0.04198642 -0.041503016 -0.05665266 0.055526905 0.29422098 -0.19923371 -0.09371709 -0.12997346 -0.07345793 -0.2620779 -0.22653414 -0.34770474 0.15213229 0.09109103 0.122609206 -0.04157348 -0.19722985 0.013674083 0.14805128 -0.2343271 0.28365386 -0.04129509 0.15380742 0.17000334 -0.010518578 -0.064706676 0.0451324 -0.05297968 0.1638504 -0.28134796 0.11828143 -0.061938673
34 -0.0721546 0.15251082 0.0060639665 -0.1202026 -0.025297415 -0.029476363 -0.19119014 0.11287892 -0.08004981 -0.039253607 -0.108267784 -0.24181914 0.0004389954 -0.027376123 0.065019876 -0.2800559 0.18083882 -0.09703326 -0.06450255 -0.014756321 -0.107123695 0.016943106 0.11521231 -0.035491053 -0.43206948 0.17852959 0.020906165 -0.26223317 0.22201869 -0.20861632 -0.08213835 0.23565601 -0.06665677 0.33062932 -0.12958851 0.0379348 0.013443906 0.11487568 -0.082758404 -0.24297039 -0.026987458 -0.027031437 -0.050826143 -0.5379841 0.047726348 0.08841897 -0.052537907 0.0037383558 -0.18868423 -0.01121321 0.021689337 -0.20426957 0.06549635 0.018005032 0.4044621 0.08806038 -0.25929925 0.103979155 0.19430429 0.19960305 0.44875786 -0.14035876 -0.1345879 -0.027964588
33 -0.033346355 0.13220704 0.010846219 -0.12384737 -0.052611217 -0.0026429072 -0.20617773 0.09647454 -0.04438584 -0.11086516 -0.14270501 -0.28043193 0.015190202 -0.07628312 0.07299747 -0.2777935 0.14924435 -0.08278944 -0.04949143 0.0062386505 -0.0801331 -0.0066420985 0.07241199 -0.030718483 -0.4281033 0.19212848 -0.006240536 -0.20899911 0.22706407 -0.23493153 -0.12584212 0.2652894 -0.07824096 0.29528126 -0.19675587 0.062656105 -0.030073145 0.08251696 -0.1123793 -0.15318221 -0.022254162 -0.04968642 0.023214635 -0.58544296 0.057644863 0.037350297 -0.03369724 0.033243958 -0.13537866 -0.07116611 0.008032795 -0.17010453 0.055042062 -0.02290481 0.383231 0.1365929 -0.23686253 0.092933536 0.15924977 0.24754167 0.467434 -0.16390088 -0.13272291 -0.02197137
3 -0.058026306 0.09445308 -0.0638556 -0.15022822 0.19690295 0.0049073333 0.06316855 -0.014476496 -0.05343029 -0.044497263 -0.080593914 -0.15896752 -0.036173563 0.12807839 0.06674229 -0.16114391 0.007524319 -0.033624165 0.04414195 0.06271809 -0.15409002 0.0027707685 0.20371765 0.041572418 -0.28099987 0.022134436 0.036374602 -0.24191786 0.22674085 -0.077181585 -0.002253265 0.12395755 -0.06865933 0.08296177 -0.047500994 0.024655038 0.1557137 0.0017129045 -0.12877537 -0.19598123 -0.045374867 -0.12081263 -0.2929559 -0.41188434 0.21423416 0.030785507 0.023591992 -0.10759837 -0.31479248 -0.022742111 0.11968506 -0.23710795 0.20986287 -0.030664131 0.3987003 0.11230417 -0.18740349 0.04997123 0.113418326 0.0887226 0.3080468 -0.1441204 0.10751683 -0.08756908
2 -0.07775844 0.10278738 -0.07130813 -0.17807363 0.35091567 0.013664644 0.25295204 -0.1052451 -0.032677274 -0.011295197 -0.09029247 -0.12116429 -0.04634144 0.21878527 0.057517517 -0.10656677 -0.15441349 0.048044387 0.08792302 0.15429367 -0.15912984 -0.03231533 0.26913053 0.09815024 -0.196956 -0.044185568 0.06408692 -0.21541245 0.22370183 0.00581878 0.07151684 0.018683208 -0.0548005 -0.10063751 -0.011272764 0.021479601 0.24121453 -0.11892743 -0.15733069 -0.14358199 -0.06861191 -0.19989015 -0.4111239 -0.40361148 0.33766943 0.0061980216 0.06819967 -0.17389204 -0.3703727 -0.038204513 0.17359108 -0.25716448 0.3150545 -0.06717226 0.40205556 0.16793068 -0.13497783 0.007607172 0.058686707 0.033602018 0.21740462 -0.17502314 0.2670238 -0.11800921
4 -0.076786354 0.08176356 -0.08129969 -0.19183281 0.3711895 0.0073630097 0.27566174 -0.10212204 -0.038837068 -0.012856733 -0.074686445 -0.10752499 -0.044745162 0.26399714 0.059861194 -0.09561546 -0.15107495 0.029188886 0.11623843 0.14572057 -0.17339806 -0.029949721 0.28870538 0.086550556 -0.18204959 -0.07553763 0.06690963 -0.24558309 0.22614361 0.034746468 0.07724291 0.028416315 -0.051264256 -0.10900242 0.023230234 -0.0048886677 0.2811641 -0.09885589 -0.15338217 -0.17040075 -0.057877086 -0.20334174 -0.47242177 -0.38226444 0.34907356 0.016987145 0.07640116 -0.18884228 -0.41278073 -0.032764003 0.20067655 -0.28203887 0.33784434 -0.07740394 0.3969884 0.14005077 -0.13304293 0.004881591 0.076423444 -0.0037902866 0.21343422 -0.16468513 0.28968036 -0.13594012
32 -0.058834855 0.28526172 0.08204684 -0.114706784 -0.07142779 -0.07973576 -0.086300455 0.19832002 -0.17061882 0.2876369 -0.087744646 -0.15820733 -0.08918047 0.10128878 0.0938208 -0.46232164 0.088030815 0.06866459 -0.24301106 -0.11697841 -0.042688742 0.0027553532 0.0922564 -0.046103913 -0.27214184 0.24834628 0.16510698 -0.3374402 0.008943046 -0.14602496 -0.023510823 0.00047359164 -0.057828426 0.416576 -0.030992491 0.013488755 0.21261343 0.22206615 0.0775896 -0.26657104 0.039468534 -0.09046221 -0.1142442 -0.36814734 0.028991314 0.1851029 -0.09756849 -0.012116695 -0.14153104 0.2697485 -0.024001896 -0.3236457 -0.03848691 0.13049583 0.13759245 -0.052056003 -0.13387163 0.1617798 0.17661574 0.092473224 0.14953256 -0.21662842 -0.1362396 -0.084205724
14 -0.04397983 0.11836873 -0.028354323 -0.18170416 0.22198494 0.001269277 0.1518914 -0.037717182 -0.06991735 0.055044204 -0.12975128 -0.14374116 -0.023938602 0.13427521 0.026010735 -0.1877213 -0.10325191 0.024930041 0.029241009 0.13109687 -0.09708992 -0.035438653 0.2140781 0.01756365 -0.23486924 0.006650177 0.06502358 -0.24177839 0.14672863 -0.032873936 0.00209601 0.036231007 -0.06300428 0.04382088 -0.08562369 0.038036637 0.2055434 -0.082411125 -0.12026385 -0.12225409 -0.043946143 -0.19024938 -0.246118 -0.41136572 0.21139373 0.040981084 0.07081795 -0.0863785 -0.24341716 -0.03234945 0.117300145 -0.23875274 0.22446036 -0.05696107 0.30443487 0.15797396 -0.11516206 -0.002996064 0.07342594 0.04676599 0.25998506 -0.20205158 0.10696854 -0.07766054
24 -0.06689822 0.20279664 0.029219123 -0.09714278 -0.14621207 -0.05981371 -0.25538573 0.21233526 -0.12872949 0.10579533 -0.049812984 -0.24926646 -0.049354665 0.017169224 0.1445415 -0.43851796 0.2283842 -0.0050234986 -0.20917712 -0.16905884 -0.118515864 0.0228628 0.04451072 -0.048279632 -0.42485738 0.29405054 0.07870349 -0.31626248 0.12638097 -0.25014892 -0.0852629 0.16181485 -0.059516363 0.48209876 -0.059805445 -0.007839383 0.09030795 0.2924767 0.030777372 -0.28794405 0.05812969 -0.0033794588 -0.091213726 -0.47337428 0.06936439 0.15033898 -0.14567842 -0.038619343 -0.16222264 0.20002192 -0.036683537 -0.2918105 -0.07574272 0.10221973 0.31231776 -0.039121613 -0.25467068 0.21047156 0.22332522 0.20123816 0.28210837 -0.13829866 -0.15382548 -0.0858008
9 -0.06347879 0.15224403 0.02755453 -0.13867265 0.035966698 -0.036563173 -0.07311235 0.066206165 -0.08312579 0.019635608 -0.12504876 -0.2027552 -0.012489776 0.021398209 0.03869946 -0.26815686 0.06501321 -0.036007274 -0.04888695 0.04868811 -0.08159145 -0.0084099425 0.14094496 -0.022146666 -0.34215906 0.1317672 0.041858807 -0.24567948 0.16105717 -0.13683403 -0.061843935 0.1287287 -0.0569595 0.21627785 -0.117179096 0.039551727 0.07391114 0.019897548 -0.08805936 -0.1844212 -0.027400598 -0.08308228 -0.06875826 -0.47924772 0.07443106 0.08250537 -0.0073486827 -0.011641036 -0.17080595 -0.0039758254 0.037472803 -0.20416415 0.11414382 -0.0022704392 0.32698008 0.12565526 -0.18094648 0.056712914 0.14975321 0.14727607 0.36199653 -0.17163247 -0.06390662 -0.018678857
8 -0.06648354 0.08727264 -0.07549969 -0.20820217 0.32626477 0.022951525 0.22314385 -0.080425456 -0.038592305 -0.026640354 -0.07805996 -0.12986396 -0.02301127 0.20756759 0.048906296 -0.100293845 -0.11429593 0.0041666557 0.094567105 0.13754429 -0.15370071 -0.025802972 0.28369072 0.052800395 -0.23023318 -0.06462696 0.03682736 -0.25517783 0.23553029 0.008159791 0.060608674 0.06378457 -0.060512215 -0.040084485 -0.027798804 0.018015435 0.23104039 -0.10420625 -0.15990616 -0.16142833 -0.050960824 -0.19016771 -0.40240887 -0.4101828 0.30223528 0.01739833 0.08838494 -0.14919588 -0.3737259 -0.07473725 0.1840328 -0.26922205 0.29754752 -0.07680999 0.41217285 0.17071031 -0.16354471 -0.019508423 0.08792322 0.023384903 0.27242446 -0.1627734 0.21707654 -0.10319626
28 -0.069239765 0.22996484 0.048550915 -0.12128357 -0.025143074 -0.060102634 -0.100176886 0.1816898 -0.13178545 0.18448032 -0.024494559 -0.16693719 -0.08349061 0.12001232 0.1301562 -0.37279558 0.12997289 0.049965348 -0.20509258 -0.13858047 -0.10740476 0.0036870625 0.10283113 -0.030595649 -0.30323014 0.21958096 0.13540117 -0.33338913 0.10216516 -0.14333823 0.0008699127 0.065579936 -0.039544195 0.39500248 0.011514089 -0.02771146 0.18641964 0.24451295 0.04673363 -0.29802674 0.052233048 -0.07112923 -0.21098408 -0.3706333 0.11280758 0.16803105 -0.11049357 -0.06875627 -0.20206377 0.23107845 0.00035869394 -0.32630175 -0.03203517 0.12134899 0.23716769 -0.05581196 -0.20475723 0.18708056 0.19435376 0.10947029 0.16871716 -0.14578106 -0.086393304 -0.11380336
6 -0.000521064 0.4422348 0.24102187 -0.29210156 0.39139426 -0.14759861 0.5146949 -0.0780361 -0.2329648 0.49578366 -0.44052884 -0.046562884 -0.044676784 0.21800607 -0.1818638 -0.41910622 -0.5619251 0.2784451 -0.047435552 0.48896047 0.19672209 -0.19446473 0.34674782 0.027377155 0.014539994 0.035273053 0.2694265 -0.27958453 -0.14220826 0.20476227 0.01739568 -0.30766535 -0.079411216 -0.060573764 -0.24428307 0.15728578 0.4348653 -0.39136556 -0.07799189 -0.045564577 -0.1555028 -0.4858093 -0.009819792 -0.4867332 0.026888367 0.1333965 0.2429421 0.14497948 0.0047773374 0.024516804 0.12946136 -0.22782205 0.354094 -0.08089667 -0.13544187 0.24731727 0.2026728 -0.15381078 0.018790873 -0.1264281 0.1961237 -0.54483986 0.010200633 -0.015349591
7 0.010436785 0.4394634 0.24693947 -0.24740733 0.274347 -0.13965286 0.3990692 -0.02134701 -0.24807686 0.50836 -0.43469205 -0.077603064 -0.03613522 0.12774484 -0.19305766 -0.4650126 -0.48453593 0.25114882 -0.110968396 0.42926738 0.2095808 -0.18470179 0.30580264 -0.0064395233 -0.043515097 0.106278226 0.25652233 -0.28792566 -0.15851285 0.13070264 -0.03158177 -0.26543364 -0.10455129 0.053099915 -0.27420893 0.18422467 0.36566007 -0.33918267 -0.051521547 -0.05840998 -0.1629944 -0.44182742 0.09004645 -0.49725944 -0.057922926 0.15458971 0.20215346 0.18853661 0.06258937 0.041692127 0.06190142 -0.21435112 0.28050247 -0.060271613 -0.14025165 0.24610463 0.17901035 -0.14138745 0.030638646 -0.10250346 0.25042346 -0.53273755 -0.08505535 0.0112743825
31 -0.07099433 0.11960843 -0.024015063 -0.12618887 0.06644166 0.00016832481 -0.09158133 0.047136858 -0.06296607 -0.048552204 -0.102025546 -0.21235394 -0.016881349 0.031741656 0.07253175 -0.2183373 0.089112975 -0.050591134 -0.02893935 0.013730155 -0.13827099 0.0044685574 0.123926856 0.0014119558 -0.36422834 0.10901541 0.025413966 -0.22757085 0.20440426 -0.14592867 -0.058055446 0.16702461 -0.07089925 0.20864843 -0.0900232 0.028837876 0.05155322 0.058199957 -0.10683446 -0.19870964 -0.039743263 -0.07462394 -0.16003093 -0.4834655 0.1435832 0.05719275 -0.015763737 -0.058643453 -0.22004089 -0.013819467 0.060870275 -0.1937059 0.11379871 -0.0077385283 0.382768 0.11486109 -0.21867564 0.09470537 0.13051778 0.16383214 0.36367127 -0.13392119 -0.023745904 -0.049677517
30 -0.07234538 0.1798691 0.01788013 -0.10209356 -0.1378071 -0.06494049 -0.31241512 0.19584069 -0.09498577 0.016345488 -0.087006934 -0.25877237 -0.023121797 -0.028842237 0.11528814 -0.39049363 0.2673545 -0.07258511 -0.16734698 -0.12093936 -0.13784866 0.033775136 0.04821024 -0.04876952 -0.48836622 0.28166232 0.056752473 -0.28963163 0.1964833 -0.27903798 -0.10380371 0.23247701 -0.04672942 0.47669667 -0.08661761 0.010482697 0.005679442 0.24142142 -0.026237449 -0.28935963 0.026977088 -0.009186173 -0.03580061 -0.55651385 0.044708334 0.12050318 -0.13112523 -0.004676698 -0.1532394 0.10358208 -0.019311853 -0.237625 -0.055851102 0.07454835 0.38970965 0.019422494 -0.2809573 0.19810349 0.23195207 0.25579426 0.41087762 -0.1273241 -0.19235796 -0.04301445
25 -0.08674839 0.31443724 0.080078155 -0.09537389 -0.13133073 -0.10710035 -0.15940528 0.26965576 -0.17830765 0.32353467 -0.009516537 -0.16142279 -0.10635415 0.13430865 0.16120954 -0.5234582 0.18767391 0.08432885 -0.3169667 -0.23751476 -0.09208324 0.018678105 0.066293575 -0.054180183 -0.30909494 0.29768088 0.18964443 -0.37499875 0.0070395046 -0.18117791 -0.008856786 0.018633379 -0.03546074 0.52695316 0.050669417 -0.03639918 0.2283822 0.3645543 0.15318874 -0.36966747 0.09059794 -0.033174798 -0.18565723 -0.346011 0.047224537 0.2459695 -0.19118877 -0.065651745 -0.18177839 0.38718235 -0.03736685 -0.39090046 -0.11992068 0.18531492 0.14542162 -0.14499907 -0.19647606 0.24238694 0.21721822 0.113255896 0.09609416 -0.17629865 -0.1546606 -0.12643121
29 -0.05133394 0.14515588 -0.0052676257 -0.1322108 0.03664803 -0.032033138 -0.04461446 0.09567716 -0.09658826 0.05050044 -0.078939006 -0.17536764 -0.034404375 0.0814875 0.091878675 -0.2921035 0.06498417 -0.023657555 -0.06803973 -0.03541195 -0.096469626 0.008276421 0.12509552 -0.0139045 -0.31459084 0.13608566 0.06814525 -0.27771664 0.14311895 -0.13565026 -0.037496705 0.10989738 -0.06224477 0.23126914 -0.058744133 0.010462084 0.1468134 0.11220097 -0.03548068 -0.22281133 0.012036881 -0.09734555 -0.17222586 -0.41216302 0.14421815 0.08018329 -0.047464553 -0.06943641 -0.22099118 0.08292352 0.047853567 -0.2774853 0.07569799 0.015405395 0.29815745 0.04096102 -0.18792085 0.096281014 0.1540464 0.10490943 0.27935797 -0.14007214 -0.014120168 -0.07567888
5 0.0054469313 0.36220166 0.17757148 -0.25762758 0.3685376 -0.11477355 0.4545865 -0.09665131 -0.19687141 0.41539747 -0.39059278 -0.067738004 -0.018725408 0.19688103 -0.17091788 -0.3492489 -0.49992004 0.2256743 -0.018275153 0.44319993 0.15357101 -0.16476478 0.3426816 0.01401451 -0.049568783 0.0067429817 0.20162 -0.27209127 -0.0920622 0.16076279 0.0028218608 -0.24871871 -0.084601775 -0.061603885 -0.23006725 0.15859267 0.382398 -0.38586983 -0.10816698 -0.039105777 -0.14300811 -0.42115936 -0.03834546 -0.46990788 0.05532532 0.098933905 0.23512582 0.110239424 -0.049579885 -0.032627378 0.13046631 -0.21762487 0.36083782 -0.091959685 -0.042172417 0.274395 0.15037245 -0.17526858 0.0070443675 -0.10715994 0.22395931 -0.478742 0.02879503 -0.017381838
11 0.014825971 0.36810738 0.1877696 -0.2682109 0.36137775 -0.099287614 0.46171108 -0.09529045 -0.20881507 0.3944013 -0.43231818 -0.10084839 -0.023147635 0.14517844 -0.20078157 -0.36711934 -0.52593696 0.23311253 -0.026632382 0.47742504 0.17790838 -0.18126191 0.32962602 0.01499133 -0.048268177 0.014197658 0.19552006 -0.2572165 -0.090384424 0.1481557 -0.030673653 -0.22387809 -0.10795306 -0.055418983 -0.30075774 0.19570123 0.36143857 -0.42669767 -0.12114588 -0.0006239003 -0.1865606 -0.45999643 0.03594456 -0.49986577 0.009934539 0.0864631 0.25352407 0.16269349 0.0118800765 -0.068894476 0.12555794 -0.19226459 0.36348918 -0.11117614 -0.052750457 0.31007895 0.17344506 -0.18118373 -0.0142324 -0.10350993 0.26382905 -0.5276155 0.0039330698 0.0037450786
26 -0.086816005 0.31784832 0.094313204 -0.11566355 -0.15725783 -0.096614316 -0.18924971 0.30082163 -0.19818707 0.3204793 0.0040274984 -0.18789916 -0.12675309 0.13564968 0.17355965 -0.5487136 0.23814437 0.088853315 -0.35157186 -0.28151223 -0.09306105 0.0368253 0.059330385 -0.058650583 -0.32487082 0.32706907 0.20194201 -0.4214761 0.040948812 -0.20487662 -0.01560756 0.051551733 -0.038950853 0.59681904 0.06021807 -0.037595794 0.23841992 0.4138476 0.17107482 -0.39889032 0.110015176 -0.0380808 -0.19426559 -0.3449636 0.050076548 0.26304272 -0.2140838 -0.0559309 -0.19616845 0.41400895 -0.057712745 -0.42053762 -0.15557769 0.21792687 0.18534666 -0.16822287 -0.22549738 0.28263304 0.25444242 0.124944 0.08785833 -0.17295252 -0.16932909 -0.14547297
20 -0.052916896 0.15522288 -0.005097795 -0.18112938 0.23288798 -0.026667582 0.16186818 -0.02236033 -0.063634954 0.054186415 -0.12437869 -0.13422881 -0.024554031 0.15151279 0.025154337 -0.18394238 -0.114755295 0.026785277 0.015880466 0.12668411 -0.084017806 -0.029195236 0.21733755 0.02706041 -0.21317583 0.01924003 0.067139015 -0.24080567 0.15385923 -0.018913658 0.020528315 0.047359634 -0.05898457 0.036131013 -0.07404953 0.03783534 0.20377794 -0.079433806 -0.10526271 -0.14650105 -0.05176639 -0.1902692 -0.23364684 -0.41112834 0.1880383 0.056666072 0.06748029 -0.064952336 -0.24196346 -0.0302654 0.12871842 -0.23150727 0.22225149 -0.03791583 0.29529953 0.1395529 -0.10679795 -0.0015886548 0.10109014 0.033896875 0.25857353 -0.20722906 0.1095927 -0.0648824
13 -0.076420456 0.13504104 -0.040729742 -0.19659004 0.31879222 -0.0071207574 0.25619787 -0.07257541 -0.059619296 0.071676224 -0.09984203 -0.11376515 -0.042589065 0.2285989 0.041507795 -0.1474319 -0.15342294 0.044230014 0.06147189 0.13702324 -0.12922044 -0.027097331 0.2795829 0.044108298 -0.1964608 -0.048016585 0.077947065 -0.2696817 0.1771877 0.02350589 0.068521336 0.0016377582 -0.050013423 -0.019292235 -0.020090614 0.0188073 0.26573613 -0.09812904 -0.13164048 -0.15341711 -0.035923872 -0.20850118 -0.3812036 -0.39090034 0.27751154 0.045279413 0.08412133 -0.14174634 -0.34468493 -0.025932916 0.18338294 -0.28321415 0.29172358 -0.053753708 0.3325837 0.1553797 -0.11491535 -0.013893738 0.07527655 0.0025397076 0.19707505 -0.20753892 0.20872672 -0.11738014
18 -0.056533687 0.18073973 0.0061837253 -0.22298239 0.3450881 -0.01786956 0.30887422 -0.08155196 -0.08407417 0.12001758 -0.15155403 -0.11333398 -0.050591476 0.21941796 0.006154869 -0.18313082 -0.23324458 0.104243614 0.03735416 0.19574523 -0.08158833 -0.06421499 0.28004092 0.056378037 -0.15286784 -0.02794775 0.10393348 -0.2574202 0.13061288 0.0607732 0.059368968 -0.0487254 -0.06776436 -0.042945668 -0.06975832 0.05751058 0.28641045 -0.15934986 -0.130461 -0.11780482 -0.06676564 -0.26095736 -0.32559457 -0.4021534 0.24565032 0.050778612 0.12065832 -0.0858875 -0.28444263 -0.020855531 0.16911687 -0.25557157 0.3022536 -0.06673725 0.27094454 0.17478786 -0.061521016 -0.03728557 0.053599373 -0.016698249 0.19330733 -0.2653124 0.19759879 -0.09309289
22 -0.05245344 0.19326584 0.018005723 -0.20799291 0.3362947 -0.038254037 0.2894684 -0.06608487 -0.08460682 0.12279762 -0.14306507 -0.09451175 -0.04428457 0.21728845 -0.0015783266 -0.17168519 -0.21573456 0.088467896 0.029556142 0.18869801 -0.07727489 -0.064451 0.2690491 0.050886072 -0.12999752 -0.021790924 0.10273254 -0.24808954 0.12070074 0.060132377 0.06982551 -0.04076591 -0.048587676 -0.028696604 -0.0390679 0.032217395 0.27452445 -0.13197416 -0.11314677 -0.15234134 -0.067225255 -0.24017112 -0.3190489 -0.38271463 0.23204038 0.056639362 0.101617545 -0.08454279 -0.2715465 -0.004732709 0.15864693 -0.24038108 0.28075954 -0.043824278 0.24076012 0.1493711 -0.05981134 -0.016163902 0.07520146 -0.021790147 0.19281702 -0.24729204 0.17287044 -0.0828599
17 0.05924768 0.48152506 0.29966563 -0.28788397 0.33996826 -0.15765192 0.48293716 -0.08724721 -0.25105885 0.50622916 -0.5673954 -0.10363103 -0.017935274 0.08594731 -0.262346 -0.4782373 -0.6260054 0.27971482 -0.054089654 0.60207534 0.29574525 -0.2331855 0.3470183 0.0055821612 -0.025774412 0.09222474 0.24835843 -0.25318658 -0.19075444 0.17143366 -0.07265991 -0.29405174 -0.12972383 -0.04709728 -0.40800837 0.24035977 0.37025008 -0.5102447 -0.1226341 0.04548122 -0.22062407 -0.51848847 0.19807516 -0.58991635 -0.092984796 0.104393385 0.29336143 0.2637301 0.14194435 -0.08138405 0.07008591 -0.15881078 0.37290442 -0.12155189 -0.19871536 0.34493798 0.24971701 -0.23106113 -0.014927191 -0.10704404 0.34301153 -0.63113606 -0.110192485 0.047159508
23 -0.074309394 0.16624871 0.024822425 -0.09822698 -0.07650958 -0.032054953 -0.22798881 0.13976605 -0.07786674 0.002474415 -0.11485798 -0.23404649 -0.013439325 -0.0210911 0.076028615 -0.3381305 0.19438481 -0.046702497 -0.12876868 -0.046067253 -0.12008332 0.021283526 0.06407294 -0.027057143 -0.43548074 0.21479352 0.03969074 -0.24556324 0.18580924 -0.21724936 -0.09362588 0.1945239 -0.0597987 0.36881703 -0.103323855 0.033654924 0.011534188 0.15209946 -0.04192014 -0.23173416 -0.01585266 -0.020186786 -0.049397293 -0.5228105 0.053116217 0.09920268 -0.08757377 -0.0144412145 -0.14466606 0.06735506 0.00037382956 -0.2073887 0.011867556 0.057123665 0.3669018 0.0656068 -0.2433731 0.15494594 0.17471935 0.2269021 0.38639402 -0.14696297 -0.15047292 -0.02150675
10 -0.08443535 0.081584655 -0.04832274 -0.14315891 0.09022349 6.7281435e-05 -0.08777576 0.054001413 -0.05836827 -0.0834716 -0.049385622 -0.21743575 -0.002966547 0.069618635 0.10535393 -0.2072504 0.11073247 -0.06861235 0.002808807 -0.019052453 -0.17611387 0.010521393 0.13849407 -0.005857619 -0.3811019 0.095103495 0.020562485 -0.2490744 0.24912882 -0.15295868 -0.043827865 0.19763084 -0.0613392 0.19614895 -0.057984173 -0.011358216 0.08060534 0.086497135 -0.10957471 -0.22796704 -0.0025251915 -0.06523048 -0.22462076 -0.4749996 0.1986635 0.044893656 -0.028401569 -0.10078814 -0.28509536 -0.014629167 0.08728801 -0.2442586 0.12278029 -0.017985875 0.43250996 0.08800284 -0.25696304 0.09754663 0.16342516 0.15409733 0.36147633 -0.09992623 0.021625947 -0.075057335
15 -0.041851144 0.16620834 0.05399489 -0.1147587 -0.10655124 -0.037398413 -0.22375627 0.14274517 -0.09305512 0.024353795 -0.16119733 -0.24443938 0.0015640287 -0.066303894 0.049742736 -0.35511705 0.14908662 -0.05280339 -0.12422145 -0.0043710326 -0.052331526 -0.009858124 0.065246075 -0.04938028 -0.4268331 0.22992416 0.03587988 -0.23818833 0.14315084 -0.22755678 -0.1286025 0.19274467 -0.07095188 0.35987002 -0.18483895 0.059902724 -0.00089862745 0.099926814 -0.050541837 -0.18223242 -0.029120369 -0.0514674 0.046122346 -0.5450747 0.0019241923 0.08677854 -0.06161947 0.05054116 -0.07210752 0.026180496 -0.03645781 -0.1937876 0.0056041377 0.018429754 0.30807668 0.09940122 -0.19452778 0.11486585 0.17016627 0.21808076 0.42557266 -0.1784723 -0.19368382 0.008066595
19 -0.06995551 0.14621495 0.022847425 -0.105102904 -0.07000653 -0.029409776 -0.22745995 0.12585825 -0.0845986 0.010867661 -0.120492734 -0.25187626 -0.0028143262 -0.037654683 0.05823659 -0.32697842 0.17542724 -0.08071257 -0.09696429 -0.036649358 -0.11231103 0.011625074 0.075846374 -0.05182235 -0.4492336 0.21590383 0.035100944 -0.27175248 0.1831922 -0.2244197 -0.110117525 0.19411853 -0.06452149 0.36589757 -0.14295723 0.043007642 0.013753667 0.12463715 -0.069288924 -0.21672127 -0.023104625 -0.041511044 -0.027238194 -0.5468352 0.048972566 0.100067385 -0.056342255 -0.006010629 -0.13718365 0.0374298 -1.8818806e-05 -0.20668706 0.02766498 0.026950816 0.37885863 0.09562544 -0.24359322 0.1260763 0.1752042 0.21477014 0.42983532 -0.1563871 -0.16619717 -0.00931422
16 -0.04902507 0.14699048 0.015026705 -0.09979933 -0.12958899 -0.02331488 -0.31937787 0.1514274 -0.087410636 -0.06526628 -0.14749789 -0.28939244 0.0066430424 -0.11090877 0.073263966 -0.33885592 0.23166193 -0.10237289 -0.116867915 -0.04439221 -0.096105225 0.014434503 0.037035815 -0.050794657 -0.4978041 0.24538839 0.0013161509 -0.23296984 0.19271648 -0.28335297 -0.14440155 0.26845384 -0.071453825 0.41755673 -0.18440446 0.04895894 -0.068320416 0.14767663 -0.080157794 -0.21285866 -0.025042502 -0.0107565755 0.0648078 -0.5921009 0.007708407 0.07834632 -0.0807102 0.04317406 -0.08940692 0.0035257596 -0.029072575 -0.16481398 -0.014998416 0.027219297 0.39111203 0.095566824 -0.261233 0.14858441 0.18514578 0.27871463 0.49598762 -0.1443436 -0.22656225 0.008287088
21 -0.05915673 0.13313629 0.013661498 -0.10796699 -0.052234314 -0.02080252 -0.21911043 0.10629894 -0.07058793 -0.05927693 -0.14782609 -0.25250375 0.006022062 -0.05466611 0.048237875 -0.29000545 0.15663804 -0.06809212 -0.05879012 0.01750632 -0.103168644 -0.0025473065 0.07738927 -0.025653731 -0.44166452 0.20763846 0.016361907 -0.22013687 0.20947675 -0.23156951 -0.11531503 0.21881913 -0.06490172 0.30537322 -0.17239271 0.043957055 -0.027652886 0.07961681 -0.11189416 -0.17388572 -0.04045504 -0.03548189 0.0026927667 -0.564919 0.05862638 0.062758125 -0.045606725 0.009783306 -0.12177398 -0.015123659 -0.004336279 -0.15942186 0.053629708 0.0030455298 0.3881706 0.11780191 -0.233929 0.113338664 0.17113486 0.23854727 0.4543154 -0.15765303 -0.14258729 0.0039203092
27 -0.04870838 0.11115423 -0.0053024255 -0.111191615 -0.07680965 -0.028950002 -0.26759094 0.1421038 -0.066185564 -0.06897822 -0.096605204 -0.2702531 0.009380844 -0.058270156 0.08243176 -0.3078953 0.21008128 -0.09813387 -0.09622414 -0.042153694 -0.13561366 0.017788496 0.06726203 -0.04888419 -0.48688316 0.22643322 -0.0074936235 -0.26259342 0.23172006 -0.25566295 -0.11038463 0.26970378 -0.052390736 0.38061485 -0.13908418 0.022499373 -0.01319386 0.15676267 -0.08224284 -0.21441744 -0.013637767 -0.01971623 -0.03133958 -0.5673306 0.07542195 0.06942199 -0.07537063 -0.010290329 -0.14918455 -0.0013747639 0.00081768364 -0.19670919 0.011712546 0.012346935 0.42646435 0.09111713 -0.2833036 0.13593711 0.19640543 0.23980832 0.47197863 -0.10921628 -0.14878953 -0.015455779
12 -0.0342956 0.2047421 0.03397221 -0.2017106 0.33415678 -0.027051121 0.34309718 -0.08982127 -0.108147904 0.19470063 -0.1897909 -0.081840254 -0.040159013 0.21365298 -0.048562072 -0.20517284 -0.29295808 0.11499839 0.023632798 0.24168107 -0.022656992 -0.08188248 0.29438615 0.041791495 -0.101144254 -0.042230222 0.13028587 -0.25895986 0.067412406 0.07772436 0.04949631 -0.09979266 -0.06182777 -0.058320004 -0.08660568 0.08433064 0.30571932 -0.21509786 -0.11393357 -0.10118004 -0.08513012 -0.2889642 -0.23440935 -0.37956524 0.17260832 0.056800675 0.14459808 -0.035624392 -0.21294829 -0.019371117 0.15123111 -0.24801478 0.3082892 -0.07331033 0.16376312 0.19780327 0.0069206255 -0.08197335 0.030301148 -0.05982997 0.1735222 -0.2997437 0.15417439 -0.07949084
