60 64
0 0.057526097 -0.28217396 0.09430628 0.07494506 0.1938738 -0.089545816 0.040076517 -0.11091143 0.25297993 0.123613514 0.17063959 -0.24072282 0.03990131 -0.19614875 -0.2488084 -0.237391 -0.017437242 -0.08682764 -0.0648305 -0.10947341 -0.16444747 -0.11528078 0.16417857 -0.026909677 -0.0912682 0.14489348 -0.29281908 -0.028017547 0.16938463 -0.27058527 0.10254901 -0.08045041 -0.16362588 0.01903798 -0.109849945 0.043173824 0.08857864 0.17649649 0.25589132 0.013815009 0.047324322 0.0064149946 0.11427034 0.076893836 -0.06468165 -0.024295565 0.0053599817 -0.0106372805 0.13226765 0.018837633 -0.008490592 0.24401224 -0.09543375 0.010023408 -0.11945088 0.1018226 -0.21493398 -0.046637908 0.2415538 0.17676298 0.04957678 -0.005377173 -0.27149323 0.03100326
5 0.11095422 -0.1981934 -0.040127013 0.121527486 0.051591378 -0.08908303 0.10567762 0.07092476 0.16689679 0.18435948 0.033857558 -0.320472 -0.067807175 -0.10140946 -0.05587172 -0.1320019 0.14176874 -0.006528446 0.14029065 -0.078955285 -0.1973642 -0.14412028 0.27538007 0.052858677 -0.12757683 -0.1234669 -0.21572693 -0.18618199 0.25280538 -0.32816395 0.28973418 0.00020346565 -0.14424503 0.019341646 -0.08393842 0.069482796 -0.053957704 0.117524266 0.28508088 -0.03285299 0.012259801 -0.09828614 -0.010496219 0.0787023 -0.15185153 0.18913272 -0.038773634 -0.04517257 0.19805329 -0.11043783 0.11291156 0.17621888 -0.037311938 -0.22260319 0.008643036 0.11903055 -0.042287573 0.020734347 0.1802729 0.03125959 -0.01399648 -0.04929667 -0.44017088 -0.15969189
1 -0.12685128 -0.24288055 0.058074787 -0.0054234965 0.15629044 -5.0524242e-05 0.1081956 0.023356756 0.15101595 0.18033515 -0.09319432 -0.17842363 -0.25510737 -0.10207043 -0.4138724 -0.2548543 0.015490204 -0.070155606 -0.004349283 -0.08387432 -0.14165786 -0.102675416 0.23478214 0.16812173 -0.24643378 -0.042457134 -0.1421008 -0.01845847 0.22968794 0.045301557 0.22419454 -0.061259158 0.01015749 0.036722116 -0.17436542 0.1000385 0.24756998 0.18495558 0.21369296 0.15926597 -0.06908876 0.03354488 -0.02283567 0.12857175 -0.11280897 -0.0772825 0.0172024 0.0610394 -0.18521287 -0.21954891 0.09185184 0.12243548 0.07776049 0.041063495 0.111975424 0.13533486 -0.15278234 0.027977983 0.28646788 0.13383059 0.13379402 -0.08586732 -0.31518364 -0.16818823
8 -0.08409354 -0.2624423 -0.19320872 0.1730575 0.15937819 -0.19357775 -0.00964063 -0.19803584 0.2932962 0.03843015 0.32103083 -0.12773424 0.08623277 -0.10094592 -0.026870986 -0.22281283 0.272176 0.029741382 -0.15735792 -0.023791855 -0.14160928 -0.04026538 -0.12547095 -0.043692887 -0.19500658 -0.09219097 -0.22931053 -0.39225867 0.40203935 0.050318714 0.17076807 -0.048508298 0.03822268 0.028661782 0.05569944 -0.09477935 0.2215207 0.12281312 0.19825102 -0.04136381 -0.05978444 -0.010431223 -0.00891449 0.01792803 -0.21413119 -0.0801232 -0.05920951 -0.11264654 0.2746263 -0.17299482 0.24008588 0.195748 -0.14796199 -0.111707054 -0.07591438 0.17677508 -0.21453734 -0.27043036 0.0055287597 0.080989294 0.056742806 -0.14793803 -0.26778233 -0.18546307
2 0.09515892 -0.23387457 -0.011227293 0.08153914 0.08790669 -0.055947587 -0.049516413 0.21838225 0.32312217 0.21169305 0.08546378 -0.28135735 -0.11564492 0.08422445 -0.25368497 -0.42397448 0.13652301 -0.1345363 -0.053108554 -0.18834846 0.08341412 -0.16649792 0.07606891 0.055375762 -0.28408688 0.13520299 -0.33969057 -0.008609326 0.2196797 -0.103030786 0.111215234 0.17107242 0.024291428 0.10155846 -0.09657384 -0.2312059 0.12277899 0.18032818 0.26757884 0.024068486 0.023075914 0.09955946 -0.0076583265 0.09093591 -0.09152327 -0.12982693 -0.18068354 0.08569147 -0.07681272 -0.18164986 0.07277838 0.18438362 -0.22349592 0.03237967 -0.14649041 0.21474941 -0.31682912 -0.11820943 -0.08957412 0.14893821 0.087541394 -0.12673792 -0.33759096 -0.19849315
13 0.033191893 -0.14621522 -0.0678359 0.11321095 0.030403921 -0.290015 -0.024956582 -0.05893356 0.24089272 0.009949034 0.23015535 -0.08186099 -0.14821255 -0.34081903 -0.09591341 -0.29859945 0.028111506 -0.078324616 -0.33560672 -0.088587806 -0.22833814 -0.011698091 0.10979106 0.05416505 -0.124442264 0.09364342 -0.17887037 -0.31798118 0.34344593 -0.3431184 0.09443556 -0.27076477 -0.15852964 0.08302182 -0.2482404 0.06644161 -0.0012893634 0.1541866 0.20784506 -0.0040217997 -0.025347432 -0.0051449034 -0.04806832 0.043471728 0.00084049907 -0.033930186 0.009640133 -0.009600755 0.17796266 0.08394538 0.078348786 0.08215313 -0.088662386 -0.013189814 0.112643875 0.08795638 -0.2937906 -0.18460661 0.28417638 0.18095653 -0.04050507 -0.26593757 -0.18162209 0.040381003
7 -0.32243708 -0.3991639 0.0590601 -0.0071721077 0.28047797 0.096049406 0.15791373 0.21865836 0.029370345 0.11969728 0.2912773 -0.14626232 -0.14559907 0.0673485 -0.194909 -0.078668356 0.27492547 0.05145055 -0.056203626 0.030017778 -0.031328302 -0.30125657 -0.098791726 0.18637711 -0.11313883 -0.29124987 -0.40449324 -0.13040113 0.21935976 -0.2311163 0.021568233 -0.12449913 -0.027366329 -0.022877216 -0.002830767 0.09891306 0.068963476 -0.11638866 0.40617406 0.10560283 -0.14163658 0.07470117 0.13480002 0.29947937 -0.040801674 0.17115904 -0.2957838 0.031022444 0.3596696 -0.20625587 0.096604474 0.079842106 -0.23135762 0.10983982 0.012772907 -0.051071715 -0.2315608 0.022909919 -0.18972409 -0.108409606 0.018743342 0.0013686272 -0.15324782 -0.29065135
6 -0.13785104 -0.24075748 -0.14483503 0.15657724 -0.20496455 0.21055491 0.15679933 0.074641384 0.28485146 0.13625444 0.014789505 -0.21941055 -0.023095481 -0.078373834 -0.20515883 -0.028574668 -0.14247063 -0.14309187 0.17074753 0.0871209 -0.089914136 -0.12548806 0.10349737 0.16691984 -0.19151935 -2.1848035e-05 -0.1498848 -0.34543997 0.14167179 -0.22584426 0.02604768 0.007699751 0.032929607 0.022244493 -0.18922277 0.07569701 0.3002568 0.26073226 0.33118692 -0.04335984 0.031283643 -0.010852338 0.047985796 0.11920338 -0.24379101 -0.06017702 0.04290319 -0.12997018 -0.19058897 -0.1648024 -0.014331081 0.29734835 -0.032726705 -0.13391064 0.20940608 0.20762269 -0.17830619 -0.03754564 0.37578323 -0.04500657 0.015639937 0.046344392 -0.31034768 -0.10341719
3 0.09759266 -0.11803889 -0.053377956 -0.082621984 -0.07971615 -0.28976512 0.04708765 0.08267611 0.32518598 0.3414735 -0.03945703 -0.45981306 -0.18619896 -0.14145976 -0.29029155 -0.33759496 0.14727125 -0.08341247 -0.097709924 0.025012996 -0.14957964 -0.10390164 0.12693763 0.12663592 -0.173295 0.07512192 -0.17087287 -0.008618953 0.10335152 -0.22806044 0.115157805 0.01932209 -0.23640856 0.12904991 -0.32665476 -0.1556422 0.0832108 0.13494696 0.18689267 0.01439435 -0.13886768 0.10207022 0.06010431 -0.033710487 -0.022644075 0.06632554 -0.057748415 0.13464437 -0.058121033 -0.027726244 -0.0010586277 0.13200465 -0.09227971 -0.048004825 -0.03231063 0.18374215 -0.40098026 0.09103509 0.2952116 0.01797871 -0.15539697 -0.15083385 -0.24898562 -0.04393528
12 -0.25411737 -0.3204347 0.4287464 0.053861026 0.2662354 -0.11256226 -0.0387389 0.021501351 0.058157615 -0.016880427 0.34292236 0.12225288 -0.24050282 -0.25656658 -0.18250938 -0.064312235 -0.124994956 -0.08730386 -0.19056387 -0.22789949 -0.3681309 -0.22859234 0.027489586 0.17305093 -0.16536479 -0.25284678 -0.2865333 -0.19438204 0.31591102 -0.27742046 0.047999464 -0.23551026 -0.104077615 0.094180785 -0.06546523 0.3164256 -0.094172865 0.04402508 0.25980482 0.13673002 -0.07219721 0.18889585 -0.06506333 0.19544254 0.06735885 0.014096 -0.21308824 0.114036106 0.26406464 -0.22362679 -0.029792327 0.068956874 -0.24666452 0.06298929 0.23471975 -0.2407744 -0.20609728 -0.016920224 0.080804884 0.16256835 0.07067312 -0.20992713 -0.08556944 0.06842204
9 -0.40885133 -0.26499376 -0.3405952 0.21908498 -0.24708916 0.17445774 0.12572421 0.08682225 0.18649597 0.08925543 0.21394244 -0.0831669 -0.021292703 -0.10461684 -0.031056195 0.21832816 0.062035132 -0.0011244853 0.06513854 0.19852424 -0.10193698 -0.07018927 -0.15744887 0.3214488 -0.31291437 -0.29364726 -0.1624313 -0.7128989 0.35801074 -0.17136037 0.006593938 0.024962973 -0.0093238875 0.032098044 -0.14947228 0.12535731 0.3496413 0.119268835 0.38555318 -0.101281755 -0.11714106 0.083862245 0.05632073 0.1416498 -0.40549946 -0.07074294 -0.08805731 -0.0833894 0.15555476 -0.34347948 -0.06787179 0.11353285 -0.10854269 -0.2327892 0.14889811 0.08641747 -0.19429435 -0.16012059 0.20014141 -0.12547559 -0.060675677 0.017535187 -0.22264723 -0.3197561
10 0.060407426 -0.37402582 0.3183626 -0.016796794 0.18373737 -0.07530067 0.10475357 0.21838644 0.094140455 0.28466132 0.28100902 -0.2651703 -0.08028994 0.03276971 -0.0050746202 -0.27888003 0.27051008 -0.021398144 -0.021870906 -0.112152115 -0.2662896 -0.16920663 0.07176704 0.15683371 -0.059480928 -0.14268154 -0.3361043 -0.08567538 0.10634274 -0.37524518 0.2263604 -0.17842256 -0.089538924 -0.042706884 -0.09543938 0.01943115 -0.01620139 0.04613107 0.21235837 0.15366033 0.0029268656 0.067218706 0.1196864 0.13323113 -0.03493668 0.12568764 -0.14859334 -0.02317813 0.36153516 -0.081572086 -0.018051006 0.11409553 -0.19001679 -0.10376737 -0.1752707 -0.008319031 -0.28691643 0.08377506 -0.088007644 -0.10758635 -0.02783983 -0.05749191 -0.2807405 -0.18405655
14 -0.19017813 -0.0948153 0.031236319 -0.12930213 0.24058416 -0.13520037 0.07076321 0.0774103 0.2232132 0.14793481 -0.0040616607 -0.19228292 -0.26929837 -0.24166411 -0.42173737 -0.20188564 -0.009161435 0.010078153 -0.07703336 -0.038642593 -0.007619589 -0.23146494 0.1810495 -0.004767426 -0.088025935 0.117680624 -0.26193804 -0.021380493 0.24483329 -0.32417062 0.026216676 -0.1845446 -0.24643987 0.09750081 -0.14267343 0.011526683 -0.054798976 0.05700194 0.37683806 0.10628124 -0.096178375 0.15317874 0.08180412 0.13883175 0.16904145 0.071363725 -0.15489541 0.12777726 -0.00086392 0.0027781615 0.023258016 0.12872268 -0.15178771 0.1773622 0.20753828 0.014389954 -0.32783693 -0.032977678 0.32763442 0.14298695 0.06350339 -0.13803141 -0.12575497 0.026212523
26 -0.12901409 -0.22479045 -0.11017555 0.06137815 0.16886674 0.17247875 0.27528092 -0.1012183 0.3756148 0.111721 -0.0730038 -0.35810155 -0.050234564 -0.08976752 -0.36326653 -0.2635589 0.041002557 -0.0362764 -0.01458226 0.12115032 0.23430446 -0.02408932 0.07170421 -0.130222 0.020260755 0.32110208 -0.2450087 -0.16779238 0.12535912 -0.14569725 0.01862742 -0.28009206 0.1616623 -0.19600463 0.046563298 -0.1891019 0.40891814 0.20610431 0.5020746 0.06673802 0.023358567 -0.05755863 0.25442767 0.047234576 -0.1072936 -0.098624274 -0.06691912 -0.28906783 -0.21950145 0.157549 0.22649431 0.39879698 -0.07277744 0.20540616 0.10850326 0.34574604 -0.17960952 -0.2379298 0.32017887 0.058850292 0.08401583 0.075045295 -0.2838252 -0.15136483
16 -0.295152 -0.3627881 0.16160768 -0.0048512146 0.07366069 -0.035750177 0.20642208 -0.067447454 0.3231103 0.009386999 0.2919792 -0.170584 0.18161827 -0.2064885 -0.28663063 -0.124021456 -0.24418283 -0.21771087 0.11556873 0.02716337 -0.2109923 -0.31895807 -0.12082375 0.13909356 -0.05123982 -0.09750544 -0.26631972 -0.018310888 0.015708596 -0.32581705 -0.08688787 -0.0820592 -0.15364973 0.07625061 0.06403677 0.19593641 0.20912355 0.2007118 0.12844889 -0.05882851 -0.096349806 0.16178288 0.11085284 0.13403149 -0.008921715 0.12229842 -0.041714273 0.042892482 0.054237448 -0.19595651 -0.02037266 0.3709834 -0.19843285 0.050949313 0.16696745 -0.07518653 -0.3446916 0.15541415 0.39236632 -0.014787662 0.013154967 0.030961394 -0.074253194 0.15863249
11 0.39746436 -0.34334973 0.09931343 0.23476015 -0.024300743 -0.058105677 0.15715487 0.15287091 0.14012174 0.26705682 0.12903967 -0.36415526 0.016309371 0.020192554 -0.046970405 -0.21564975 -0.0048705535 -0.064719036 0.17486921 -0.23263381 -0.3713798 -0.04003853 0.49376118 0.16581014 -0.0782272 -0.03974315 -0.27483615 -0.0425368 0.046792112 -0.54647845 0.35846126 -0.010474327 -0.15084735 -0.009905516 -0.3104995 0.1892211 0.021670999 0.19292529 0.21003102 -0.027043775 0.12791596 -0.21459405 -0.04734152 0.17919946 -0.18848442 0.16856813 0.106659375 -0.08655428 0.119821526 0.10103991 0.0033227357 0.2007062 0.051674444 -0.2507785 -0.084364496 0.1607016 -0.006129785 0.25076133 0.24168967 0.034346033 -0.105792396 0.015502309 -0.5813592 -0.020204322
23 -0.4753394 -0.4773478 -0.15174498 0.087387376 0.10700057 0.23609425 0.3590851 0.042468745 0.068367645 0.1584956 0.30938002 -0.2492302 0.0016208244 0.032510757 -0.15311414 0.23301876 0.21743113 0.18866248 0.02599156 0.28849548 -0.03426363 -0.08387257 -0.13283612 0.24947542 -0.035621334 -0.31764853 -0.3582189 -0.44599354 0.1791082 -0.25491992 0.0399233 -0.19816653 -0.0007760136 -0.19456582 -0.03795136 0.14179412 0.41616154 -0.06849981 0.5454683 0.005514024 -0.18453409 0.028718997 0.34261063 0.23591174 -0.34117532 0.07177628 -0.19130449 -0.16387922 0.34222484 -0.07226966 0.03324629 0.15023091 -0.13733356 0.0067061707 0.024156762 0.047980864 -0.12855262 0.015053757 0.04835755 -0.21087268 -0.11772305 0.2314619 -0.1804893 -0.37651223
28 -0.13168441 -0.2851656 -0.04870133 0.035544556 0.29090053 0.046623725 0.046781186 -0.3295544 0.2571541 0.19539124 0.1090058 -0.1310799 -0.08312337 -0.01181008 -0.3081612 -0.49953872 0.34784442 -0.039418824 -0.06906333 -0.12801883 -0.1877745 -0.0651254 0.052973118 -0.060269248 -0.21305916 -0.065037616 -0.28654134 -0.15037037 0.33469594 0.48113352 0.26524276 0.021909889 0.3440752 -0.067475386 0.10574598 -0.13445559 0.38438633 0.31302753 0.18864708 0.16273491 0.0272978 -0.09031833 -0.13511778 0.15990931 -0.21874653 -0.089252695 0.15372743 -0.09153165 -0.11218848 -0.33137384 0.47660038 0.17048511 0.012169882 -0.028296154 -0.04617264 0.32527682 -0.12911114 -0.25974157 0.014963052 0.0046419185 0.31828472 -0.11904746 -0.34384418 -0.33744106
37 -0.42236838 -0.4799306 0.039856188 0.071668305 0.27224523 0.3759501 0.36595076 -0.17622843 0.12753929 -0.007837941 0.28772432 -0.10927966 0.002368504 -0.10917026 -0.32324386 -0.054053452 0.0068195546 0.023743922 -0.06279405 0.13298571 -0.020938227 -0.1100677 -0.016098212 0.0037893245 0.18847547 0.033383086 -0.38830766 -0.23226938 0.06945861 -0.22785963 -0.09947575 -0.4868342 0.18133232 -0.25442836 0.009368487 0.12398039 0.40102223 0.098818906 0.5333699 0.08952193 -0.014556366 -0.11368227 0.27862903 0.3300848 -0.026418302 0.026276616 0.010771308 -0.27339345 0.07981308 0.13793828 0.17873529 0.25431192 -0.10755503 0.30509672 0.24096788 0.058712132 -0.13774809 -0.11365775 0.1844806 -0.08854797 0.05553853 0.181508 -0.08274476 -0.101200365
42 0.124786906 -0.25436407 0.2616 0.24065208 -0.013933394 -0.24400902 0.09001189 -0.12637484 0.286908 -0.06389733 0.063101575 -0.06841995 -0.21724984 -0.19066508 -0.18280023 -0.13692965 -0.3021177 -0.082501575 0.04511104 -0.26778993 -0.43504867 -0.04855418 0.24497774 0.16069481 -0.16089813 -0.2228641 -0.18553141 -0.11156822 0.20464757 -0.20397887 0.17467237 -0.060862448 0.06372354 0.074866086 -0.07147253 0.22989659 0.011816747 0.22949389 0.08573289 -0.08825804 0.014670207 -0.009632352 -0.18358982 0.037357558 -0.15013638 -0.023734042 -0.09083182 0.0016661782 -0.13704313 -0.11047563 0.28935632 0.3834799 -0.12823114 -0.15278234 0.4453869 0.105738044 0.011291405 0.09100942 0.24821557 0.33370063 0.006967711 -0.27823085 -0.4194207 0.23613729
18 -0.28939533 -0.2116377 0.15176322 -0.17728949 0.20307049 -0.07906934 0.0821562 0.35361388 0.02943315 0.21303724 0.17061527 -0.1684383 -0.46540812 -0.0015556304 -0.45136017 -0.28028783 0.039608143 -0.13412873 -0.25742218 -0.096944705 0.06063327 -0.41201174 0.015705701 0.18297549 -0.21488059 -0.1282842 -0.4428304 0.1239953 0.1660541 -0.37728703 -0.107179746 -0.20653985 -0.14153484 0.10065778 -0.25748038 0.08818952 -0.09501145 -0.06534909 0.43817943 0.13169973 -0.19912687 0.13640468 0.0027828768 0.3831966 0.31894416 0.2096388 -0.3212725 0.28663832 0.04119391 -0.055372123 0.04901673 -0.097940356 -0.3019977 0.3430843 0.24178839 -0.09960377 -0.42090657 0.09572805 -0.04571967 0.0033212465 -0.02990868 -0.21738747 -0.03176945 -0.100534566
19 0.3240681 -0.33014607 -0.015837481 0.27009007 0.19036904 -0.05931144 0.29645056 0.021282718 0.16389962 0.054963637 0.14956917 -0.38687417 0.22141986 -0.21298975 0.07723733 -0.2610238 0.18721746 0.0757836 0.18199621 -0.16863148 -0.23082535 -0.040799204 0.5609554 0.01323872 0.08712779 0.18325923 -0.21872775 -0.19255616 0.1898092 -0.736561 0.46343634 -0.20592375 -0.21415037 -0.1599555 -0.007964555 0.12244288 -0.12922904 0.1349604 0.2872446 -0.041196235 0.2396628 -0.3354859 0.10251121 0.085080065 -0.11662209 0.27144298 0.07741562 -0.22408633 0.5029863 0.15578857 0.13444775 0.33384848 0.17429438 -0.24933575 -0.22845668 0.118869536 0.060192857 0.05386563 0.2912453 0.08704383 -0.072351694 0.147552 -0.59694344 -0.0569536
35 -0.22845806 -0.2913944 0.21664259 -0.2110873 0.08458373 -0.017995909 0.31241217 0.21038546 0.3162075 0.3371349 0.14854077 -0.4561347 0.056211088 0.14435223 -0.21384695 -0.19801678 0.073067844 -0.19463429 0.39029345 0.09874213 -0.18018956 -0.5056373 -0.15684482 0.20399475 -0.06649448 -0.34521967 -0.438729 0.1418616 -0.12221509 -0.32921144 -0.009454199 0.11173235 -0.097826384 0.039314073 0.1450333 0.005974552 0.09476331 0.101638965 0.20011617 -0.018846786 -0.12441953 0.19452548 0.12680963 0.18202625 -0.034298148 0.4548247 -0.22270754 0.055168178 0.03395757 -0.24739625 0.049591593 0.40354362 -0.36687526 -0.12966594 0.08117342 0.026189813 -0.38132653 0.2955953 0.15143995 -0.3364162 -0.07901845 0.034828 -0.17644653 -0.07360154
21 -0.20415418 -0.30793473 -0.054153465 0.06719252 0.14476237 0.35055304 0.3101071 0.019104343 0.18108203 0.1139556 -0.00033136233 -0.24700007 -0.063949324 -0.009985567 -0.3425 -0.21071267 0.011560721 -0.0825565 0.14580335 0.027427565 0.063422985 -0.18410322 0.20328188 0.052181736 0.00095525593 0.09630615 -0.31872106 -0.10597287 0.06765373 -0.22427432 0.03942773 -0.17183521 0.17015204 -0.14684942 0.0042491895 0.0107045295 0.26494914 0.1880993 0.47786936 0.05795608 0.107908025 -0.113085635 0.12404721 0.2692812 -0.09632505 0.069746315 0.0051722503 -0.2198199 -0.1721922 0.0004439054 0.15673025 0.29881555 -0.01453099 0.12046807 0.18036151 0.22325872 -0.07428665 -0.08631771 0.2494378 -0.05307308 0.12817709 0.15382655 -0.28274587 -0.15887398
22 0.10973369 -0.24015462 0.15988919 0.06589533 0.09981722 -0.1922237 0.010753222 -0.1254007 0.104676 0.23855409 0.18515442 -0.10860861 -0.09115273 -0.15911432 -0.12150951 -0.3697609 0.09906421 -0.087256216 -0.13491309 -0.24281451 -0.50918925 -0.029506953 0.32744297 0.15162234 -0.15989827 -0.10425616 -0.17679627 -0.10326889 0.18807423 -0.09663624 0.33748457 -0.100755796 -0.048972998 0.033188246 -0.27857232 0.22816084 0.09077579 0.21739824 0.08850735 0.16330303 -0.00829763 -0.0967141 -0.21110754 0.14277889 -0.082164444 0.10946748 0.21639499 -0.0024910315 0.097603306 -0.08509536 0.11914033 0.03033977 0.13420926 -0.16411732 -0.008239543 0.077489674 -0.14342844 0.09545965 0.2659617 0.00018140333 0.03540531 -0.13935947 -0.349286 -0.048484977
17 -0.54135334 -0.35362202 0.30629393 0.0041022375 0.21260636 -0.051438652 0.06545902 -0.21520829 0.22417189 -0.075096846 0.32111126 0.14830779 -0.0816195 -0.3575643 -0.33700582 0.16393341 -0.37280366 -0.06899049 -0.008105355 -0.0050284383 -0.38405806 -0.20246732 -0.13808852 0.15503326 -0.18320245 -0.29753172 -0.17896983 -0.30614257 0.29162192 -0.086642034 -0.034468506 -0.1905169 -0.1399569 0.08229727 0.027445208 0.40095907 0.23163551 0.16169252 0.14862756 0.058731914 -0.087447725 0.33343622 0.07113547 0.109515056 -0.046477344 -0.18217956 -0.10296029 0.05206245 0.05807936 -0.32444993 -0.11171407 0.2878541 -0.23699588 0.035905335 0.40033674 -0.16700779 -0.2894802 0.00975904 0.43126377 0.19917925 0.11710593 -0.15142292 0.018421745 0.15145229
44 -0.28800878 -0.18435115 -0.45258936 0.21922512 -0.1998893 0.07950335 0.080524266 0.07434804 0.19365485 0.16084225 0.2121743 -0.21178709 -0.10074316 -0.15191437 -0.07563778 0.17025013 0.15468742 0.11663403 -0.11937197 0.20844352 -0.014118219 0.046167675 -0.05061118 0.1728254 -0.2363041 -0.12894076 -0.20471382 -0.7165956 0.40310523 -0.29006448 0.06745664 -0.09288413 -0.17802253 0.0049369703 -0.3180596 0.036622643 0.289057 0.0224749 0.5109817 -0.09701403 -0.16682006 -0.012725594 0.11640633 0.11569494 -0.32309923 -0.06952836 -0.049008396 -0.08814637 0.23547757 -0.10266371 -0.104725175 -0.034278695 -0.053183325 -0.141405 0.07855 0.13036756 -0.19265522 -0.19735266 0.23049061 -0.027285466 -0.21369389 0.03604381 -0.2551392 -0.3280021
31 -0.06883284 -0.2532359 0.4267087 -0.24733804 0.19924305 -0.020166615 0.015483943 0.39842206 0.10257345 0.40532634 0.18937792 -0.28928202 -0.24177937 0.1116132 -0.16311778 -0.34529155 0.23314355 -0.26657876 0.044513255 -0.070846975 -0.25644588 -0.5126936 -0.058641933 0.14402512 -0.13918859 -0.27613407 -0.44068837 0.11830195 0.011346742 -0.317793 0.026531756 -0.038821913 -0.13567671 0.09794151 -0.1101934 0.026656635 -0.17830864 0.034620482 0.27843562 0.24632624 -0.09743034 0.21117187 0.022639997 0.22371489 0.17734931 0.4176701 -0.26687157 0.094212145 0.13637109 -0.1941923 -0.04887201 0.12212745 -0.36494392 -0.009602906 -0.012607216 -0.051258773 -0.44592854 0.19738701 -0.024042178 -0.26552597 -0.033655625 -0.11534622 -0.15524624 -0.14455484
50 -0.059826378 -0.0929744 -0.056412444 -0.21586229 -0.096594095 -0.13088778 0.20195216 0.2389841 0.28927156 0.48712805 -0.17743053 -0.6109519 -0.14851458 0.00920073 -0.30287102 -0.15239783 0.24464333 -0.07519691 0.28049526 0.14859714 -0.18296988 -0.3391562 0.11732133 0.20501173 -0.23336646 -0.19578491 -0.21621014 0.036539305 -0.014625795 -0.24020529 0.17438447 0.17798376 -0.29455563 0.12656745 -0.22166765 -0.0993203 0.022115437 0.08850054 0.21767503 0.0659055 -0.17341839 0.16446787 0.1106981 0.012456693 -0.052441433 0.392567 -0.12159186 0.13137762 -0.10382534 -0.23175724 -0.04214646 0.26032084 -0.11359591 -0.27071008 0.031867962 0.18710525 -0.365542 0.286984 0.39678308 -0.21148044 -0.19998565 0.013123149 -0.3442372 -0.150068
27 0.037416417 -0.25412384 0.057397 0.07134811 0.15939052 -0.22540805 -0.058789145 -0.37463975 0.13803113 0.17949317 0.3455714 -0.09020461 -0.033904806 -0.24869788 -0.124445125 -0.54013133 0.2541793 -0.10798572 -0.40105167 -0.21322142 -0.4331737 0.015108395 0.13377343 -0.015088734 -0.1290605 0.021714497 -0.23389797 -0.19201684 0.29372185 0.118071035 0.25915316 -0.27788484 0.09614557 -0.023280563 -0.16129518 0.046826057 0.18698652 0.29945192 0.11913954 0.16274334 -0.01481863 -0.14134058 -0.16432567 0.13647437 -0.043027144 -0.014321306 0.2760806 -0.028196538 0.19134337 -0.04329483 0.28253508 -0.026213035 0.07052652 -0.05215612 -0.10777198 0.1327216 -0.24795806 -0.20077245 0.14396898 -0.0053357836 0.13827384 -0.19120608 -0.22447076 -0.14195156
33 -0.117787905 -0.26020268 -0.103008606 0.052841175 0.2797538 -0.12019399 -0.06905623 -0.18710692 0.24276088 0.19940852 0.24092808 -0.17983848 -0.1326434 0.10361564 -0.12267214 -0.3606387 0.5068786 -0.022517376 -0.07420073 -0.054264486 -0.13432354 -0.1626937 -0.20835143 -0.116785385 -0.2880905 -0.3203567 -0.37617496 -0.3230748 0.50558454 0.46507415 0.1825975 0.030714223 0.25143906 0.040016368 0.15352324 -0.23008747 0.20686309 0.20780486 0.23279099 0.061901715 -0.1031638 -0.0031969803 -0.116046995 0.14652866 -0.18532453 -0.033315703 -0.130157 -0.057005532 0.10708585 -0.398858 0.47087857 0.13384932 -0.27144065 -0.06358199 -0.067772284 0.2946441 -0.17741102 -0.2822867 -0.31478274 0.0019820652 0.24515435 -0.22659054 -0.3318405 -0.40126717
4 0.27039626 -0.17299093 -0.046271004 0.049970314 0.049743436 -0.22655179 -0.22856186 0.019058185 0.39076737 0.27272195 0.03557186 -0.33392638 -0.20312835 -0.08425332 -0.35731998 -0.52091527 0.1304276 -0.15533997 -0.33932263 -0.1995354 0.029383846 -0.012021537 0.12889563 -0.07888626 -0.22832933 0.36934707 -0.30155528 0.04984471 0.20457187 -0.00045701058 0.057449453 0.08972735 -0.033350144 0.1545908 -0.34310713 -0.3246547 0.1488088 0.2374799 0.24958667 0.071346804 -0.07704956 0.099910334 0.02669014 -0.040793233 -0.016668664 -0.26289424 -0.06525858 0.14895305 -0.19394189 0.039318904 0.07548909 0.11946956 -0.21695992 0.15118778 -0.18654771 0.2988003 -0.40687364 -0.15615995 0.027040457 0.26876155 0.039580166 -0.24329597 -0.28578502 -0.09197112
43 0.12849796 -0.30897328 -0.047635507 0.27212343 0.012254483 -0.26138294 0.16550295 -0.26517656 0.38919476 -0.0668349 0.30889046 -0.17023298 0.16386528 -0.05585011 -0.034997463 -0.1250161 -0.15473896 -0.07045033 0.15324047 -0.09409448 -0.3369673 -0.07851837 0.031960443 0.0041724606 -0.1289934 -0.23310229 -0.33334252 -0.16069403 0.19803657 -0.17163858 0.09212915 0.058841527 0.039152022 0.027489422 0.14518301 0.03982475 0.0958616 0.25812417 0.009082755 -0.2957235 0.056657583 -0.08165077 -0.07947762 0.093639374 -0.23224089 0.05623846 -0.020027734 -0.059725612 0.07974648 -0.07097663 0.40774718 0.47936785 -0.21681364 -0.220758 0.20777488 0.21913414 -0.003964328 0.008877993 0.10844986 0.23480272 -0.02504958 -0.1428825 -0.42845944 0.21608508
36 -0.2710861 -0.26827854 0.06818873 -0.030262304 0.23164551 0.058594704 -0.09852391 0.3911061 0.019544762 0.10504818 0.20918553 0.06374209 -0.42074093 0.043565392 -0.33856708 -0.3444163 0.10926347 -0.20677488 -0.2713026 -0.1696 -0.004074959 -0.39855835 0.0063556735 0.21252401 -0.35212362 -0.16907671 -0.43691123 -0.01542123 0.34769684 -0.17496543 -0.06472384 -0.03067598 -0.010389168 0.1645192 -0.23464343 0.089257196 -0.08096759 -0.03545568 0.3582739 0.17309931 -0.13135643 0.09681523 -0.12154241 0.44174242 0.14281857 0.07694218 -0.23140517 0.2757945 0.08283514 -0.27528435 0.09587531 -0.12650973 -0.2214519 0.25537702 0.14705075 -0.057894487 -0.30600914 -0.059635177 -0.19625752 0.102654725 0.12470064 -0.23996148 -0.15352233 -0.22968769
58 0.47596386 -0.35925296 0.25151375 0.32070297 -0.062182333 -0.3323998 0.10501106 -0.11189544 0.31961817 0.122538544 0.17362784 -0.28797594 -0.06535382 -0.013280129 -0.070952274 -0.23104359 -0.21838026 -0.06896935 0.09550024 -0.2665581 -0.43718696 0.079253964 0.31191012 0.040270254 -0.12005432 -0.12294077 -0.22986598 -0.053918436 0.15495093 -0.23776981 0.26427054 -0.07774602 0.025777733 0.021067081 -0.17199908 0.08118968 0.10048644 0.3330218 0.025610656 -0.14541423 0.053230427 -0.14722557 -0.07747524 0.043744624 -0.1835424 -0.12120019 0.0067208684 -0.01544079 -0.03867456 0.0431998 0.3192994 0.38442063 -0.105468765 -0.17464554 0.14674427 0.23125105 0.00444133 0.19160987 0.08963706 0.31034908 -0.040339183 -0.21697603 -0.617289 0.21683915
25 0.2855139 -0.21570861 -0.15903905 0.1795151 0.08829084 -0.29060224 -0.18776503 -0.12315105 0.4516008 0.13418682 0.1998014 -0.28697178 -0.09751523 -0.0974533 -0.1740256 -0.6268639 0.2317935 -0.14034545 -0.48818368 -0.16744773 0.07895541 0.069860615 -0.023977574 -0.18297993 -0.20331046 0.4044306 -0.27066746 -0.18222483 0.33774242 -0.038870063 0.08025776 -0.11754042 0.034106772 0.08289058 -0.2658048 -0.34531486 0.24273534 0.22364573 0.2773167 -0.0024571884 0.016555395 -0.05051804 0.06837264 -0.08797435 -0.09511042 -0.33314988 -0.028450785 -0.08227075 -0.014786958 0.14080201 0.17911263 0.15666117 -0.19691782 0.13091187 -0.22914402 0.39786884 -0.3958028 -0.39541736 -0.025360946 0.31605193 0.025198257 -0.27422988 -0.3336369 -0.13830195
45 -0.37367916 -0.40646228 0.44787455 -0.08088128 0.37342328 -0.0029523938 0.21187335 -0.31312665 0.19632718 -0.01460121 0.2564368 0.03048313 -0.0037451456 -0.36312452 -0.46751186 -0.20141795 -0.3101565 -0.14393993 -0.017231546 -0.10841001 -0.3710626 -0.24817179 0.102929264 0.068501204 0.0646903 -0.00920888 -0.24670464 0.07271025 0.082520954 -0.1601151 -0.011679029 -0.36912727 -0.03855146 -0.016691897 0.049126387 0.34671003 0.2239947 0.26551265 0.17828533 0.16567698 -0.07579346 0.11677742 0.06494248 0.22477083 0.15008475 0.05502604 0.05362183 0.02446156 -0.012959263 -0.10439122 0.1157442 0.3107808 -0.07898487 0.2605314 0.30036396 -0.1772617 -0.273758 0.14010416 0.48012504 0.06638339 0.20332156 -0.01382002 -0.010150125 0.24793653
24 -0.04412567 -0.081556074 0.10682245 0.028818393 0.14665338 -0.30667776 0.0010138617 0.07753558 0.20609333 0.067496896 0.11929194 -0.116201356 -0.21545197 -0.34696087 -0.15709278 -0.20755579 0.01884042 0.05289203 -0.24194531 -0.1631574 -0.06360577 -0.09410034 0.19725446 0.024230788 -0.1462053 0.17194031 -0.19764021 -0.24814987 0.3674219 -0.5183917 0.114872254 -0.26527682 -0.33078736 0.10353973 -0.1968407 -0.016803017 -0.17362787 0.03387069 0.33385563 0.041339178 -0.0041101943 0.12767664 0.05768721 0.0052562016 0.15709828 -0.02642673 -0.18187134 0.091587074 0.23403504 0.035700053 -0.05267004 0.06450596 -0.15679502 0.044821016 0.11153811 -0.06559819 -0.32746235 -0.16900173 0.22137748 0.27497968 -0.026826782 -0.23151073 -0.1844936 0.09435408
53 -0.14904211 -0.24568506 0.43832302 0.1428865 0.13598974 -0.39797407 -0.09287502 -0.05039925 0.18569607 -0.15736495 0.21481246 0.17027251 -0.31607515 -0.37546536 -0.09954315 -0.058236517 -0.2628524 -0.14564356 -0.12722343 -0.28195906 -0.5810096 -0.18278447 0.0010670688 0.25159332 -0.35086435 -0.448171 -0.09344835 -0.28370833 0.43889162 -0.15633279 0.18537223 -0.13745557 -0.15509489 0.23785602 -0.103943914 0.4338862 -0.12417433 0.10046318 0.011731439 0.026477838 -0.04785619 0.2091036 -0.21811724 -0.024752032 -0.053740125 -0.0788957 -0.18969887 0.078272626 0.14562139 -0.37008363 -0.025739586 0.20019284 -0.20758383 -0.19025569 0.40247777 -0.13979632 -0.13251047 -0.009225143 0.27102444 0.42542428 -0.0059715556 -0.42014372 -0.24060912 0.17277904
46 -0.41685677 -0.11212064 -0.45292744 0.044104435 -0.37879723 0.08036529 0.17660594 0.16388598 0.22255634 0.33900127 -0.06420621 -0.31926918 -0.1898979 -0.0982291 -0.2770917 0.21274881 0.049003426 -0.012512073 0.09276744 0.28679967 -0.091228426 -0.09596692 -0.0039345613 0.4132553 -0.4546755 -0.25703955 -0.021325858 -0.6071843 0.26877424 -0.12463954 0.102565885 0.11264036 -0.20129937 0.11785241 -0.4421831 0.0472647 0.4133652 0.09822601 0.37447014 -0.039385643 -0.20892046 0.15768985 0.11796146 0.09189972 -0.3328424 -0.03667996 0.004841916 0.06767918 -0.15746255 -0.334313 -0.22900605 0.05111831 0.023903804 -0.3027544 0.21369855 0.17625503 -0.29264525 0.027520483 0.5326464 -0.123319976 -0.2098538 0.046515346 -0.2970097 -0.3138883
55 -0.021853507 -0.22602084 0.0030990338 0.001146983 0.10303786 0.153191 0.08381247 -0.005577793 0.38839272 0.19379692 -0.023903273 -0.2860383 -0.07153295 0.01622319 -0.33250996 -0.3808688 0.036236644 -0.19184387 0.070258066 -0.009016302 0.09519485 -0.16616876 0.011660295 -0.09917561 -0.074685484 0.21980466 -0.29914483 -0.060030542 0.10988853 -0.0020132754 0.0023843094 -0.030999888 0.20403446 -0.02177994 -0.015123847 -0.2256131 0.29639092 0.30982217 0.357072 0.06594151 0.04638001 0.039521907 0.10532533 0.06437221 -0.097397216 -0.115380794 -0.06680744 -0.14076358 -0.31805816 -0.0657851 0.17757602 0.3429575 -0.20772989 0.12388411 0.055154398 0.30688876 -0.2958773 -0.17877115 0.15154567 0.006618782 0.1781053 -0.02601408 -0.25012743 -0.12303781
59 0.39158586 -0.48241094 -0.02635158 0.55170095 -0.0793816 -0.43028206 0.10779622 -0.10852192 0.4538774 -0.2514964 0.31929594 -0.17122315 0.2509892 -0.063322276 -0.07466449 -0.13462143 -0.4230988 -0.10341565 0.19219643 -0.3757492 -0.3362221 -0.03502688 0.19075117 0.20238486 -0.25756073 -0.23072784 -0.29981217 0.030899795 0.22665414 -0.36106035 0.21229777 0.2944351 -0.060419966 0.17665751 0.05452803 0.2208814 0.12527609 0.25351682 -0.14531112 -0.4877654 0.023790047 -0.118447155 -0.1490269 0.05541059 -0.40841937 -0.15394625 -0.08961657 0.14186135 0.13847294 -0.20307788 0.33049718 0.54252285 -0.16875109 -0.27278948 0.08716369 0.15782185 0.081411324 0.20751628 0.022628943 0.5501767 0.009383105 -0.20713188 -0.64894515 0.31013328
39 -0.50755835 -0.48574433 0.03941539 0.0013678782 0.33510447 0.44542387 0.47692525 0.08982514 0.122091755 0.045537215 0.118615724 -0.25514448 0.0066427034 0.04229079 -0.3844439 -0.015478121 0.023108179 0.03187025 0.12719814 0.2017727 0.17562732 -0.25184867 -0.02803362 0.12233903 0.136666 -0.029397737 -0.3790608 -0.098754875 0.03338803 -0.3354836 -0.050361823 -0.34386525 0.117004104 -0.24608943 0.12544066 0.17098111 0.41421926 -0.025827343 0.61462706 0.11114415 -0.07482735 -0.03270088 0.3726949 0.3128997 -0.106615745 0.113249704 -0.1983971 -0.24714574 0.08254441 0.0114849415 0.08485497 0.33271495 -0.10977574 0.28664178 0.1370685 0.032640275 -0.14728057 0.01052325 0.15242514 -0.19635576 0.07822223 0.307208 -0.11426209 -0.26861084
57 -0.46145156 -0.49922827 0.22998723 -0.014373897 0.5274065 0.10477423 0.34610623 -0.34118682 0.3241093 -0.09656529 0.34009638 -0.06253589 0.23044415 -0.27979526 -0.5154476 0.007976436 -0.33083636 0.04994481 0.10872237 0.056530464 -0.09141549 -0.2262186 -0.001024741 -0.049107935 0.1457988 0.116341084 -0.405674 0.054582372 0.080523595 -0.31474617 -0.10705898 -0.25148392 -0.10247452 -0.14043644 0.26506704 0.27207032 0.35284147 0.12766075 0.31250745 0.00653796 -0.035115536 0.15188503 0.3225675 0.20901446 -0.014652918 -0.02555416 -0.12268817 -0.049321312 0.15926233 0.014244493 0.09222314 0.5313118 -0.19287618 0.3229694 0.14314424 -0.078539915 -0.24752115 0.08614561 0.39964378 0.14741635 0.19074628 0.17351857 -0.01660145 0.25070843
48 -0.018161956 -0.29042158 0.17592663 -0.06440715 0.41813704 -0.17849106 -0.028605945 -0.43200615 0.16336916 0.25292894 0.24473481 -0.12358653 0.037065126 -0.17829151 -0.21761054 -0.69452775 0.42167702 -0.06710812 -0.28337544 -0.25378355 -0.46682295 -0.067560144 0.21861108 -0.006712606 -0.10476615 0.06522316 -0.26955375 0.0290961 0.23349859 0.30928537 0.3887661 -0.13127029 0.175398 -0.08282105 0.011576723 0.0008392461 0.2271218 0.30764687 0.09618564 0.3146429 0.0053736726 -0.08921203 -0.15552048 0.11404629 -0.10262494 0.0928243 0.27758834 -0.039438598 0.15203258 -0.1509156 0.35862815 0.058125466 0.14120169 -0.061116893 -0.30023676 0.13533862 -0.23176353 -0.15153615 0.13611168 -0.08518213 0.26564002 -0.07048391 -0.24379863 -0.21308598
49 -0.2533144 -0.31845158 0.22316311 0.04472599 0.20825747 -0.014243289 -0.08747753 0.31249323 0.015292883 0.010585074 0.19155876 0.12040759 -0.40706083 -0.0066780285 -0.40424314 -0.18696909 -0.14618805 -0.15963224 -0.1850765 -0.29647553 -0.09697088 -0.36106744 0.0654026 0.2812906 -0.39418024 -0.26115167 -0.33876774 0.021050602 0.34140784 -0.14575161 0.0074942415 0.038845364 -0.0028866006 0.21898122 -0.20868582 0.28581187 -0.04801684 0.0195155 0.2714299 0.10207269 -0.09798479 0.18401843 -0.17887032 0.36699983 0.0843119 -0.0621346 -0.28020698 0.3249049 -0.015817484 -0.4011055 0.040674098 -0.04091659 -0.23942707 0.16800241 0.25154313 -0.12834497 -0.26084578 0.064582326 -0.12711808 0.20149885 0.20184295 -0.26852387 -0.14359318 -0.094098255
40 0.20772909 -0.31669295 -0.26533303 0.33252764 0.04671948 -0.041691672 -0.007583685 -0.15757284 0.43325177 -0.027525445 0.19118878 -0.2578271 -0.013973692 -0.078939706 -0.21418488 -0.37145543 0.007921288 -0.09382868 -0.28828472 -0.10214647 0.18119343 0.11383577 0.053481933 -0.17730302 -0.051339135 0.3705943 -0.34152472 -0.23434822 0.2771651 -0.110814266 0.028011331 -0.17431156 0.2166429 -0.050296098 -0.087902226 -0.23051226 0.38043284 0.2939248 0.37564623 -0.15498303 0.025752906 -0.13874725 0.12529573 0.012900341 -0.21511339 -0.36099812 -0.06107711 -0.19332941 -0.097164474 0.22722325 0.30232632 0.294176 -0.20935616 0.17380294 -0.03028973 0.4106537 -0.17439589 -0.362009 0.0038999957 0.2935532 0.093500994 -0.13380674 -0.3362506 -0.09810372
30 -0.085810006 0.03807288 -0.029393198 -0.0686087 0.10965563 -0.37476248 -0.027010554 -0.067180164 0.22363311 0.12688419 0.1074239 -0.16517195 -0.3177726 -0.51528025 -0.39665458 -0.24422339 -0.103914045 -0.030187568 -0.38736543 -0.11497126 -0.06569266 -0.121535584 0.26841238 -0.094802454 -0.15651411 0.32365516 -0.18758766 -0.16693608 0.3902895 -0.481339 0.004469951 -0.34333074 -0.43374932 0.18097009 -0.34859642 -0.023266386 -0.18504687 0.12817536 0.40881914 0.030262744 -0.08743696 0.104184225 -0.020457044 0.09634197 0.34623435 0.0005813822 -0.059416562 0.2226236 0.07423488 0.15140843 -0.034190834 -0.045355175 -0.13190882 0.2262246 0.2767097 -0.049551383 -0.4434573 -0.18020079 0.46348497 0.30581012 -0.055436227 -0.29311222 -0.05703559 0.24839747
56 -0.30597398 -0.3027684 0.4479749 0.050612625 0.08685402 -0.122486725 -0.10497417 -0.057396863 0.16755594 -0.0753118 0.17865503 0.17705722 -0.32615492 -0.39673364 -0.26174226 -0.048506208 -0.33408824 -0.23776768 -0.10173718 -0.20678532 -0.5641009 -0.24178049 -0.0036629296 0.30690205 -0.2618115 -0.33483568 -0.08245737 -0.2593967 0.30709088 -0.090706736 0.056690294 -0.12769088 -0.07813886 0.23844449 -0.1825889 0.4883952 0.029722204 0.20308916 0.09889241 0.16459747 -0.0806758 0.2934321 -0.18003668 0.053756036 -0.06130533 -0.08324821 -0.114138596 0.10207987 -0.06862583 -0.41749993 -0.11738628 0.20036194 -0.19043143 -0.061275035 0.43781838 -0.15466331 -0.23911838 0.05898085 0.40743485 0.20979528 0.119991586 -0.3214611 -0.090791866 0.09938882
41 -0.24185725 -0.3692574 -0.14331025 0.068047956 0.34215403 -0.05040391 -0.008434999 -0.1307165 0.20103772 0.13983892 0.31932104 -0.12749085 -0.093675494 0.13704234 -0.17720987 -0.26474142 0.50147814 0.065579996 -0.11528491 -0.03467272 -0.008570349 -0.14044836 -0.2827901 -0.06845677 -0.26369423 -0.3370091 -0.3751664 -0.30475336 0.49773997 0.44710717 0.16544554 0.055875223 0.24452184 0.023652554 0.18779658 -0.19395506 0.31105676 0.09862986 0.27478734 0.04784412 -0.15057963 0.035922047 -0.018757943 0.18151861 -0.20190386 -0.115981705 -0.1865057 -0.018317683 0.21278512 -0.4244357 0.4007017 0.09718861 -0.3005023 0.033705916 -0.09990682 0.20191826 -0.21202318 -0.2659239 -0.39745846 -0.009565411 0.24951836 -0.16920622 -0.24687117 -0.4582653
15 -0.054105334 -0.111980796 -0.14722724 0.0333089 0.035454344 -0.26345894 -0.06608081 -0.14342545 0.28852934 0.18075576 0.14218777 -0.22115882 -0.1195226 -0.3152361 -0.28729218 -0.19800842 0.10328044 -0.043856673 -0.26255074 -0.04488096 -0.19242465 -0.04672384 0.107898355 0.023551729 -0.19776723 0.0963498 -0.2082769 -0.19831829 0.27691764 -0.13934493 0.06838536 -0.049483705 -0.24282403 0.13029554 -0.2870669 -0.01757512 0.08980325 0.1343627 0.25026157 0.020053996 -0.14207417 0.077627994 0.011652108 0.018549785 -0.015152084 -0.012833877 0.03212234 0.09962381 0.09679582 -0.0026143612 -0.014678631 0.06847813 -0.09806275 -0.029122153 0.0024806769 0.12651995 -0.3256642 -0.099679194 0.34890446 0.16398342 -0.06425439 -0.14713134 -0.16857435 -0.022969728
52 -0.2286786 -0.047356643 -0.115119815 -0.012278195 -0.4941817 0.035669446 0.11773967 0.11193092 0.2696817 0.49039495 -0.19804308 -0.37559837 -0.35032597 -0.051808413 -0.27190846 0.11050046 -0.018504107 -0.11319602 0.2636104 0.14954367 -0.36025363 -0.11474368 0.07344279 0.38636816 -0.37009355 -0.40217525 -0.060849406 -0.44066447 0.13385983 -0.013938998 0.10308746 0.119737335 -0.06842815 0.14775886 -0.46775988 0.12982364 0.3363426 0.26266813 0.3261737 0.016049907 -0.23037949 0.12035558 -0.05697033 0.08216386 -0.32002622 0.08530905 0.069063 0.031765606 -0.37382087 -0.34940365 -0.15342742 0.11657457 -0.04086743 -0.39395288 0.35627303 0.19914137 -0.24952208 0.17791246 0.5451016 -0.2532905 -0.17163627 -0.058128968 -0.33467707 -0.23227185
54 0.37244117 -0.29311636 0.13392797 0.1741237 0.010109292 -0.23343213 0.07567222 0.0047586192 0.1749325 0.16163969 0.22268276 -0.2780326 0.060417637 -0.1845306 0.042566173 -0.4159662 0.028463712 -0.12398952 -0.025232034 -0.21613085 -0.42176804 0.008632756 0.3505521 0.066557884 -0.047797207 0.087945275 -0.17246515 -0.13323112 0.16727632 -0.4581092 0.35343185 -0.22393753 -0.15182705 0.024053268 -0.23834234 0.12907241 -0.017157704 0.27590358 0.07051879 0.031325366 0.13074552 -0.17198172 -0.09152318 0.08571696 -0.080481164 0.055789288 0.17543624 -0.07213784 0.23532903 0.08385806 0.0457456 0.15395191 0.092656374 -0.194362 -0.12724142 0.11978306 -0.16001637 0.06788389 0.25563428 0.07761281 -0.031663064 -0.107211016 -0.45646262 0.0124146165
34 -0.43952572 -0.41521084 0.16963634 -0.019004095 0.1934218 0.18005861 0.16413628 0.12879367 -0.025524179 0.2471277 0.35952616 -0.13928634 -0.23573795 0.05180247 -0.14549902 0.13576503 0.2576962 0.10138199 -0.0787793 0.11957553 -0.15915537 -0.17973442 -0.19953746 0.21038613 -0.051078472 -0.43040675 -0.4224461 -0.3658787 0.20893535 -0.1984278 -0.015980229 -0.3225498 -0.0003415534 -0.11938879 -0.06964977 0.17525204 0.19367637 -0.08380829 0.5218797 0.13900942 -0.22864571 0.11460263 0.23893875 0.29901552 -0.09840941 0.11433325 -0.26141527 -0.050788466 0.3886394 -0.13863294 -0.009490859 -0.0011715312 -0.29547113 0.07252337 0.08983958 -0.10388964 -0.24537249 0.0127047915 -0.12559953 -0.2512941 -0.0395184 0.021377448 -0.06768806 -0.3427242
29 0.11916945 -0.24210973 -0.113278225 0.19483176 0.16276936 -0.0043277885 0.19709976 -0.009583868 0.21444505 0.06416611 0.1731651 -0.27082455 0.21586096 -0.22411507 0.018194638 -0.201347 0.15795913 0.07453092 0.11955842 -0.11103151 -0.20981514 -0.08614912 0.3969448 0.019427156 -0.018939361 0.18108746 -0.26547194 -0.2661939 0.22880447 -0.58273834 0.3260803 -0.09164419 -0.21746841 -0.060361654 -0.032534268 0.0594049 -0.09189189 0.12203963 0.28746855 -0.039533794 0.21582325 -0.18911177 0.03274087 0.11867668 -0.130691 0.2113483 0.09562749 -0.13354926 0.3886124 0.054576244 0.0675643 0.23413654 0.08911325 -0.25819066 -0.16034523 0.1099126 -0.07109756 -0.075303115 0.30206758 0.06853248 -0.034970846 0.11660611 -0.44141614 -0.028557656
32 -0.310873 -0.2920023 -0.24290305 0.17003635 -0.010866206 0.07184957 0.04343663 -0.024052925 0.14513625 0.06181932 0.3322871 -0.07312582 -0.124646686 -0.021240987 -0.0899745 0.031967502 0.15392177 -0.010325876 -0.17082804 0.09296121 -0.03847802 -0.09514921 -0.18270853 0.07751018 -0.22225446 -0.2689336 -0.33567622 -0.53871673 0.3744538 -0.05644566 -0.03591769 -0.1201293 0.07699036 -0.019067002 -0.074158534 -0.014452592 0.22800696 0.06642584 0.3780332 -0.086092204 -0.11738957 0.0011757312 0.07269315 0.22301535 -0.17395714 -0.085212745 -0.12398584 -0.06458987 0.20405367 -0.15443902 0.1432906 0.05507518 -0.24966833 -0.027636584 0.14523602 0.12539963 -0.1724714 -0.2227583 -0.08013477 0.007932953 0.002740057 -0.09309402 -0.18585676 -0.26981777
38 -0.06126042 -0.23660123 0.032173682 0.035320416 0.1414106 0.15611544 0.19811434 -0.14435953 0.24057533 0.21092017 -0.145866 -0.26801446 -0.19997974 -0.0029160378 -0.35050586 -0.31020945 0.10471672 -0.042556085 0.13154392 -0.034241617 -0.08629952 -0.05711977 0.24119122 -0.026442038 -0.056791063 0.023645688 -0.19744343 -0.10462886 0.18437168 0.18636273 0.22194362 -0.14704631 0.33685285 -0.13284391 0.021818263 -0.060102686 0.34734985 0.33683226 0.3636613 0.15622503 0.01777262 -0.10994492 0.0047894185 0.11354991 -0.18690592 -0.04293656 0.036883537 -0.19852279 -0.3392513 -0.10912948 0.37230018 0.28763276 0.020655049 0.02749062 0.19366348 0.30668393 -0.040204465 -0.09473378 0.23055269 -0.028644338 0.24438415 -0.012720814 -0.36493126 -0.21860103
47 0.0065786056 -0.13331929 -0.27310097 0.05742699 -0.121258035 -0.06288323 0.01727147 0.20983265 0.27206573 0.25831628 0.085287295 -0.3810796 -0.054350354 -0.020284489 -0.04436305 -0.21853188 0.31053948 -0.07272818 -0.00536799 0.07665421 0.01559301 -0.14525321 -0.035877403 0.08303508 -0.24055064 -0.00078784337 -0.2646378 -0.3463233 0.27486718 -0.2507654 0.08879979 0.08969715 -0.11725922 0.10378081 -0.20437714 -0.20032747 0.059736405 0.120728225 0.36171106 -0.028573098 -0.05812101 0.029998299 0.036389858 0.060143854 -0.19061823 0.09157398 -0.120842285 -0.019275924 0.12322276 -0.14319587 0.015754178 0.07718785 -0.16735682 -0.157615 -0.14629321 0.2282865 -0.3035823 -0.14149351 0.042407583 -0.08927208 -0.08625735 -0.06640902 -0.29872394 -0.32216823
20 -0.11930663 -0.2584119 -0.07942675 0.20471708 0.0019093747 0.042184077 0.029822279 -0.18691485 0.28657022 0.049133953 0.2435664 -0.050297476 0.07851158 -0.18872578 -0.12430627 -0.1718783 -0.020150209 -0.12800455 -0.10079532 -0.072523676 -0.17093103 -0.03266803 0.03531165 0.05380183 -0.16749409 0.09352052 -0.2093419 -0.380229 0.24659142 -0.08802191 0.041765068 -0.08952295 0.07161572 -0.006191769 -0.088477224 -0.011356631 0.27084965 0.26016644 0.2517058 -0.025838736 0.04787105 -0.018537136 0.023252439 0.100197874 -0.16329315 -0.15040381 0.10425608 -0.09708318 0.03609579 -0.09799188 0.070837 0.2134873 -0.081177816 -0.065222934 0.023880413 0.13370183 -0.20601241 -0.21041702 0.20916872 0.074702784 0.08327521 -0.014388324 -0.24800435 -0.030522056
51 0.2504106 -0.2671975 -0.08967541 0.217014 0.17830226 -0.14868942 0.14578977 0.04303125 0.18734264 0.04255834 0.28249085 -0.32536384 0.15253513 -0.16196275 0.0709027 -0.3022581 0.21176717 0.006427651 -0.037265684 -0.13666867 -0.2146038 -0.09089876 0.29574645 -0.0144727295 -0.012163457 0.10885042 -0.3087014 -0.20083241 0.22929177 -0.6274734 0.31337658 -0.18745102 -0.25258324 -0.03212052 -0.11871718 0.06872894 -0.15286936 0.05904741 0.2569475 -0.061830565 0.14912151 -0.24974735 0.005153432 0.12953074 -0.04684288 0.25786358 0.037426427 -0.14448476 0.46838093 0.16697152 0.077242576 0.16355053 0.0080415355 -0.18593733 -0.17990813 0.119319454 -0.08643984 -0.051323846 0.16286547 0.101610936 -0.15070501 0.015181912 -0.43904757 -0.03980348
