15 64
0 -0.062197674 0.03913412 0.05246306 0.10397055 0.03855197 0.14513023 0.05626224 0.083593704 -0.008869583 0.2537114 0.1924884 -0.23257363 -0.11458188 -0.012924119 -0.2993569 0.184426 -0.17060918 -0.018963318 -0.18593417 -0.29686803 -0.0054772445 0.07001519 -0.09872979 0.08833089 0.033424668 0.01931666 -0.061295595 -0.034138314 0.11325312 -0.05918645 -0.27966288 -0.25510785 -0.23603775 0.11240768 0.2536835 -0.10135823 0.062823966 0.08835743 -0.24933745 -0.06517976 0.17804132 0.17282034 -0.04790154 -0.14858098 0.1461079 0.024466412 -0.0081724925 -0.0045416947 -0.12155165 -0.05654484 -0.06912492 0.361447 0.21329156 -0.019619996 0.003196591 -0.017932002 -0.13544458 0.07441142 0.098603934 -0.036661394 -0.20264086 0.037643712 -0.15861744 -0.29991186
5 -0.060170643 0.036372006 0.053797923 0.09203009 0.04888012 0.14030936 0.05209849 0.07635069 -0.014590828 0.23918115 0.18150367 -0.21881814 -0.09940978 -0.004158202 -0.2685411 0.1665789 -0.14346331 -0.031974472 -0.16753505 -0.2710556 -0.0138868205 0.063178845 -0.096602626 0.07896252 0.028790127 0.024302157 -0.07038674 -0.031465273 0.1087352 -0.053696346 -0.27086967 -0.23762438 -0.21819589 0.104235984 0.23221079 -0.09160723 0.053233605 0.07595557 -0.21799494 -0.054760057 0.14183454 0.14430392 -0.036412794 -0.13058265 0.1336282 0.022581842 0.0063714203 -0.006248497 -0.109476745 -0.05357349 -0.06525757 0.33604893 0.19999343 -0.0053971456 -0.00021382522 -0.0016572247 -0.12903938 0.0735608 0.09527988 -0.04247589 -0.1941765 0.038937204 -0.15190683 -0.29174677
1 -0.07059095 0.039881278 0.046854228 0.09677972 0.035538446 0.14449996 0.04807685 0.077924445 -0.018612567 0.2534376 0.18647768 -0.22850524 -0.11669821 -0.0047700475 -0.28233725 0.17177834 -0.15415837 -0.029535744 -0.17651482 -0.28661096 -0.009688984 0.06821955 -0.10035407 0.0923827 0.02792082 0.023661844 -0.07181279 -0.028307267 0.11087005 -0.056163125 -0.27230075 -0.25351432 -0.23511186 0.10395993 0.2470227 -0.097507246 0.060572356 0.0895148 -0.23983343 -0.06280036 0.17026567 0.1683056 -0.041822076 -0.13611528 0.1286462 0.015074469 -0.0014807162 -0.008513842 -0.12212983 -0.052468665 -0.070657834 0.3575736 0.21233112 -0.008761237 0.0072090155 -0.011103591 -0.13200691 0.077474944 0.10066443 -0.03690372 -0.20370589 0.042230427 -0.16526772 -0.30267885
3 -0.057342414 0.041300423 0.03860983 0.109065555 0.04053763 0.12776046 0.0692607 0.0797605 -0.008072352 0.24767745 0.19890833 -0.22312379 -0.12914237 -0.0065061613 -0.28896448 0.1920394 -0.15770467 -0.029377926 -0.20232543 -0.2959314 -0.0024384144 0.089506015 -0.0968065 0.06903403 0.034267902 0.025650714 -0.07932336 -0.0122333355 0.12531124 -0.063933164 -0.29194427 -0.24441536 -0.23915079 0.10543216 0.24304785 -0.10690289 0.039173592 0.08790425 -0.23853509 -0.0492339 0.17510293 0.17447601 -0.025437262 -0.15632881 0.15275565 0.0084684575 -0.010590346 -0.025787257 -0.09762767 -0.04566873 -0.07143991 0.3436747 0.21883677 -0.021614607 0.018210825 -0.030073749 -0.11447929 0.074961685 0.10133788 -0.044641253 -0.20134015 0.03098049 -0.15577729 -0.31358606
4 -0.070208736 0.04916858 0.056769338 0.102031395 0.04759019 0.14709519 0.041960467 0.06666673 -0.0085821645 0.25820157 0.18687114 -0.23572919 -0.105816655 -0.0083925 -0.28025922 0.17840223 -0.1593807 -0.028662078 -0.1689458 -0.27208662 -0.005934277 0.06579027 -0.0984496 0.092750125 0.019381842 0.025051704 -0.07544832 -0.036805715 0.10739374 -0.047212403 -0.27220765 -0.2403202 -0.22519106 0.112575114 0.23898281 -0.09119176 0.06161051 0.070209675 -0.23076397 -0.067832485 0.15444437 0.15059079 -0.035098426 -0.13439947 0.13135508 0.028085446 0.010665264 -0.00025987672 -0.124904364 -0.06085327 -0.062194873 0.36529553 0.20661566 -0.0021696696 0.0052487277 -0.0122381495 -0.13921927 0.076536894 0.10860991 -0.03574354 -0.19721603 0.031922713 -0.15721051 -0.3116805
9 -0.039462343 0.029191043 0.02342414 0.12241431 0.051153146 0.13273914 0.078457005 0.07336736 -0.0019516366 0.24755113 0.20616008 -0.21168481 -0.13657247 -0.017899666 -0.28477934 0.19417311 -0.16875027 -0.022415234 -0.20857058 -0.29175445 -0.018616706 0.098855786 -0.09120025 0.054328363 0.034634173 0.011243074 -0.0634011 -0.007528991 0.12823701 -0.06259956 -0.2746053 -0.24212135 -0.23950861 0.11018827 0.24547312 -0.110148214 0.026689855 0.091234885 -0.2523334 -0.05731831 0.18028778 0.17379399 -0.038362138 -0.14950526 0.15210655 0.011475874 -0.0120810345 -0.026773358 -0.10068796 -0.052983247 -0.08068165 0.33252132 0.20992216 -0.029295854 0.007628606 -0.037399285 -0.09515354 0.06558346 0.09109554 -0.05929524 -0.18502335 0.043593533 -0.15296388 -0.30367813
8 -0.047813553 0.038471427 0.03218742 0.11364693 0.053637005 0.13712755 0.0711876 0.07720905 -0.0075210813 0.25396368 0.20352352 -0.2298889 -0.122295104 -0.0071199634 -0.2870122 0.18317749 -0.16906418 -0.02335265 -0.20208986 -0.29498205 -0.012833384 0.08412954 -0.08925644 0.07155499 0.022861952 0.015357718 -0.07902472 -0.022371242 0.12334419 -0.05735105 -0.2878311 -0.24511923 -0.23892663 0.11587674 0.24311987 -0.10618624 0.041664567 0.09424432 -0.2487447 -0.0515216 0.17266104 0.17003036 -0.0383815 -0.15618657 0.13993707 0.010376428 -0.014136958 -0.015659269 -0.10741316 -0.061086856 -0.06969958 0.35452232 0.21353951 -0.012730114 0.013583782 -0.02319199 -0.10863472 0.076900035 0.1057726 -0.055818662 -0.19598478 0.04475809 -0.1622248 -0.31379196
2 -0.067567155 0.04413239 0.04748337 0.09226746 0.037455365 0.1354739 0.05576429 0.06664532 -0.009991697 0.23736647 0.17258668 -0.22310682 -0.11342606 -0.001155792 -0.2793639 0.1685641 -0.14666806 -0.028307896 -0.1699132 -0.27748314 -0.011104015 0.066583306 -0.09533735 0.0847882 0.025497891 0.023910284 -0.06424723 -0.024735175 0.1117241 -0.045342434 -0.27392545 -0.23414516 -0.22249405 0.10901346 0.22819473 -0.0990219 0.05870138 0.069864646 -0.21707992 -0.065189175 0.16094372 0.1594692 -0.027657578 -0.1402296 0.13832736 0.020204898 0.0013783723 -0.014022593 -0.11449302 -0.053294413 -0.06536716 0.34979093 0.20514812 -0.009534548 0.009631057 -0.016278423 -0.13484737 0.0781031 0.09197062 -0.03427405 -0.19146006 0.029809372 -0.15373401 -0.28833172
7 -0.0658993 0.048807178 0.045406662 0.10423916 0.04220176 0.1397969 0.05742268 0.07648661 -0.019942397 0.24750094 0.17647943 -0.22767161 -0.11022682 -0.003280052 -0.27351388 0.16432242 -0.15913631 -0.030084299 -0.17275907 -0.28308344 -0.015346335 0.07193662 -0.101066954 0.08827178 0.022130836 0.019843534 -0.07395387 -0.02134126 0.10143565 -0.056085758 -0.27870005 -0.23896977 -0.2239134 0.10975994 0.23246214 -0.0962482 0.055260696 0.07666596 -0.22806485 -0.06801191 0.15523192 0.16134822 -0.031093271 -0.13102585 0.1343905 0.025149623 0.008073585 -2.9607465e-05 -0.119026735 -0.056530733 -0.061816692 0.3498935 0.2050176 -0.0074540474 0.014884081 -0.0052709114 -0.13726452 0.071746215 0.10015601 -0.034842823 -0.19890457 0.029395292 -0.15007478 -0.30613095
6 -0.049209718 0.03568092 0.03647156 0.10008406 0.045244355 0.13771631 0.062062714 0.06518159 -0.0141251115 0.23925547 0.18803838 -0.2258356 -0.10636492 -0.012403124 -0.27649128 0.17948766 -0.15287104 -0.035837978 -0.17273314 -0.27752405 -0.012358188 0.07117942 -0.089781746 0.08148961 0.03136256 0.014800939 -0.063895054 -0.03225209 0.11739108 -0.052526616 -0.26621306 -0.23376578 -0.22636756 0.1092458 0.23840177 -0.09304737 0.04849783 0.078925595 -0.22134522 -0.055120196 0.16283289 0.16161579 -0.02653814 -0.13546647 0.1334643 0.022579987 0.0032650728 -0.0069388216 -0.11591297 -0.051758103 -0.07407034 0.34782887 0.199861 -0.014322179 0.0076944316 -0.021926258 -0.117260404 0.07547286 0.09914498 -0.040390536 -0.19329107 0.035549346 -0.1547627 -0.2991388
10 -0.067395605 0.047822524 0.046659797 0.098109014 0.042967845 0.15096594 0.05387868 0.062011003 -0.008435154 0.25432074 0.18334697 -0.24064797 -0.09955607 0.0024863286 -0.27118245 0.1728931 -0.15256684 -0.04270418 -0.15336049 -0.27688915 -0.016583707 0.050631758 -0.10203278 0.09476465 0.019091262 0.017318103 -0.08101734 -0.03584205 0.10714063 -0.05620487 -0.28068382 -0.24036641 -0.22515959 0.10510473 0.24498785 -0.08554456 0.066699475 0.067155346 -0.21463518 -0.067478344 0.14448403 0.1480569 -0.025428632 -0.12677588 0.12108892 0.032187864 0.009945594 0.0021151488 -0.1252297 -0.060325358 -0.06856089 0.37060517 0.21587385 0.0015067161 0.010147433 0.0022755095 -0.1469127 0.07893893 0.09687217 -0.046084065 -0.20290613 0.026262876 -0.16429074 -0.31330106
11 -0.06182415 0.041035242 0.047793016 0.103720956 0.049649533 0.14102253 0.045647964 0.07899674 -0.010321817 0.25176626 0.17609984 -0.23416606 -0.10099065 0.0015677909 -0.29179308 0.16651757 -0.15845945 -0.028261583 -0.16590491 -0.2751316 -0.015530293 0.057526466 -0.10154209 0.09594384 0.036396388 0.028119138 -0.0630043 -0.0351414 0.10890933 -0.04869741 -0.28719378 -0.2509671 -0.23349744 0.11737889 0.23631702 -0.09376978 0.074236214 0.08230697 -0.22781888 -0.05385641 0.16693485 0.15326516 -0.03784925 -0.13825363 0.1370106 0.026482949 0.0010110664 -0.010148771 -0.13115697 -0.058052123 -0.07459503 0.36329758 0.21640418 0.0028069727 0.0017979537 -0.006208077 -0.14717853 0.06811519 0.10620845 -0.041388158 -0.19062838 0.03517386 -0.16553938 -0.3050542
13 -0.042967763 0.038061645 0.048080616 0.11761917 0.054485995 0.13006932 0.07349523 0.09067187 0.0053325375 0.24294958 0.20408943 -0.22295603 -0.13705446 -0.00785593 -0.30053356 0.19606097 -0.17692937 -0.019562172 -0.20302382 -0.30005762 0.001279976 0.07825528 -0.099441774 0.061981164 0.025210856 0.018262772 -0.069428064 -0.027625654 0.123094365 -0.05875223 -0.28981555 -0.25215206 -0.23187687 0.10979519 0.2527552 -0.11322484 0.045438338 0.100631565 -0.2544273 -0.049404804 0.18758863 0.17671971 -0.037098933 -0.15958321 0.14074945 0.00912371 -0.027601724 -0.029504076 -0.10250115 -0.05878182 -0.06672511 0.34585595 0.21158808 -0.030998282 0.01498067 -0.027322495 -0.11946485 0.070384085 0.09672276 -0.05025457 -0.19418815 0.04117334 -0.1547101 -0.30258235
14 -0.048262212 0.04329858 0.045739952 0.1185438 0.04418128 0.13123022 0.0647554 0.08533305 -9.070375e-05 0.24442421 0.20246476 -0.22041626 -0.12676764 -0.005918232 -0.29295078 0.19009365 -0.17019396 -0.02291334 -0.19331019 -0.29508954 -0.010218814 0.07314787 -0.09555451 0.07183168 0.034046534 0.021104198 -0.06569079 -0.02355821 0.12929043 -0.056120988 -0.28049082 -0.24837759 -0.23150693 0.106807314 0.24939282 -0.11063848 0.05273953 0.09415927 -0.24505824 -0.051893 0.17477053 0.16643155 -0.04265655 -0.15698504 0.14232412 0.019633543 -0.012463836 -0.011353935 -0.112247534 -0.06174479 -0.07146536 0.34587502 0.21040994 -0.023187274 0.0058466936 -0.018769901 -0.1268808 0.06460707 0.098064214 -0.041792575 -0.19001442 0.040991113 -0.15885434 -0.30612838
12 -0.060102254 0.0321712 0.036632314 0.11125684 0.046685107 0.1259306 0.06426697 0.07890944 -0.0050800084 0.2467095 0.19283366 -0.2186536 -0.12642401 -0.004951821 -0.28774565 0.18673596 -0.16867372 -0.02900399 -0.18471892 -0.28994277 -0.007975197 0.07804652 -0.09685477 0.07578594 0.027982173 0.03078851 -0.068424106 -0.0345152 0.11667301 -0.058698166 -0.28260273 -0.24870098 -0.2384449 0.097400114 0.24555115 -0.10129513 0.056614857 0.09787076 -0.24606448 -0.047727093 0.17919679 0.16129959 -0.033249974 -0.15437812 0.13520055 0.020969395 -0.02062515 -0.016823426 -0.10466095 -0.052310623 -0.067279644 0.34383237 0.21417819 -0.016050396 0.01615677 -0.023333177 -0.12415777 0.06514135 0.09696448 -0.045908585 -0.1980832 0.04338792 -0.15956657 -0.2979532
