15 64
0 0.1461001 0.20648523 -0.05010769 0.26398417 -0.18518844 -0.11481192 0.08760196 -0.050160483 -0.07878378 -0.029189948 0.162624 0.0033194113 0.01365508 -0.17496662 0.17931576 0.30282822 -0.14683272 -0.14540224 -0.2274299 -0.17710923 0.10853871 -0.11700869 0.061337005 0.10918402 0.3187697 -0.10602893 -0.03283072 0.07560905 -0.12839624 -0.09269545 -0.16464812 -0.1765861 -0.18586788 -0.08713801 0.28496435 -0.14182988 -0.039522074 -0.054804638 -0.1730802 -0.012294701 -0.17510726 -0.051527627 -0.38471147 -0.08999222 0.018161483 -0.013216204 -0.06334816 0.16834874 -0.023998404 0.012887544 0.010826517 -0.022744158 0.09573847 0.15268813 -0.10836956 -0.021746164 -0.120840654 0.06834346 0.024182314 0.11055724 -0.1148576 0.037468288 0.22953261 -0.17856807
2 0.13957158 0.20896754 -0.045567974 0.26461646 -0.1925031 -0.10084463 0.091848664 -0.045762 -0.088839926 -0.04563825 0.15649156 0.014662376 0.0032896588 -0.1784498 0.1909075 0.31162333 -0.1527913 -0.13873753 -0.22226523 -0.1695909 0.105116025 -0.10670951 0.051199798 0.1155591 0.3233328 -0.10221216 -0.02150372 0.0897395 -0.13690634 -0.10868528 -0.16060895 -0.17405975 -0.18262792 -0.082348615 0.26953903 -0.13113198 -0.033729363 -0.05797991 -0.16087233 -0.0046297787 -0.18962643 -0.059440285 -0.38881734 -0.09352447 0.025925048 -0.020169951 -0.05485266 0.17598487 -0.017187517 0.019259945 -0.006253255 -0.024463758 0.10383798 0.16494662 -0.12311624 -0.012704398 -0.12545101 0.08328242 0.029018495 0.09928099 -0.12557563 0.059748102 0.22402899 -0.19060284
1 0.13617736 0.21129376 -0.034909353 0.25290325 -0.19207688 -0.10609749 0.102406666 -0.03337682 -0.09658987 -0.04032827 0.1495863 0.0037053197 0.011082055 -0.1843998 0.1985751 0.3147143 -0.15087909 -0.12872083 -0.22816396 -0.17935894 0.090800576 -0.105133355 0.049620766 0.10833233 0.32552174 -0.111421645 -0.030355837 0.081814826 -0.1407017 -0.11282755 -0.17003557 -0.17142287 -0.17649609 -0.088161424 0.2679595 -0.13091528 -0.039731797 -0.06443844 -0.16164103 0.0039820056 -0.19093621 -0.07048454 -0.39246386 -0.09501526 0.016835505 -0.008941316 -0.060782436 0.18137895 -0.022912042 0.03295033 -0.006149487 -0.020981058 0.116432324 0.16861348 -0.11478249 -0.022180643 -0.13203433 0.09386034 0.020689925 0.09613168 -0.1192395 0.06259101 0.22364447 -0.18782173
3 0.1468993 0.21519126 -0.042355154 0.26603124 -0.19175582 -0.11902195 0.09385402 -0.037526015 -0.088016346 -0.04480054 0.1588029 0.009461134 0.013413598 -0.18849947 0.19566484 0.31798837 -0.15391809 -0.14436573 -0.23728147 -0.17898326 0.093512736 -0.11838517 0.05248142 0.114699066 0.33436418 -0.11242354 -0.022694321 0.09040454 -0.13012537 -0.113948315 -0.16913807 -0.16664696 -0.18832307 -0.076314434 0.28806955 -0.141513 -0.046287417 -0.06797188 -0.16813008 -0.006811082 -0.18531679 -0.065619215 -0.39585546 -0.10241013 0.022013402 -0.024779882 -0.062462717 0.18306734 -0.013777984 0.029234905 0.00411168 -0.03546999 0.111114755 0.1585377 -0.12758473 -0.024871316 -0.12888601 0.087861046 0.01998858 0.10464433 -0.1177179 0.05710077 0.2314424 -0.19720553
4 0.1485553 0.2078227 -0.035126366 0.26940858 -0.179455 -0.10767181 0.09574405 -0.051904622 -0.094483756 -0.03419994 0.15824088 0.017035097 0.0015441808 -0.1846656 0.1828147 0.30678073 -0.14208728 -0.14769325 -0.22416113 -0.18414205 0.111156 -0.117489114 0.055280227 0.116304934 0.32857063 -0.1078739 -0.029216422 0.080699906 -0.13722612 -0.10149234 -0.16746037 -0.18255593 -0.18935741 -0.08412219 0.28103274 -0.1441826 -0.038277127 -0.050552923 -0.17059433 -0.011230365 -0.17969535 -0.061027195 -0.39364836 -0.09424159 0.01395689 -0.009215846 -0.06590955 0.17785849 -0.026759574 0.01418462 0.0034262503 -0.019779176 0.099452354 0.16760036 -0.12670638 -0.012702319 -0.118342996 0.07563579 0.032678466 0.111612745 -0.124169685 0.044005178 0.23486452 -0.19420846
12 0.13324787 0.19866611 -0.037452754 0.256644 -0.18854743 -0.10436749 0.09718832 -0.042467613 -0.08680532 -0.030883491 0.15965582 -0.003998092 0.010582421 -0.17106515 0.19436446 0.30628872 -0.12926742 -0.13629119 -0.23015095 -0.17757913 0.09616335 -0.11231284 0.05806075 0.100862436 0.3225152 -0.11003183 -0.0231167 0.08476439 -0.120301835 -0.10412038 -0.15571019 -0.16096926 -0.17839788 -0.083208926 0.28036904 -0.13413826 -0.044914145 -0.06221929 -0.16814439 -0.013434785 -0.18601957 -0.04813799 -0.38345382 -0.082344875 0.020581404 -0.010656022 -0.0605956 0.17850298 -0.029817795 0.018001622 0.002796963 -0.022123735 0.113335155 0.14686882 -0.11379937 -0.030140994 -0.12130054 0.08431255 0.014507349 0.105098 -0.116217926 0.049979687 0.22967216 -0.17743835
5 0.1380141 0.20104341 -0.039601546 0.2555515 -0.18755302 -0.10921613 0.10406466 -0.042819984 -0.09278843 -0.050039634 0.15816036 0.003125046 0.005993509 -0.1810754 0.1920418 0.30599985 -0.13638042 -0.13748582 -0.21846327 -0.1647745 0.08574708 -0.10783794 0.05061921 0.10290499 0.33323175 -0.10135629 -0.023102457 0.0904089 -0.13884567 -0.10039462 -0.15361199 -0.16124117 -0.16941898 -0.084384546 0.27162042 -0.14131935 -0.041201912 -0.06367462 -0.15888317 -0.012557012 -0.19291145 -0.06785221 -0.3845595 -0.094276555 0.010119117 -0.008419842 -0.06773092 0.17305999 -0.015237218 0.026217785 0.0014719685 -0.025398232 0.10657744 0.15939344 -0.11774765 -0.026685035 -0.12794952 0.07982536 0.031626306 0.097912155 -0.11152854 0.061865494 0.23197626 -0.1976371
8 0.13702354 0.20519309 -0.032803133 0.26364273 -0.18814422 -0.10064103 0.10215279 -0.043320607 -0.09246341 -0.038746085 0.15647222 0.0037899725 -0.0026271737 -0.1735653 0.19286336 0.31984374 -0.14734136 -0.13281827 -0.23935665 -0.1792976 0.089602895 -0.10712469 0.055220857 0.11469289 0.33411554 -0.10876251 -0.019853666 0.09643114 -0.14191112 -0.11643558 -0.17033124 -0.1695834 -0.18086734 -0.07650241 0.27325895 -0.14349352 -0.030604018 -0.060034417 -0.16045024 -0.0067238854 -0.19564222 -0.060894348 -0.399271 -0.10590965 0.013981809 -0.019923806 -0.06523632 0.17330611 -0.024370613 0.020378243 -0.0044545494 -0.033050805 0.10931287 0.17249517 -0.119995385 -0.017131831 -0.13639359 0.0871928 0.03196034 0.1110423 -0.1289256 0.0663512 0.23533487 -0.19935177
11 0.13042292 0.20500007 -0.030509224 0.2550804 -0.18476065 -0.103830494 0.096901834 -0.04169729 -0.08615685 -0.049705096 0.14050426 0.0057073245 0.004868704 -0.17622165 0.19472879 0.3108696 -0.13471012 -0.12908255 -0.21447891 -0.17282808 0.082817346 -0.10294239 0.05642071 0.100294694 0.3152784 -0.10117814 -0.030130547 0.086156644 -0.13613032 -0.11419843 -0.15593559 -0.16458662 -0.16524982 -0.07936113 0.26265714 -0.12843955 -0.040973507 -0.06519966 -0.14591362 0.0017913599 -0.18447188 -0.06712494 -0.38348588 -0.087864704 0.020894581 -0.0044818735 -0.061258607 0.17956792 -0.026706057 0.03166315 0.005128252 -0.016428778 0.11503044 0.16434935 -0.11191098 -0.02947838 -0.11809508 0.08767472 0.027684208 0.096186645 -0.11606537 0.060898937 0.21401948 -0.19063298
7 0.13901883 0.1995945 -0.044801876 0.26008412 -0.18549262 -0.1133109 0.08540597 -0.047960795 -0.088063344 -0.035240665 0.155965 0.011490709 0.009722389 -0.18517219 0.1846113 0.30788997 -0.1403785 -0.14674236 -0.21437304 -0.17887574 0.10592184 -0.1176134 0.05191623 0.10363984 0.3284365 -0.10866883 -0.033340365 0.071573816 -0.13019028 -0.10323095 -0.161254 -0.17428991 -0.17749584 -0.07370884 0.27318534 -0.12914474 -0.03363619 -0.06059956 -0.17402545 -0.00068223756 -0.1818547 -0.065567754 -0.38479158 -0.094097905 0.01462084 -0.015286789 -0.07107117 0.17714061 -0.021260362 0.0146370195 -0.0016587883 -0.022431482 0.103900425 0.14756255 -0.12039326 -0.02223677 -0.1175897 0.08034724 0.034684606 0.09106883 -0.10908071 0.05240532 0.23251127 -0.1944022
14 0.14140749 0.21155374 -0.043231405 0.26318407 -0.18049103 -0.103371546 0.08744566 -0.040162016 -0.087882884 -0.042625554 0.15613158 0.009520738 0.016245857 -0.18059178 0.20017222 0.30303115 -0.1450664 -0.13843374 -0.23266119 -0.18546353 0.10064062 -0.116788246 0.06129253 0.11088003 0.320487 -0.10540247 -0.03009896 0.08108752 -0.1269618 -0.102577254 -0.15895687 -0.17413102 -0.18218957 -0.08528957 0.27237052 -0.1288453 -0.037972484 -0.060445655 -0.15097913 -0.0118304575 -0.18572661 -0.052969534 -0.38486356 -0.08349139 0.013178818 -0.019473951 -0.058110707 0.17170097 -0.027500805 0.027438624 0.011353718 -0.022929389 0.11197801 0.17104226 -0.117102325 -0.028723449 -0.12731636 0.079052016 0.022359984 0.10215492 -0.12847388 0.046225764 0.21763979 -0.18417487
6 0.14020824 0.19577202 -0.032042205 0.2674613 -0.19341879 -0.11181191 0.099743955 -0.049611006 -0.08383936 -0.046755828 0.14902328 0.012304679 0.0020507597 -0.18560848 0.18541294 0.31732512 -0.13704057 -0.13946488 -0.23250528 -0.16637675 0.08730733 -0.111238696 0.05447481 0.10310944 0.33295417 -0.101492636 -0.014252565 0.08572175 -0.12860082 -0.10697715 -0.15657856 -0.15889964 -0.17111476 -0.07468376 0.28088114 -0.13973765 -0.042830717 -0.05762348 -0.15544264 -0.005055985 -0.19242406 -0.07073794 -0.3856712 -0.10682502 0.011687512 -0.014487892 -0.07113751 0.1801024 -0.013276562 0.024934392 0.0041208547 -0.022516947 0.10814763 0.15742208 -0.12310692 -0.025393311 -0.12198308 0.08993004 0.030829018 0.093569964 -0.11960363 0.067211114 0.22417924 -0.18898135
9 0.1454959 0.19699374 -0.03838228 0.2605781 -0.19360748 -0.114041895 0.09123258 -0.041640356 -0.08982212 -0.04912505 0.14789478 0.008381448 0.0035384074 -0.18666595 0.1936158 0.30075604 -0.14320816 -0.13451836 -0.22567639 -0.16644996 0.09865774 -0.10636073 0.052866634 0.11756115 0.32403135 -0.1009584 -0.021165298 0.075370215 -0.13806567 -0.09821133 -0.16376925 -0.16396931 -0.17861044 -0.07324392 0.27825046 -0.14044966 -0.037320968 -0.049875252 -0.17185748 -0.01326174 -0.19032393 -0.057520736 -0.38500786 -0.103499055 0.010399537 -0.022016874 -0.06258892 0.17433168 -0.028772127 0.014262424 -0.0030032028 -0.026032137 0.10725288 0.1561486 -0.112929314 -0.026246427 -0.12168294 0.0798427 0.031479124 0.09990394 -0.113325834 0.05871086 0.2273208 -0.18844438
10 0.14213173 0.20722665 -0.05297266 0.27421373 -0.18640533 -0.11606469 0.09116272 -0.053234946 -0.0858589 -0.037502144 0.1646004 0.009422662 0.012873204 -0.18748578 0.18267389 0.31514943 -0.14952837 -0.15084742 -0.22911651 -0.1756788 0.111208946 -0.1069858 0.052184526 0.11540205 0.3346419 -0.11014222 -0.03491016 0.081215255 -0.12433697 -0.09367586 -0.1635672 -0.1758416 -0.18897572 -0.08520311 0.29094145 -0.14140931 -0.040196057 -0.057322793 -0.1798887 -0.017980348 -0.19017537 -0.05958824 -0.39519975 -0.10473408 0.021667402 -0.018513726 -0.07446868 0.17452298 -0.022016449 0.011650687 -0.0038005263 -0.02732396 0.100535564 0.14873338 -0.124891356 -0.014216458 -0.11610913 0.06522923 0.030039372 0.10898649 -0.10745791 0.042517565 0.22544634 -0.18788654
13 0.13698529 0.2076931 -0.04259593 0.25410187 -0.18322477 -0.109345734 0.0892966 -0.03235343 -0.07945107 -0.03339541 0.14879085 -0.00080713583 0.012024685 -0.16143467 0.18293224 0.29679173 -0.13175677 -0.12863639 -0.21728921 -0.17642383 0.086542375 -0.10678328 0.061134294 0.10397058 0.29835024 -0.09801668 -0.030960655 0.0781534 -0.12734306 -0.10812127 -0.16299781 -0.1639215 -0.16762012 -0.090649575 0.26330924 -0.1332694 -0.048347645 -0.055686247 -0.15591115 -0.011665397 -0.1728114 -0.051779807 -0.36457127 -0.08693942 0.015741566 -0.016768593 -0.04943523 0.16014007 -0.019676112 0.031155316 0.011396268 -0.03214242 0.0971806 0.15422603 -0.103462175 -0.027871206 -0.11520312 0.07109237 0.0075406064 0.10584184 -0.116520874 0.04746389 0.20979959 -0.16270182
