20 64
0 9.522529e-05 -0.24977012 -0.07982869 -0.112483986 0.034810603 -0.0804847 -0.01638421 0.079710945 0.042005308 -0.10721239 -0.0069892146 -0.1564227 -0.10112495 -0.1824423 0.16877006 -0.0235546 -0.20657362 -0.17535824 -0.091697805 -0.05530956 -0.120090224 -0.056035794 -0.13379857 -0.12990627 0.10814781 0.16246134 -0.13983384 0.08467433 -0.14266743 0.23471385 0.19602007 0.04900141 -0.051457766 0.23818687 -0.005221157 -0.11882309 -0.030410107 -0.27292967 0.09098193 -0.07161479 0.1854777 -0.0025439612 0.0005462514 -0.08624734 0.21717048 0.13115637 0.07328936 -0.20265676 -0.22640665 -0.035233278 -0.07858622 0.017597679 0.36913565 -0.035884116 -0.020093428 -0.12719932 -0.025876516 0.2683736 -0.06294338 0.36594275 -0.0064557805 -0.10905782 -0.10619404 0.009067965
2 -0.010600989 -0.2573785 -0.061811093 -0.10510002 0.04413829 -0.08931961 -0.017151378 0.08940859 0.03885507 -0.115867175 -0.014216794 -0.16126777 -0.10586243 -0.16687828 0.1493834 -0.025324933 -0.2110617 -0.17331184 -0.09034192 -0.058362085 -0.12305422 -0.066135 -0.13868463 -0.12907045 0.10128823 0.13856505 -0.1400893 0.08469684 -0.14756627 0.23966812 0.19788535 0.05475821 -0.06355868 0.23157091 -0.025232825 -0.12329049 -0.03622904 -0.28483397 0.08950399 -0.07428049 0.19266278 0.0034127503 0.0019815923 -0.08451371 0.23358363 0.1337093 0.072165795 -0.2177392 -0.21530624 -0.018929401 -0.079909034 0.021352863 0.3622117 -0.03826088 -0.015879897 -0.10616514 -0.023297561 0.25848317 -0.057882015 0.3803766 -0.001042242 -0.08930554 -0.1234296 0.015920494
3 -0.0024950046 -0.25528306 -0.055687513 -0.10013594 0.039351303 -0.09556121 -0.021082686 0.096125096 0.045776326 -0.1021741 -0.008078823 -0.16733298 -0.09206794 -0.1497863 0.13657013 -0.04054863 -0.19133782 -0.15365851 -0.08791998 -0.06340092 -0.12166563 -0.0649846 -0.1356493 -0.13664727 0.09947281 0.1413401 -0.12311985 0.08900561 -0.13660845 0.24229406 0.19902375 0.041398 -0.054432906 0.21901542 -0.030336097 -0.11562694 -0.028977359 -0.26279873 0.0984294 -0.08335497 0.17811954 0.020795496 0.029812591 -0.07489761 0.21349552 0.13375218 0.071530074 -0.20776436 -0.19034468 -0.013981137 -0.056161765 0.039622582 0.34518874 -0.029088689 -0.008774528 -0.10863207 -0.017008865 0.24245384 -0.063533954 0.36290193 0.0032804636 -0.08224936 -0.10654013 -0.003539268
8 0.010590934 -0.2531864 -0.07498488 -0.12267783 0.033759013 -0.098876655 -0.011241442 0.089219585 0.04278619 -0.12694058 -0.0061594606 -0.17549512 -0.103002965 -0.17110804 0.15551122 -0.037614632 -0.19439103 -0.16540127 -0.10214115 -0.057625603 -0.11340381 -0.054876447 -0.13303342 -0.13126865 0.105392754 0.15491574 -0.14273661 0.09298727 -0.14493047 0.24510795 0.21039897 0.038314335 -0.0596157 0.23618725 -0.021971123 -0.1051262 -0.021382945 -0.26270077 0.08432388 -0.07153839 0.184568 0.02461703 0.023581091 -0.08059756 0.23069926 0.14220859 0.05566273 -0.22432525 -0.20391853 -0.03833458 -0.067634664 0.036971223 0.36275065 -0.03971181 -0.026950637 -0.119999304 -0.019822113 0.25729743 -0.07948721 0.36868232 -0.0070656813 -0.088298656 -0.10697795 0.005082274
4 -0.023931317 -0.24020046 -0.07516994 -0.0978463 0.031479202 -0.08199595 -0.0061146584 0.078097284 0.017396195 -0.096261956 -0.017922565 -0.16367365 -0.093282506 -0.16853452 0.15232353 -0.04141269 -0.20182145 -0.15771703 -0.07774574 -0.033821095 -0.11564252 -0.07036867 -0.13283099 -0.12890618 0.10353006 0.14073388 -0.14540355 0.06802811 -0.14678508 0.23923706 0.19475389 0.06385524 -0.033571623 0.22588469 -0.010487825 -0.110332094 -0.021373926 -0.25147587 0.10502526 -0.07933706 0.18774983 -0.002191101 0.010904543 -0.07250803 0.21966925 0.11381396 0.074052416 -0.19125302 -0.19709595 -0.022810455 -0.0718101 0.015339799 0.3521856 -0.023851536 -0.020811686 -0.10293226 -0.013622261 0.24353762 -0.055979732 0.35489902 0.005495783 -0.10926726 -0.09363645 0.0067013158
1 -0.017380523 -0.25099778 -0.066764764 -0.109645665 0.043290373 -0.08736986 -0.019666879 0.104063585 0.03458639 -0.11798275 -0.016038032 -0.15856954 -0.08214516 -0.15369113 0.15544406 -0.025146259 -0.21094134 -0.16832402 -0.09424476 -0.045401398 -0.110512555 -0.057061255 -0.12664272 -0.13215612 0.10521156 0.14139496 -0.14168218 0.069452845 -0.13202418 0.24139324 0.19728248 0.062070567 -0.052511666 0.23263985 -0.017449403 -0.11035165 -0.02294164 -0.2609411 0.09218434 -0.07706845 0.1888778 -0.0054190704 0.0054073827 -0.06993384 0.22481164 0.13816792 0.061553888 -0.21292466 -0.20566256 -0.031505592 -0.076112755 0.013352652 0.35427886 -0.029599622 -0.028864244 -0.11126291 -0.020803751 0.24469763 -0.06453648 0.36469808 0.0069823796 -0.09481786 -0.11288292 -0.0035909733
5 -0.010568452 -0.24973077 -0.06929071 -0.112294875 0.03836194 -0.087767996 -0.007987034 0.09249691 0.027112892 -0.10954391 -0.005100423 -0.14789276 -0.09401671 -0.15472893 0.16377272 -0.005576728 -0.20387441 -0.15619859 -0.07939679 -0.032912273 -0.12094816 -0.04945745 -0.13248284 -0.13686267 0.10840833 0.13995127 -0.13300177 0.077340074 -0.14446877 0.23070183 0.2014318 0.047961913 -0.05816526 0.23406978 -0.017546166 -0.11485804 -0.037905127 -0.27373436 0.08638012 -0.07049054 0.18107033 -0.00020975909 -0.012315495 -0.084783584 0.22753815 0.12551971 0.07114915 -0.20742409 -0.22005218 -0.019301087 -0.08361507 0.004300109 0.3574269 -0.034390733 -0.013924762 -0.11826963 -0.023575755 0.24156906 -0.06402793 0.3657067 0.0018020773 -0.092332505 -0.11840468 0.0056929826
15 -0.014695453 -0.26577953 -0.046643376 -0.10366298 0.034633197 -0.08821833 -0.013526665 0.098155156 0.045718838 -0.11963628 -0.007014568 -0.166895 -0.098103516 -0.1686507 0.14849713 -0.029862143 -0.19687077 -0.17346267 -0.08520285 -0.063714966 -0.11427101 -0.0726823 -0.13689743 -0.13998318 0.09826934 0.13917956 -0.12546797 0.08654229 -0.14748745 0.24641973 0.21012726 0.03694126 -0.041488837 0.22664042 -0.027356794 -0.115761615 -0.023388924 -0.28015268 0.10243701 -0.089173816 0.17361109 0.006774222 0.029439075 -0.07209558 0.21783659 0.14718954 0.07417876 -0.20175877 -0.20666635 -0.018172784 -0.051478364 0.036671564 0.3608505 -0.03833302 -0.020324467 -0.10688439 -0.024087638 0.2605997 -0.06114324 0.38015848 -0.0027828529 -0.09642716 -0.121564135 0.013972146
7 -0.0014348528 -0.24490136 -0.0865729 -0.11387832 0.024959613 -0.082852215 -0.01064768 0.08887462 0.03367684 -0.099066556 -0.006533144 -0.16805893 -0.100978896 -0.17780872 0.15876187 -0.023332998 -0.19803941 -0.15228699 -0.093465164 -0.042850435 -0.110046975 -0.05886498 -0.13247265 -0.12883678 0.105710275 0.15739574 -0.13262847 0.07944832 -0.14622843 0.2355086 0.19680776 0.049374703 -0.051060576 0.2287245 -0.011331547 -0.11302621 -0.03432037 -0.2540365 0.08227275 -0.07275822 0.17462596 0.0091703655 0.008640383 -0.08722639 0.21757223 0.12726536 0.06594287 -0.20957582 -0.21593389 -0.03925077 -0.07206821 0.019336373 0.3590029 -0.038459107 -0.029933065 -0.12388078 -0.016426248 0.25973558 -0.07391091 0.3580552 -0.008585858 -0.106197014 -0.101769306 0.003746926
9 -0.007318706 -0.24469537 -0.0733247 -0.113795035 0.029497404 -0.0878311 -0.010858762 0.10220402 0.037747484 -0.12141342 0.0014368019 -0.168052 -0.1015588 -0.17605086 0.15104538 -0.021531671 -0.21085328 -0.17445134 -0.09338571 -0.051048882 -0.11288729 -0.053289693 -0.12991984 -0.13586979 0.10272643 0.15025736 -0.1333902 0.08649655 -0.15352723 0.24510464 0.2124661 0.043599658 -0.06101263 0.23108102 -0.015135984 -0.11512193 -0.041041873 -0.28053513 0.08281237 -0.08267539 0.18340015 0.0109231165 0.0072055445 -0.089196354 0.22568531 0.1276603 0.062958725 -0.2201952 -0.21399148 -0.026404124 -0.08227819 0.028082237 0.3564622 -0.039236605 -0.027335528 -0.11451169 -0.028391909 0.26203197 -0.066676125 0.3677738 -0.0011557281 -0.09230194 -0.12545533 0.004676164
12 -0.0134786535 -0.23368219 -0.07666777 -0.112507924 0.044184286 -0.07734829 -0.002629851 0.0952949 0.02489246 -0.11233324 -0.0015527473 -0.1478951 -0.0984013 -0.17461784 0.17919517 -0.011279684 -0.21533212 -0.16498499 -0.090215005 -0.034896825 -0.10763276 -0.05315996 -0.11744994 -0.12553702 0.100611664 0.16017029 -0.14704433 0.06991398 -0.13014181 0.23463266 0.20543242 0.053245958 -0.055025924 0.23905773 -0.0012944215 -0.1053977 -0.04303343 -0.2761108 0.076341994 -0.07267868 0.17737252 -0.0008607416 -0.0179751 -0.08787241 0.2241681 0.12493779 0.05049097 -0.21799412 -0.2253784 -0.04866527 -0.08152361 0.0048051146 0.35798058 -0.037432186 -0.028657448 -0.114658125 -0.029092953 0.26318982 -0.0710534 0.3585489 0.003958817 -0.10401998 -0.121166915 0.01521049
13 -0.02054627 -0.2381625 -0.08290568 -0.11221991 0.022732498 -0.08895293 -0.00059615215 0.07701262 0.021819111 -0.08866593 -0.016846456 -0.17542656 -0.09817438 -0.1845307 0.15662472 -0.031376597 -0.19537875 -0.15472707 -0.08512629 -0.035355765 -0.11263007 -0.064122856 -0.12732568 -0.12805781 0.10767971 0.14496247 -0.1473528 0.07754776 -0.15419172 0.24452847 0.1962253 0.056911256 -0.039274823 0.23283629 -0.012244916 -0.1076437 -0.020218443 -0.2495226 0.10132687 -0.0736164 0.18450618 0.008389276 0.018773459 -0.07658337 0.21303658 0.118767165 0.06607767 -0.18872441 -0.20491889 -0.031418934 -0.07063982 0.017049445 0.36617935 -0.034240596 -0.03199895 -0.12518863 -0.01958106 0.26119748 -0.0743701 0.36205846 -0.01211758 -0.11593782 -0.094820775 0.007738882
17 0.0049782656 -0.2525105 -0.055419147 -0.11061792 0.028210765 -0.09496427 -0.009748678 0.1102355 0.048592336 -0.12817506 0.0027302513 -0.1606932 -0.099001504 -0.1477095 0.13887526 -0.025168968 -0.2031449 -0.16379133 -0.091824025 -0.05430972 -0.1231826 -0.046356138 -0.12972718 -0.13545957 0.09894763 0.15374833 -0.12265746 0.073809795 -0.13860478 0.22290517 0.19461666 0.03530316 -0.06504751 0.23477055 -0.022136902 -0.11527221 -0.031900182 -0.26043186 0.07561675 -0.07188544 0.17893447 0.022521768 0.00972009 -0.09141882 0.22508407 0.14474955 0.05912055 -0.21433148 -0.2024649 -0.027421683 -0.06572875 0.022275649 0.3444698 -0.023148146 -0.02008092 -0.11979648 -0.03231228 0.24054296 -0.05971906 0.36961356 0.003357225 -0.08013247 -0.1154917 -0.004551902
18 -0.010273549 -0.25996786 -0.06107612 -0.11951907 0.040785078 -0.09824135 -0.024014493 0.103010744 0.038536802 -0.11863689 -0.0020989513 -0.166938 -0.09963069 -0.15658377 0.1576101 -0.01344824 -0.21902812 -0.1668897 -0.0862971 -0.048208524 -0.11699249 -0.046914663 -0.12204502 -0.14542128 0.11111062 0.15788382 -0.13060386 0.07042449 -0.14290477 0.24587052 0.20645085 0.041466374 -0.066512555 0.23311338 -0.011152162 -0.110904306 -0.032774467 -0.28014743 0.09014008 -0.07512461 0.18815887 0.010777141 -0.0023189837 -0.0790975 0.23766153 0.14753246 0.06460302 -0.22157867 -0.2106909 -0.029517677 -0.0753405 0.017627966 0.35773313 -0.035819557 -0.023734227 -0.114183255 -0.024366185 0.25834563 -0.06276601 0.38174197 0.0077976263 -0.08854835 -0.12852979 0.012467778
6 -0.012371528 -0.24205998 -0.07640304 -0.111207314 0.03613732 -0.08238649 -0.01845916 0.08558668 0.032352656 -0.098431565 0.00391139 -0.14871985 -0.08532034 -0.1555319 0.16202115 -0.008058403 -0.20273465 -0.16070224 -0.084725745 -0.051567882 -0.11051996 -0.044463888 -0.11889164 -0.13518071 0.09450203 0.15340929 -0.12495313 0.08286046 -0.1258187 0.22124098 0.1955136 0.037936676 -0.05640233 0.23379374 -0.0098595135 -0.1149672 -0.03187043 -0.26515722 0.08726358 -0.06535673 0.17547601 0.0013419422 0.013690495 -0.08021097 0.20979999 0.12441223 0.07002549 -0.1998635 -0.20607877 -0.02827048 -0.06202888 0.025654128 0.34344697 -0.040990572 -0.019010313 -0.109904565 -0.01854928 0.23830447 -0.077618726 0.35557175 9.97834e-05 -0.09448812 -0.11308154 0.0048911073
19 -0.009970399 -0.26743928 -0.048195906 -0.09628818 0.034386713 -0.09821117 -0.0108467 0.0974633 0.03887071 -0.11846222 -0.0051204273 -0.177198 -0.09617409 -0.15290636 0.13200153 -0.051568046 -0.18574905 -0.15303233 -0.07599552 -0.0636164 -0.13042866 -0.07065212 -0.14312562 -0.13933527 0.1084086 0.13575625 -0.13673611 0.083518766 -0.15133077 0.24793062 0.19415839 0.03935136 -0.043399613 0.23095684 -0.028333617 -0.12305868 -0.022340108 -0.25689116 0.095029876 -0.08916749 0.18421103 0.027372144 0.03554878 -0.085195564 0.23318031 0.14547913 0.07597949 -0.21635967 -0.20065793 -0.014942983 -0.06804218 0.03647494 0.34008628 -0.016998868 -0.0050023133 -0.11952074 -0.023116652 0.23425725 -0.060504206 0.3729096 -0.004607458 -0.09238231 -0.09988128 0.0045568775
14 -0.01740431 -0.24106158 -0.08121247 -0.118728064 0.026998227 -0.08664408 0.004751406 0.07803145 0.024110664 -0.09852075 -0.007072936 -0.14857595 -0.10343095 -0.18471572 0.18088189 -0.015268758 -0.20992695 -0.16910568 -0.087471455 -0.036247585 -0.109778516 -0.06577573 -0.14385153 -0.12921825 0.10801348 0.1468836 -0.15047932 0.07951234 -0.14310479 0.2376715 0.19535051 0.054260965 -0.05811186 0.24055015 -0.0061633564 -0.11662983 -0.04312257 -0.28843114 0.07765349 -0.079852454 0.18754533 -0.009403126 -0.01325386 -0.09019915 0.22157212 0.12083787 0.06878319 -0.20652466 -0.23499458 -0.03610368 -0.07997333 0.01610261 0.37339383 -0.03750043 -0.022195319 -0.12590985 -0.019862786 0.27279556 -0.06489779 0.3694494 -0.0039284434 -0.11477176 -0.12017038 0.014599174
16 -0.021155668 -0.25127545 -0.08694005 -0.09693884 0.028639298 -0.08546062 -0.006376037 0.07940624 0.018863436 -0.090855785 -0.021581959 -0.17738923 -0.0917448 -0.18305324 0.16135432 -0.041016236 -0.20091438 -0.15105627 -0.07469197 -0.035322964 -0.11887314 -0.06740855 -0.14420936 -0.13312006 0.111396365 0.14750224 -0.15304781 0.08668234 -0.1563268 0.24716021 0.19965124 0.061142582 -0.042225763 0.22490308 -0.018304331 -0.11473408 -0.022064092 -0.26720497 0.10381316 -0.08730764 0.19552343 0.009865955 0.02056112 -0.07387761 0.2195576 0.11693486 0.081299685 -0.20087367 -0.21212828 -0.029530345 -0.071440384 0.019441864 0.3658751 -0.03614518 -0.024129387 -0.1241121 -0.0077311075 0.25693873 -0.069693044 0.3560696 -0.006751738 -0.1095165 -0.103553705 0.013353657
10 -0.024813121 -0.2447472 -0.066151865 -0.09870562 0.037058596 -0.089823864 -0.0005307153 0.09233627 0.02562631 -0.09652758 -0.0063153985 -0.16314004 -0.09886483 -0.17269808 0.15601619 -0.030748527 -0.20345183 -0.16742733 -0.07901486 -0.04423623 -0.10835446 -0.068827376 -0.13867189 -0.12693205 0.10678533 0.13537903 -0.14200845 0.076076776 -0.14663972 0.24387911 0.19597672 0.05815038 -0.05063785 0.2246817 -0.019320585 -0.120256744 -0.028441029 -0.26938242 0.08993771 -0.08426115 0.19103865 -0.0006945684 0.0010854077 -0.08271202 0.22658446 0.11581572 0.07468833 -0.20910083 -0.21684311 -0.024428343 -0.07465294 0.009541702 0.361741 -0.032674078 -0.025053464 -0.111557715 -0.020752693 0.26016974 -0.059127208 0.36911035 0.0026725647 -0.10750315 -0.10713669 0.009808404
11 -0.023645928 -0.25858903 -0.047900796 -0.0945675 0.033408593 -0.0872033 -0.017563364 0.08717785 0.034987375 -0.10165777 -0.008262919 -0.15840164 -0.10851539 -0.17431238 0.1633757 -0.033132896 -0.19551106 -0.17002805 -0.086331695 -0.052678864 -0.12065605 -0.06798897 -0.14181855 -0.13536525 0.099144705 0.14067976 -0.13308948 0.088708624 -0.14706075 0.24390665 0.19709441 0.040865988 -0.04179057 0.22401659 -0.030911682 -0.11836631 -0.032857016 -0.2786687 0.0907922 -0.090246685 0.18836181 0.0024035024 0.007923656 -0.0850728 0.23721416 0.12589362 0.07904304 -0.21520986 -0.21673779 -0.02105772 -0.069307424 0.026742011 0.3606475 -0.029667748 -0.008477121 -0.10657168 -0.029965831 0.2579308 -0.05133955 0.3758561 0.0009412679 -0.09271322 -0.122707255 0.010344298
