30 64
0 -0.08842653 -0.031295173 0.2608087 0.041768506 0.07942803 0.05386398 0.13227625 0.11454155 0.005210483 0.11736462 0.054802313 -0.04208787 0.33515337 0.14713609 -0.10612938 -0.0262354 0.018019442 -0.19027886 -0.13354222 0.110552035 0.25533772 0.05473304 0.086705014 0.16360731 -0.10522194 -0.09871101 -0.109001495 -0.15461986 -0.15846673 -0.06654553 -0.1140642 0.17564529 -0.03133384 0.23449202 0.12156883 0.14803843 0.059766214 0.03545441 -0.14242233 -0.06554619 -0.18974036 -0.12716511 0.09435863 -0.010712259 -0.03344954 0.31496128 0.0006194597 0.07325482 0.20140623 0.013085609 0.1317946 -0.016594186 -0.01191421 0.11361592 -0.04078052 -0.113214895 -0.10903968 0.11010942 0.044193484 -0.12153831 -0.08556807 -0.13087517 -0.14285289 -0.40043083
3 -0.09493336 -0.010078687 0.29764345 0.02880645 0.088201955 0.010875198 0.12242781 0.14372838 -0.00029622344 0.13537575 0.06552624 -0.07033043 0.3207782 0.14480814 -0.06867711 -0.026034007 -0.003099658 -0.18525316 -0.12270244 0.10449696 0.22630297 0.07198848 0.10881853 0.18375233 -0.09216248 -0.08084858 -0.12588847 -0.13117526 -0.13829608 -0.10426925 -0.091671064 0.19383998 0.028319564 0.27493495 0.097759664 0.14938524 0.064835 0.07710465 -0.1394367 -0.044258043 -0.165432 -0.10130811 0.09262179 -0.0065825046 -0.054690197 0.30769834 0.020840947 0.105929315 0.22482306 -0.010176063 0.10485309 -0.0261377 0.04282523 0.09742379 -0.02410413 -0.12777191 -0.101534516 0.11870724 0.04044735 -0.1172857 -0.059690237 -0.09064221 -0.12054418 -0.3938833
1 -0.090259984 -0.0059793517 0.28209817 0.033224113 0.08915718 0.019843604 0.11901963 0.12729314 0.0066826358 0.12261484 0.0499668 -0.049169734 0.31950885 0.14375088 -0.089470126 -0.037136495 0.011349124 -0.18152799 -0.12961273 0.09650744 0.23256639 0.06918314 0.10584147 0.17390867 -0.08918442 -0.085114576 -0.12704414 -0.15314233 -0.15275876 -0.081501596 -0.08798034 0.18491945 0.013834026 0.25202468 0.11221085 0.15143165 0.06594051 0.07713081 -0.13451931 -0.05567507 -0.1852475 -0.11475133 0.09028204 -0.031473923 -0.05145108 0.30603033 0.028678946 0.08789821 0.21508592 -0.0039803092 0.110396415 -0.02610653 0.044437267 0.10371465 -0.009590432 -0.111878954 -0.107780226 0.110716894 0.043898225 -0.12520805 -0.06571335 -0.112636514 -0.116909474 -0.39828297
2 -0.10844417 -0.018483901 0.31783268 0.038339388 0.0884365 0.030057982 0.08061795 0.21274489 -0.022083273 0.16019331 0.05879209 -0.05812871 0.33467093 0.13326475 -0.12193154 -0.0061315414 0.008817021 -0.1617442 -0.12990063 0.14380677 0.17786375 0.08729838 0.13619274 0.1633172 -0.04882837 -0.06967764 -0.14075714 -0.097636506 -0.11610452 -0.07078318 -0.10345781 0.16121283 0.05497949 0.30113629 0.095427185 0.13169234 0.05751491 0.066281214 -0.15311496 -0.015631538 -0.12057653 -0.108102664 0.101031676 0.06788598 -0.031989604 0.2766401 0.02918612 0.08405359 0.21757363 0.014511901 0.16942796 0.008823821 0.04133245 0.07862561 -0.006403453 -0.06801231 -0.10539916 0.09378564 0.07010696 -0.12565322 -0.053396184 -0.07645012 -0.10290106 -0.4276337
6 -0.13650116 -0.005255919 0.2811979 0.048614834 0.05885456 0.036492955 0.049057286 0.17753261 0.0041651935 0.11516141 0.0253933 -0.04746885 0.32405245 0.11734317 -0.1609406 0.013745552 0.027816676 -0.14007436 -0.11603604 0.1362885 0.21421967 0.063424796 0.12791763 0.14300244 -0.043324936 -0.09519017 -0.121462986 -0.11181691 -0.106237344 -0.060397048 -0.09181962 0.13117309 0.019579591 0.25435552 0.07658065 0.16154504 0.04284995 0.07173214 -0.14972706 -0.04729417 -0.14562266 -0.12634583 0.11593614 0.053767554 -0.02273771 0.29593766 0.022136495 0.056306712 0.20323339 0.033648346 0.19645521 0.010239295 0.030887995 0.067191154 0.012508426 -0.028699366 -0.12668286 0.094029956 0.091383174 -0.12317434 -0.057884548 -0.08652494 -0.13619226 -0.43920097
7 -0.0811093 -0.031547073 0.28658053 0.057978075 0.100535035 0.054952204 0.15451986 0.10032247 0.010107 0.14261244 0.06832292 -0.05358738 0.33528748 0.1579627 -0.06272716 -0.040673677 0.010243207 -0.20276581 -0.12608121 0.08993008 0.25257105 0.07437053 0.09139987 0.17012921 -0.11731478 -0.10578584 -0.118790396 -0.16601478 -0.15144017 -0.11722887 -0.102879636 0.20533143 -0.008698597 0.2678159 0.12426849 0.16353008 0.07239178 0.043901775 -0.12563568 -0.03132382 -0.19494621 -0.09401639 0.0899402 -0.03839122 -0.07117274 0.33805853 -0.008395501 0.09479501 0.20815071 -0.005499761 0.113386735 -0.031212507 -0.0071927714 0.10972765 -0.03910772 -0.151435 -0.09689659 0.12214306 0.039157372 -0.1009453 -0.0732647 -0.13421436 -0.14054161 -0.39759827
4 -0.10844163 -0.013049739 0.26249188 0.048416972 0.09149807 0.023208283 0.11641332 0.101870395 0.02534728 0.114676476 0.040255625 -0.07113246 0.33902 0.14948733 -0.06411222 -0.028901042 0.017493894 -0.18815015 -0.1233721 0.08165198 0.25892693 0.05084029 0.09339241 0.1660935 -0.08859975 -0.11250996 -0.10756623 -0.1534778 -0.13267122 -0.11239816 -0.113630675 0.20413241 0.0021281994 0.25869426 0.113710724 0.15913765 0.075436264 0.058052327 -0.13760242 -0.051926713 -0.17775272 -0.10154169 0.089504555 -0.026732484 -0.05831707 0.32515797 0.0079448 0.09378298 0.23118335 0.009430689 0.090273954 -0.01749877 0.008932988 0.09686765 -0.03784686 -0.13514633 -0.10457053 0.10518655 0.025155842 -0.12142856 -0.056165565 -0.1101925 -0.16712597 -0.40262237
9 -0.13823123 0.026489902 0.29287726 0.027003022 0.08524145 0.017950928 0.05710192 0.17029296 -0.014434675 0.1374479 0.038224477 -0.0959031 0.3401827 0.11120964 -0.06665287 0.026100937 0.025638284 -0.15157655 -0.08635195 0.119291954 0.18579118 0.09111638 0.14230269 0.185066 -0.055822015 -0.08413604 -0.13881733 -0.0901518 -0.057470325 -0.117588654 -0.08806829 0.1862028 0.030286282 0.29448754 0.08170735 0.17343555 0.019084208 0.07769382 -0.13821876 -0.013516373 -0.1550307 -0.058749586 0.09797302 0.05274345 -0.06658795 0.3281613 -0.009696139 0.08297311 0.21334134 0.016432546 0.14690618 -0.0106291035 0.01588092 0.025601067 0.014119765 -0.07246355 -0.11427084 0.08366136 0.075627275 -0.06843013 -0.05155843 -0.08395614 -0.15042596 -0.46699205
15 -0.10024856 -0.0029301133 0.29853296 0.030517828 0.07249017 0.016621409 0.08262558 0.1768154 0.011217773 0.13210472 0.05613813 -0.05471504 0.32215285 0.13114505 -0.12761423 -0.025010685 0.02940148 -0.17590809 -0.123968266 0.11494409 0.2337592 0.06503815 0.14460355 0.18504398 -0.08215078 -0.07963426 -0.16130595 -0.13290507 -0.13622741 -0.07825249 -0.10397467 0.16109754 0.053482454 0.28398612 0.07669915 0.14324199 0.06996868 0.116717055 -0.140304 -0.07566832 -0.15062964 -0.112744205 0.09823978 0.0119438525 -0.054123938 0.29954088 0.039376426 0.08872979 0.24955563 0.013510569 0.15181535 0.0054927715 0.08623479 0.101687305 0.02682909 -0.072137184 -0.10972829 0.12405521 0.08311291 -0.15278926 -0.039927352 -0.09617139 -0.10349113 -0.4093776
16 -0.098339416 -0.0032293901 0.28861508 0.022218838 0.10407512 0.019744912 0.08404274 0.17015079 -0.027611379 0.1636418 0.05910656 -0.08454977 0.33661106 0.117513135 -0.037425 0.014388991 -0.0058240374 -0.17382434 -0.09736379 0.10840044 0.16936773 0.10124782 0.1267934 0.18601936 -0.053820282 -0.074738 -0.14434034 -0.086773984 -0.09006091 -0.12721874 -0.10315187 0.20944314 0.036710314 0.2877192 0.088500164 0.13511686 0.030683829 0.05973193 -0.13544078 0.0020622653 -0.13251849 -0.06088833 0.09615009 0.02664245 -0.06904507 0.30574286 0.005629133 0.107630305 0.21095712 5.706111e-05 0.111538194 -0.020303061 0.017394926 0.056737095 -0.0096989935 -0.11814126 -0.10110599 0.07639841 0.03634123 -0.07095475 -0.07401757 -0.08874112 -0.11374324 -0.43733943
21 -0.1182249 0.0107525075 0.30267674 0.041418653 0.08516426 0.018080346 0.08979527 0.18421057 0.013758101 0.13099808 0.048607755 -0.053511735 0.3013724 0.13387021 -0.12540887 -0.024515882 0.016892305 -0.16758473 -0.11506957 0.113431714 0.19910146 0.06843157 0.12935589 0.16602993 -0.07679629 -0.073998235 -0.16079995 -0.13212737 -0.121684596 -0.086049184 -0.102277346 0.14541739 0.05574003 0.27647883 0.084366344 0.14093864 0.065897144 0.09083494 -0.13934967 -0.033505693 -0.14621024 -0.094622724 0.097289115 0.0178744 -0.043482646 0.29096735 0.040919885 0.08471218 0.22276002 0.0054144207 0.15677209 0.0054197037 0.07404267 0.08244413 0.014814366 -0.068541266 -0.124180295 0.11172136 0.07900742 -0.12904336 -0.03668982 -0.07782644 -0.106235616 -0.417529
23 -0.12369466 0.0011676492 0.28405306 0.00855331 0.100409664 0.033276964 0.08622245 0.14358278 -0.021571785 0.14426611 0.058539286 -0.13013807 0.3407045 0.120885216 -0.015782434 0.025199482 0.004068974 -0.17904532 -0.07849441 0.10680036 0.18233201 0.086576454 0.11515599 0.18724507 -0.07705738 -0.11374225 -0.10331772 -0.08225618 -0.09042089 -0.1424642 -0.09607134 0.23004127 0.01678632 0.27814022 0.0936188 0.16304415 0.019620555 0.028689317 -0.12498768 -0.001222992 -0.17149335 -0.0742043 0.109633274 0.024323218 -0.077182345 0.33876857 -0.03712296 0.099429674 0.20144057 0.0015354609 0.10914267 -0.03219958 -0.03192428 0.038569145 -0.03697757 -0.12508419 -0.095193304 0.06510723 0.020159636 -0.053975705 -0.08626246 -0.08098792 -0.17275405 -0.45590836
12 -0.12174363 -0.007055809 0.2645317 0.038462374 0.062050402 0.03368835 0.07973201 0.1375976 0.0010522599 0.10830071 0.043141555 -0.057621624 0.3385705 0.119280465 -0.116231196 0.005843199 0.021507164 -0.1701906 -0.11494383 0.12132999 0.20411824 0.05068074 0.10900438 0.16291702 -0.055491026 -0.09564285 -0.11811404 -0.107270956 -0.11261847 -0.058573116 -0.119965255 0.1497788 -0.006797342 0.2434906 0.09693933 0.16265163 0.026896128 0.05055477 -0.14874229 -0.040999003 -0.16289675 -0.1117133 0.11171684 0.04507126 -0.028787844 0.2873546 0.0040198932 0.063856766 0.21224858 0.0209387 0.1646056 -0.009129054 0.006522172 0.07722974 -0.019189896 -0.061262283 -0.11620494 0.07291871 0.060783844 -0.10517854 -0.07790323 -0.100678705 -0.1440715 -0.4347646
5 -0.11390845 -0.007736955 0.28497028 0.033670425 0.074254945 0.040595308 0.084988445 0.1665908 0.004149178 0.120858036 0.050666638 -0.043092795 0.3325234 0.13433068 -0.1249663 -0.016017722 0.024494633 -0.16627808 -0.120910406 0.1270006 0.2083578 0.06197676 0.12498837 0.1635506 -0.075603314 -0.079175115 -0.12710728 -0.11511042 -0.1168397 -0.06169557 -0.10171279 0.14283301 0.006264238 0.26601568 0.093941666 0.15307368 0.039655734 0.0656991 -0.13920127 -0.05099351 -0.15970112 -0.11227758 0.10098543 0.037803516 -0.04712776 0.29816455 0.014989028 0.07254171 0.2011105 0.023235418 0.17030747 0.005287173 0.02569409 0.06932751 -0.0033649718 -0.07150336 -0.112658426 0.096918896 0.080261156 -0.11676991 -0.057307094 -0.10732608 -0.10687603 -0.41744298
27 -0.11625018 0.0336015 0.2902394 0.02511027 0.08165905 0.0028343345 0.071149886 0.1387239 0.022556325 0.14092353 0.024914363 -0.08783838 0.3218785 0.14106417 -0.04768518 -0.019578587 0.01519872 -0.16120996 -0.10545817 0.09534952 0.21298318 0.075919524 0.13412821 0.16342543 -0.04459664 -0.08047628 -0.15345415 -0.11415378 -0.08523018 -0.12548779 -0.086071774 0.20309453 0.047295924 0.28578022 0.08150337 0.16276945 0.041639846 0.09650583 -0.13172169 -0.025832893 -0.15677947 -0.06700501 0.09340861 0.0041205646 -0.077232145 0.31249195 0.012562381 0.105840385 0.23575102 0.011723041 0.10547212 -0.009830468 0.05200792 0.04913087 0.019344872 -0.09620193 -0.101484545 0.094377235 0.062170412 -0.096473426 -0.041260585 -0.07489559 -0.14133579 -0.4422604
10 -0.12971325 0.019613983 0.30818757 0.037740905 0.09478781 0.03439943 0.054767117 0.20347235 0.0029269615 0.1465318 0.039174393 -0.06916243 0.34226707 0.11945302 -0.099051595 0.01097098 0.024760384 -0.16201793 -0.10782133 0.12650493 0.16794685 0.08779553 0.1514689 0.17015566 -0.036497105 -0.07248289 -0.16138963 -0.0882759 -0.08315538 -0.075244084 -0.117668964 0.15272062 0.050199635 0.29329252 0.07999608 0.14119583 0.031685166 0.08239542 -0.15618297 -0.016294573 -0.11856372 -0.08598176 0.10411566 0.07242232 -0.0443292 0.2935632 0.02691988 0.09439775 0.22216758 0.0076137604 0.17129081 0.010223689 0.055097304 0.050828446 0.022056088 -0.060474407 -0.11589409 0.0794151 0.09194546 -0.097975805 -0.050646007 -0.08298803 -0.10103696 -0.44736725
29 -0.10198797 -0.0123635 0.28037244 0.051002707 0.08698529 0.038237333 0.12294541 0.1482193 0.0101928385 0.114131175 0.048137046 -0.023430502 0.32513502 0.13385639 -0.109238245 -0.03549056 0.0071185236 -0.18827051 -0.12750828 0.10645255 0.21685247 0.06388444 0.11536781 0.17795204 -0.09995766 -0.074854635 -0.1409173 -0.14520599 -0.14016858 -0.06453495 -0.123237975 0.12963353 0.00947724 0.25321916 0.09728913 0.14362948 0.042535886 0.06338575 -0.13007513 -0.05792313 -0.15164295 -0.09873125 0.10158467 0.0038723107 -0.030924544 0.27821836 0.02885185 0.09195776 0.2121885 -0.0054167854 0.15682857 -0.011079559 0.04823962 0.094926156 -0.01887884 -0.09529782 -0.10449665 0.09577392 0.0653094 -0.12335246 -0.057655863 -0.12556383 -0.10370175 -0.40135178
8 -0.083040334 -0.04246331 0.26561436 0.055691686 0.0809775 0.051621262 0.1663998 0.08808156 -0.0011889691 0.098404326 0.06581996 -0.008159187 0.31791645 0.16529703 -0.104470335 -0.04820363 -0.00083612907 -0.19831753 -0.14826842 0.099855535 0.26767278 0.052549887 0.0869176 0.14434037 -0.12920013 -0.0907479 -0.115508676 -0.1748069 -0.191467 -0.06370784 -0.100401886 0.14993973 -0.02778254 0.23428434 0.11127557 0.15657353 0.061947547 0.04138963 -0.12536469 -0.060933184 -0.2030574 -0.1354322 0.10093028 -0.040866327 -0.035433546 0.3016894 0.015132755 0.07116765 0.20331478 -0.002877816 0.13665439 -0.03000952 0.0073736724 0.117640495 -0.04173157 -0.11333729 -0.09446542 0.12071612 0.047083206 -0.1331296 -0.084430344 -0.13692193 -0.1178952 -0.37508667
26 -0.13297738 0.042376712 0.3109624 0.009496495 0.09683798 0.014978675 0.05775072 0.17798182 -0.018738095 0.1756244 0.050637417 -0.15059829 0.35798877 0.10132985 0.00014044216 0.034752835 -0.007569075 -0.17774765 -0.055919513 0.101634584 0.14125532 0.08678362 0.14232275 0.19162294 -0.012771617 -0.09520047 -0.14796586 -0.05385371 -0.031365152 -0.14116421 -0.10279507 0.240519 0.061921287 0.3185722 0.09003055 0.16152684 -0.003384848 0.059926514 -0.13973184 0.012793996 -0.12572917 -0.034115557 0.103781015 0.07413187 -0.092147514 0.31789464 -0.037346147 0.12454847 0.21767691 0.012214786 0.10588843 -0.022786256 -0.0041723303 0.015730008 0.007145698 -0.1230977 -0.09790198 0.052141264 0.042755663 -0.04077223 -0.06074972 -0.058363102 -0.14809157 -0.47356775
13 -0.09921499 -0.01832539 0.29417148 0.031254906 0.098711334 0.035780206 0.120296784 0.14754298 -0.0017045116 0.13866708 0.056366593 -0.052510846 0.32168895 0.14801675 -0.08593103 -0.02183087 -0.00038912438 -0.18006022 -0.12152345 0.122467645 0.20988683 0.07849973 0.12241303 0.16328965 -0.077012725 -0.07897025 -0.13443464 -0.12260958 -0.13940053 -0.09894839 -0.09573043 0.1742882 0.017491167 0.2745165 0.10285075 0.13605061 0.062207825 0.061798695 -0.13516559 -0.030333946 -0.15653823 -0.10787412 0.09707673 0.007404493 -0.05184975 0.3030792 0.02121416 0.08801133 0.20651846 -0.002757259 0.13460678 -0.020136552 0.013243623 0.08521788 -0.017607126 -0.111880295 -0.098153554 0.10400663 0.0473627 -0.11115554 -0.074159764 -0.109815836 -0.108297706 -0.42199853
11 -0.11102402 -8.700993e-05 0.2560877 0.035486545 0.073603 0.037278417 0.088677384 0.12767078 0.018497564 0.104343176 0.048071317 -0.044628568 0.32201856 0.14254376 -0.1111407 -0.026889553 0.023696484 -0.16393204 -0.1221197 0.114929706 0.22048917 0.04417243 0.1058124 0.15635942 -0.0719515 -0.08058313 -0.12751034 -0.13631842 -0.13690363 -0.053373788 -0.12173807 0.14204828 -0.006797905 0.23724869 0.09959166 0.15674497 0.04654064 0.060782306 -0.14759794 -0.055580903 -0.15791857 -0.11062597 0.10889583 0.027591543 -0.024186838 0.2929127 0.00788343 0.07497063 0.219171 0.0258505 0.14483593 -0.006445257 0.023147384 0.07549532 -0.0124226175 -0.067191355 -0.104458906 0.09727746 0.056931634 -0.13022916 -0.054530542 -0.107779436 -0.1476251 -0.41458446
24 -0.124976136 -0.007850002 0.2568916 0.013827968 0.08618589 0.03510497 0.10893516 0.12485832 -0.020413632 0.12658791 0.05972044 -0.09700411 0.35794437 0.12242778 -0.03256432 0.019653743 0.008872053 -0.18477547 -0.0765826 0.101843864 0.18192303 0.06987107 0.092998564 0.1798512 -0.080432475 -0.0998221 -0.11006992 -0.110033624 -0.09383554 -0.099486254 -0.12998992 0.1889445 -0.016417947 0.26468435 0.1023735 0.17617309 0.014620546 0.02857442 -0.12696457 -0.022803316 -0.17910565 -0.06873451 0.10873749 0.028778018 -0.054150105 0.3036242 -0.03929354 0.093334466 0.18457967 6.55848e-05 0.121454395 -0.027527416 -0.03997159 0.058762174 -0.039402194 -0.11375034 -0.10193101 0.06795353 0.023933979 -0.054347575 -0.09336479 -0.11887449 -0.16687718 -0.4472674
17 -0.12157553 0.0013642438 0.27304915 0.02143953 0.08810648 0.02510857 0.10645291 0.124479234 -0.002991539 0.13255902 0.040685315 -0.080834426 0.34182826 0.13030669 -0.04656607 -0.012668723 -0.0040765465 -0.18556662 -0.111467175 0.10204711 0.20767495 0.06369699 0.107354075 0.16110787 -0.064893395 -0.0923902 -0.116788134 -0.11619031 -0.11904202 -0.1058187 -0.10944682 0.20118189 0.0044779475 0.26347724 0.10820583 0.14943385 0.040432386 0.047075555 -0.13619457 -0.021917624 -0.16833346 -0.09062839 0.09906869 0.014007759 -0.05339854 0.30046228 -0.012868177 0.094686955 0.21107261 0.006313792 0.105512165 -0.02046731 -0.008013968 0.06411311 -0.029442938 -0.12433411 -0.09148692 0.074802 0.019447088 -0.09355834 -0.073084295 -0.088409185 -0.15458517 -0.42880684
28 -0.11886091 0.019398836 0.24980222 0.033070453 0.06461357 0.019003281 0.10739077 0.0769293 0.04014735 0.08909872 0.036761854 -0.06864333 0.3137587 0.15045911 -0.082796365 -0.039246846 0.024464538 -0.18950905 -0.10482874 0.093787044 0.25504538 0.04182361 0.095075876 0.15755233 -0.085056186 -0.1049152 -0.13680547 -0.14865664 -0.121689305 -0.08525403 -0.11690156 0.16333674 -0.0014409416 0.22420144 0.079265974 0.18235402 0.046114326 0.077973604 -0.12134066 -0.06597816 -0.1865679 -0.10676649 0.111950114 -0.010945494 -0.03981095 0.30464342 0.0049492638 0.08833244 0.23914288 0.00818773 0.122555636 -0.026737852 0.03376199 0.092373274 -0.008206656 -0.090057574 -0.08747487 0.09748326 0.04679697 -0.117682725 -0.058296777 -0.1089338 -0.1687572 -0.4133034
25 -0.10937806 0.010292894 0.31277356 0.025176639 0.09515686 0.025965104 0.07903545 0.21373306 0.025896892 0.15598746 0.022094706 -0.027552739 0.31425098 0.12982616 -0.13262543 -0.027893066 0.026614293 -0.15943852 -0.10906496 0.13989392 0.17969969 0.08046423 0.1443927 0.16512085 -0.049821623 -0.06632343 -0.17350969 -0.10997224 -0.11928381 -0.056576572 -0.100345135 0.12830795 0.04875035 0.28146112 0.09397682 0.12504701 0.06998426 0.10212305 -0.14363463 -0.044565897 -0.11194642 -0.09817312 0.10416811 0.05300093 -0.033434875 0.25837272 0.05178911 0.100469 0.21007647 0.006871432 0.15140383 0.0053780526 0.089335606 0.08236282 0.024746543 -0.060557786 -0.11447078 0.10060415 0.08981863 -0.120015845 -0.040181763 -0.08452646 -0.06232402 -0.42373297
19 -0.10460318 0.0058218725 0.3023544 0.013131493 0.102177955 0.01078455 0.091522254 0.16118139 -0.010142623 0.16479969 0.0610662 -0.10429793 0.33827618 0.12319913 -0.035535704 0.011076792 -0.009301909 -0.17903006 -0.09101495 0.101347685 0.16599375 0.0795031 0.13480265 0.18443076 -0.042636294 -0.08246727 -0.13466828 -0.09297364 -0.08445409 -0.10489358 -0.09584729 0.2049586 0.0418866 0.2991648 0.10390443 0.1457059 0.03533756 0.06569681 -0.14130463 -0.010642554 -0.12884805 -0.06975883 0.08893131 0.04769075 -0.062434316 0.30381998 -0.010947203 0.109675765 0.19990355 -0.00046752667 0.10593645 -0.0268971 0.014283514 0.059469216 -0.011544509 -0.12023752 -0.090323105 0.09236639 0.033001967 -0.08065123 -0.061926402 -0.069722325 -0.12817508 -0.423757
18 -0.10549306 0.0077077528 0.3108292 0.0228661 0.096036464 0.009306931 0.09161854 0.19393301 0.020197263 0.1593342 0.030233048 -0.043325167 0.29311973 0.15194826 -0.10688412 -0.037781727 0.0049984828 -0.15127616 -0.11761969 0.12799767 0.19550808 0.07662042 0.13666718 0.14315905 -0.062458813 -0.06882315 -0.15942268 -0.12625733 -0.12251619 -0.09918098 -0.074823976 0.15587252 0.06603128 0.28951582 0.08723276 0.11261865 0.08126217 0.09817372 -0.14070548 -0.023683941 -0.117687136 -0.09382699 0.09925558 0.02313488 -0.05152052 0.2704061 0.056200936 0.099362254 0.2189172 -0.0060889325 0.13216673 0.0020557295 0.081183866 0.072263695 0.01406209 -0.08010813 -0.10252395 0.1072039 0.07275518 -0.1321258 -0.035364084 -0.06279841 -0.08447932 -0.41283748
22 -0.09369251 -0.034279235 0.2662862 0.040019006 0.09044424 0.04581274 0.15204807 0.0997986 0.0055338577 0.11278737 0.05086151 -0.029104602 0.31352055 0.15487553 -0.09264357 -0.037450813 0.0027950516 -0.19230022 -0.13816807 0.10555385 0.25535065 0.06282924 0.07539408 0.15476115 -0.11565951 -0.09745379 -0.11685362 -0.1711037 -0.16601346 -0.085046135 -0.11544816 0.15198308 -0.0102991965 0.23921803 0.10616754 0.16009004 0.056790933 0.04199764 -0.11812411 -0.04467765 -0.19567999 -0.11536433 0.10873419 -0.025063306 -0.030975232 0.29805106 0.001633458 0.08381786 0.21117981 -0.009270331 0.12933014 -0.019735757 0.0025398072 0.11499346 -0.043168847 -0.10575278 -0.098914795 0.10211173 0.03891396 -0.113688685 -0.08196437 -0.13023962 -0.14849503 -0.39495656
14 -0.110819764 -0.006451671 0.24881971 0.032909308 0.07375647 0.04242939 0.1238042 0.09234966 0.01798046 0.09805224 0.045361146 -0.05801977 0.3184743 0.14950635 -0.07644613 -0.024548281 0.010719779 -0.18841457 -0.11154677 0.10780169 0.23692527 0.042441882 0.08691353 0.14922473 -0.09371637 -0.099869385 -0.11620412 -0.13702443 -0.13889135 -0.072256796 -0.10776802 0.1629292 -0.016406938 0.22397731 0.095058724 0.17217198 0.04210103 0.047467213 -0.12510186 -0.056023978 -0.19363385 -0.11091351 0.10949275 -0.0031336222 -0.04597387 0.29212025 -0.0027869702 0.07381417 0.2042842 0.0019559027 0.13976298 -0.016732736 -0.005137482 0.07740087 -0.02804292 -0.08973457 -0.088124834 0.083052166 0.04243839 -0.10807959 -0.07899601 -0.11435191 -0.16056593 -0.41324204
20 -0.10872972 -0.009423612 0.26072773 0.043528795 0.064225346 0.041897886 0.08574741 0.14577891 0.0100335805 0.11514451 0.04142994 -0.039328173 0.3181298 0.13799876 -0.12068281 -0.01310505 0.023864526 -0.15790692 -0.12388916 0.12135125 0.21373935 0.05667474 0.10907318 0.15051895 -0.079334386 -0.07957017 -0.12005015 -0.13250832 -0.12351961 -0.070945725 -0.11041966 0.13356142 -0.002687969 0.2468731 0.09571392 0.14790867 0.040445033 0.05515831 -0.13971277 -0.04453432 -0.1635285 -0.10133077 0.10987759 0.030783664 -0.028231198 0.28531352 0.0035334155 0.05945428 0.20002376 0.01647091 0.16909878 0.008314651 0.015758142 0.06472575 0.00048599002 -0.06475592 -0.10147947 0.098254755 0.072374694 -0.12051358 -0.05459852 -0.102976255 -0.12617086 -0.41309276
