15 64
2 -0.17145854 -0.06426349 0.0017054133 0.030603452 -0.12488534 -0.016874146 -0.39232448 0.04152986 0.14081539 -0.12752858 -0.006006269 0.120771736 -0.15654543 -0.18470249 -0.09107567 0.046872087 -0.009097612 0.06910415 -0.015534112 0.024191912 -0.22235517 0.13705286 -0.1337724 -0.017470894 -0.08955642 -0.07240545 -0.25042638 -0.00054676447 -0.05604362 0.120536625 -0.21974258 -0.017748754 0.16719534 0.033489324 -0.3416604 -0.17719643 0.07748843 -0.0045498325 -0.26550043 0.0023410544 0.2496138 -0.0499521 0.020227833 -0.16224162 -0.08103909 -0.053439405 0.09533373 -0.014164929 -0.27327693 -0.06439857 -0.1137535 -0.1443933 -0.08258232 -0.019608831 0.079745926 0.0030394404 -0.06537214 0.29949784 -0.32932144 0.09745901 -0.039983958 -0.1201295 -0.015423003 -0.13857128
7 -0.17032473 -0.05312268 -0.008415531 0.022848155 -0.12471402 -0.023005791 -0.38741085 0.034094386 0.12891966 -0.12895079 0.013322831 0.13054214 -0.16345157 -0.189142 -0.096677504 0.05316237 -0.013004799 0.08340206 -0.03178406 0.025079846 -0.23668386 0.1569779 -0.15191421 -0.0073891818 -0.10494418 -0.06861516 -0.24720551 -0.019879606 -0.058665995 0.13332234 -0.22065099 0.007717185 0.16004534 0.056951243 -0.3601512 -0.1858809 0.07810483 -0.02248547 -0.2729667 0.010411208 0.28259552 -0.039754435 0.030456642 -0.1550389 -0.0866965 -0.06660739 0.11534698 -0.0076286197 -0.27721494 -0.071709126 -0.10224124 -0.16169809 -0.106330685 -0.014869893 0.07361777 -0.014940652 -0.071288794 0.3050463 -0.32503197 0.11274901 -0.038279735 -0.1313923 -0.00119636 -0.15540144
1 -0.16953436 -0.06235209 0.001553553 0.019168766 -0.11756617 -0.023537936 -0.39606076 0.027551739 0.14659432 -0.11933211 0.00422807 0.1378882 -0.16369505 -0.1966668 -0.089795366 0.03907749 -0.020698965 0.07584236 -0.026937082 0.012710285 -0.22388892 0.1570392 -0.15116343 -0.014435598 -0.10528293 -0.074842535 -0.2559243 -0.0107364245 -0.05735515 0.13347773 -0.22670743 -0.01325778 0.17584203 0.040947977 -0.34718585 -0.17814055 0.084561326 -0.006175385 -0.2768122 -0.0053083487 0.254026 -0.03469149 0.027466757 -0.16128606 -0.074530706 -0.059064083 0.10578696 -0.009337053 -0.26496026 -0.07362358 -0.10976235 -0.13626854 -0.0919985 -0.027425794 0.08360212 0.0029023527 -0.060393166 0.30915293 -0.33430302 0.1000836 -0.041595582 -0.12054554 -0.00957593 -0.15758249
0 -0.16012385 -0.04946808 -0.0011409249 0.020329487 -0.12322011 -0.02653005 -0.3835162 0.029700486 0.14359823 -0.11905942 -0.004086954 0.13260555 -0.16694295 -0.18218273 -0.07859611 0.04500773 -0.006090791 0.07741783 -0.032298766 0.017708538 -0.22356796 0.15319306 -0.1478199 -0.01356947 -0.10706303 -0.069533825 -0.2586785 -0.015312545 -0.06640626 0.1361508 -0.20815633 0.0011049729 0.17074114 0.05413428 -0.3528049 -0.16865684 0.08548185 -0.025027582 -0.26475385 -0.005145802 0.2697581 -0.036300197 0.034071118 -0.14865887 -0.07497458 -0.07075952 0.103064016 -0.012590679 -0.27320647 -0.058925364 -0.10657613 -0.15284666 -0.10219689 -0.020471148 0.07994044 -0.0123592755 -0.07472008 0.30705974 -0.31776834 0.10862472 -0.02657745 -0.118493155 -0.0055248076 -0.15011637
3 -0.15520525 -0.047100365 -0.0051176357 0.02386526 -0.1169533 -0.029968651 -0.38969386 0.034096345 0.1286016 -0.12875997 0.012517358 0.1332457 -0.15967573 -0.18916619 -0.08670206 0.051502604 -0.015235987 0.08341727 -0.030341951 0.026569935 -0.22409335 0.15336677 -0.14676332 -0.0020691133 -0.10569105 -0.07238011 -0.2530068 -0.017293567 -0.06970473 0.13002823 -0.2223312 0.008936349 0.17354356 0.05480804 -0.3472754 -0.16606979 0.072265804 -0.01580723 -0.27081612 0.0036375064 0.27003056 -0.046741605 0.0322017 -0.15648949 -0.074430406 -0.06330533 0.10619725 -0.018461376 -0.2710498 -0.06501484 -0.09848041 -0.13614507 -0.10477886 -0.020057615 0.08100328 -0.0035937 -0.07201498 0.2966222 -0.3265413 0.10770199 -0.03747814 -0.12958388 0.0015433457 -0.1553556
5 -0.17422631 -0.05564483 0.002420342 0.028536273 -0.11610155 -0.02470036 -0.40095657 0.035209022 0.14627846 -0.12914704 -0.002170283 0.13712615 -0.16918725 -0.18641756 -0.08692359 0.052620303 -0.019662207 0.08288435 -0.023657985 0.022902733 -0.21957427 0.1487354 -0.14896019 -0.011882066 -0.09818612 -0.06799749 -0.25757268 -0.0022985707 -0.06271382 0.12553255 -0.23328812 -0.0020394204 0.17501488 0.03929085 -0.34706086 -0.17001148 0.080131434 -0.010302678 -0.27931505 -0.00064861565 0.26260278 -0.049520597 0.028295884 -0.1564963 -0.08484553 -0.059530318 0.10382878 -0.009618316 -0.26970667 -0.062001556 -0.11904584 -0.147214 -0.091515295 -0.021082124 0.09334803 -0.004338046 -0.06933411 0.30764294 -0.32943484 0.10782386 -0.036635563 -0.13160555 -0.011963101 -0.15395632
8 -0.15792644 -0.060504876 0.0029451842 0.023390062 -0.11617794 -0.021576209 -0.38335854 0.030525694 0.12114988 -0.13028136 0.0118382685 0.13226949 -0.1646796 -0.18949774 -0.08960968 0.04995589 -0.014748048 0.06861847 -0.020702498 0.031175142 -0.22652285 0.13917534 -0.14285162 -0.010719326 -0.105808854 -0.070025414 -0.25191703 -0.013769061 -0.07056776 0.13237458 -0.20880063 -0.007225568 0.15155646 0.039141063 -0.3443333 -0.17245634 0.08033712 -0.021826211 -0.26522925 0.0058302265 0.269052 -0.036153063 0.02773761 -0.15829779 -0.074324 -0.07087888 0.109416716 -0.009291338 -0.26153117 -0.06508825 -0.098473504 -0.15046275 -0.10150069 -0.022576854 0.07659235 -0.01031405 -0.060902707 0.28113148 -0.30815724 0.10231132 -0.035133652 -0.11867665 -0.0075773294 -0.15004504
6 -0.16536105 -0.04758245 0.007793584 0.02648614 -0.1180859 -0.025736557 -0.3920743 0.040349018 0.13207725 -0.13002102 -0.0033270728 0.13048598 -0.16058905 -0.17723264 -0.08703515 0.039169405 -0.007419726 0.076812 -0.031083515 0.027761739 -0.21420603 0.15249792 -0.14485073 -0.0025735286 -0.095693015 -0.06423182 -0.24320115 -0.013198284 -0.059974115 0.12233676 -0.21268892 -0.0052328524 0.16819859 0.043888934 -0.32941905 -0.1649393 0.06993926 -0.013278864 -0.26636174 -0.005071256 0.25974187 -0.036353044 0.026171712 -0.14975646 -0.0691116 -0.058334146 0.104197145 -0.022570258 -0.27245843 -0.05992323 -0.11358482 -0.14342603 -0.101209894 -0.009845669 0.09268361 -0.0035847656 -0.07703274 0.30005807 -0.31966254 0.097230196 -0.035894677 -0.12072277 0.0010072663 -0.14075813
4 -0.1654982 -0.061221376 0.0033257564 0.03258795 -0.11374571 -0.030659292 -0.39223167 0.03984699 0.14017358 -0.121751964 0.006563717 0.12846433 -0.16141716 -0.1874811 -0.079673775 0.03723994 -0.016201602 0.07959798 -0.028096955 0.018648395 -0.2220867 0.14451744 -0.14993463 -0.01140234 -0.10053158 -0.056053918 -0.24892247 -0.008398369 -0.06757263 0.12828493 -0.2145095 -0.013781371 0.16577064 0.04015973 -0.32874742 -0.16643982 0.07430441 -0.022399805 -0.27058798 0.00992528 0.2665302 -0.04042558 0.018133646 -0.14517479 -0.07577262 -0.054038804 0.100179665 -0.005612368 -0.27585992 -0.06387382 -0.10604997 -0.13187933 -0.0985219 -0.019571016 0.093321666 -0.011458134 -0.061482888 0.29987386 -0.3171613 0.09441588 -0.028763754 -0.11231081 -0.008083374 -0.15033178
9 -0.16042031 -0.04838511 -0.0038702737 0.022850383 -0.11348352 -0.0282477 -0.37940446 0.027363189 0.14060314 -0.12447164 -0.0012175229 0.11926644 -0.16330193 -0.18866013 -0.08983717 0.038663816 -0.022122942 0.084890254 -0.019114887 0.025924725 -0.21938016 0.14520775 -0.13912398 -0.022219704 -0.10164278 -0.0744915 -0.2437676 -0.020400893 -0.057418488 0.1278514 -0.20946561 0.00052436837 0.16170096 0.048395675 -0.3370288 -0.17718117 0.0799483 -0.0057532224 -0.2618148 -0.006228702 0.25692207 -0.036853377 0.030458178 -0.1556804 -0.068753764 -0.054985773 0.10162753 -0.012427009 -0.25138804 -0.07171733 -0.09939999 -0.1471193 -0.093917534 -0.027494464 0.07205726 -0.013536956 -0.067299634 0.29334953 -0.3127314 0.09314276 -0.03185052 -0.11624527 -0.0047569913 -0.15345085
11 -0.17162646 -0.049715035 -0.006908193 0.02850941 -0.11479166 -0.028132234 -0.38949737 0.029932607 0.13156494 -0.12308159 0.005303459 0.12584835 -0.16814023 -0.18320093 -0.0978659 0.053443346 -0.016931536 0.08454416 -0.024708474 0.030542327 -0.22471371 0.15889004 -0.14261733 -0.01804322 -0.09947242 -0.0757887 -0.2463343 -0.017985985 -0.07046823 0.13763112 -0.21357098 0.0038938853 0.15840183 0.040119566 -0.352701 -0.18219171 0.07094222 -0.018641477 -0.26007897 0.004940559 0.2742376 -0.032533824 0.039842296 -0.15957609 -0.08794063 -0.073638715 0.107678846 -0.021009248 -0.2757207 -0.06304193 -0.10780833 -0.15908563 -0.091818675 -0.015751049 0.07838244 -0.005829273 -0.07235304 0.29343948 -0.3313343 0.11026362 -0.037471104 -0.13417941 -0.010120926 -0.14215189
10 -0.1545298 -0.05677691 -0.0074341325 0.018686121 -0.11793802 -0.021557497 -0.376585 0.027636424 0.14233372 -0.12491158 0.006350473 0.13458139 -0.16839181 -0.19054908 -0.09564128 0.041528758 -0.013003686 0.072207116 -0.020542432 0.01580233 -0.22710893 0.15206811 -0.14832379 -0.014416884 -0.10030294 -0.06926059 -0.25293788 -0.019577777 -0.068562984 0.137063 -0.21637721 -0.009269986 0.16590661 0.04547928 -0.34616107 -0.17593579 0.07876337 -0.02251639 -0.2680159 0.0004582835 0.26281613 -0.03378003 0.034074392 -0.14218879 -0.083091445 -0.07207787 0.110793054 -0.021661403 -0.26843184 -0.057053983 -0.106094785 -0.14022097 -0.09383726 -0.014295962 0.07897999 -0.016008569 -0.07109343 0.2963828 -0.326488 0.10270417 -0.030857556 -0.12749335 -0.010835212 -0.1478257
13 -0.16245338 -0.04919678 0.009537651 0.03448346 -0.11728996 -0.020632891 -0.38090554 0.038449634 0.13772033 -0.1258816 -9.513976e-05 0.1325126 -0.15008591 -0.18144003 -0.08263385 0.04937132 -0.014595624 0.08384518 -0.026881365 0.023620991 -0.21787265 0.14566492 -0.14093673 -0.018007321 -0.08561505 -0.060609896 -0.24441959 -0.012616389 -0.055017505 0.12554942 -0.21375415 -0.0022912398 0.17082517 0.04638225 -0.34035322 -0.17384624 0.07553388 -0.016677616 -0.25105038 -0.011153323 0.24562657 -0.035718862 0.03428966 -0.15343268 -0.0811358 -0.05974695 0.10555342 -0.020901605 -0.2586378 -0.0573279 -0.1119788 -0.14706445 -0.087920666 -0.015973106 0.0905923 0.0013758676 -0.07301095 0.29911435 -0.31960014 0.10124044 -0.036184583 -0.12729667 0.0008726792 -0.14230816
12 -0.16794027 -0.05290638 0.007255446 0.025464488 -0.109677814 -0.019440344 -0.3885029 0.03257782 0.13879612 -0.12841703 -0.0004228883 0.12044142 -0.14922714 -0.18896675 -0.09519867 0.044500962 -0.011777451 0.08212846 -0.032979324 0.022582747 -0.21908778 0.14414175 -0.14868097 -0.0160708 -0.09554797 -0.07022887 -0.24328902 -0.006839426 -0.06246974 0.12193073 -0.22475933 -0.011733444 0.16978286 0.040044434 -0.33718023 -0.17241402 0.076636285 -0.008230611 -0.2608864 -0.0025869566 0.24671045 -0.04230947 0.015811797 -0.14824787 -0.079632536 -0.058001895 0.09678787 -0.017685574 -0.26904047 -0.07460351 -0.112609334 -0.13772006 -0.0916937 -0.018856961 0.08338223 -0.0074568437 -0.06859515 0.30145064 -0.3241059 0.10295897 -0.0371607 -0.12744193 -0.0022902845 -0.15097718
14 -0.15824434 -0.049155634 -0.009077787 0.024954917 -0.11798256 -0.017556649 -0.38276517 0.025192808 0.13451448 -0.12196575 0.00762288 0.12697814 -0.1647928 -0.18040968 -0.09119754 0.055125874 -0.0074294517 0.086522155 -0.031534266 0.017131366 -0.23274252 0.15612946 -0.14766107 -0.01750673 -0.10314382 -0.076362915 -0.24727741 -0.00885237 -0.058061972 0.1307966 -0.208686 -0.006556493 0.17095721 0.053261038 -0.35276246 -0.18056574 0.08424997 -0.016691437 -0.27049258 0.002851252 0.2594694 -0.0388675 0.03344937 -0.15400524 -0.077670716 -0.070153445 0.11028159 -0.01905387 -0.2674661 -0.07392529 -0.09692938 -0.15265031 -0.103860624 -0.018704804 0.07718005 -0.00715695 -0.06939963 0.30562317 -0.32067883 0.10155502 -0.03178556 -0.12344695 -0.011299078 -0.15142432
