50 64
8 -0.30456415 0.09059387 -0.1537305 0.13259266 0.14882389 -0.01068041 0.10939275 0.10717045 -0.10457302 -0.1023663 -0.17205721 -0.13731004 0.052212134 0.024985842 -0.19311596 0.057917383 0.16683409 -0.050414477 0.19900088 -0.20755415 0.015568712 0.18863156 -0.011198655 0.035350658 -0.13146986 0.047742534 0.13109343 0.14909884 0.032692898 0.18411615 -0.092584975 0.072533324 -0.12535879 0.18165825 -0.028946534 0.064998284 -0.10220776 -0.27722418 0.039270446 -0.03378212 0.09509313 0.027131954 -0.28922847 0.29042748 -0.013972352 0.34203506 -0.2839153 -0.1949836 -0.11596338 -0.029988462 0.20562176 0.05273704 0.16300014 0.048265252 0.014463819 -0.07590118 -0.06306356 -0.17543 -0.1808104 -0.009835382 0.034647636 0.17950276 0.17444748 -0.1776156
6 -0.1748542 0.1272108 -0.031348247 -0.041837033 0.025387406 -0.122233585 0.03202306 0.12976606 -0.26271576 -0.16272108 -0.20989768 0.05945152 -0.0012560987 0.16374673 -0.25654772 -0.10083273 0.12748264 0.13976136 0.11408802 -0.116477534 -0.08160865 0.18449892 -0.0853015 0.08501713 -0.023641378 0.25955066 0.19905975 0.09029075 -0.033185914 0.14413904 -0.022038585 0.1193356 -0.0076112007 0.12979232 0.105282225 0.20848526 0.11966129 -0.32427353 -0.06675037 -0.1106433 0.13046415 0.018630702 -0.29928797 -0.001435694 0.046306577 0.30886757 -0.35805723 -0.13046567 -0.26401433 -0.019739911 -0.029054124 0.13972433 0.12750272 -0.08103937 0.00040229253 -0.10359345 0.002809163 -0.13384207 -0.43196297 -0.17206721 -0.024228834 -0.007913776 0.055966575 -0.21585193
1 -0.2861495 0.074067004 0.062778234 -0.04635138 0.21628976 -0.06356071 -0.027031215 0.03262788 -0.23878884 -0.2655561 -0.15050223 0.007759171 -0.054544143 -0.07968734 -0.168584 -0.16873439 0.31351084 0.014374967 0.22864835 -0.11909959 -0.17946185 0.17518345 0.0232392 -0.0777793 0.022990432 0.22369444 0.05629332 0.0012451842 0.08413574 0.083547056 -0.028157981 -0.14401977 -0.20267034 -0.03889397 0.023835836 0.12042912 0.16414367 -0.16960292 0.11773982 -0.059911765 -0.0098399585 -0.07467011 -0.120371476 0.07108074 0.008951657 0.31397268 -0.34063593 -0.24192241 -0.18106811 0.025703255 -0.00340037 0.10806896 -0.17041498 0.017169738 0.096690364 -0.16896285 0.085406914 -0.1803373 -0.18442799 -0.18422829 0.03219211 0.057478994 0.06527815 -0.0631906
5 -0.26612684 0.31223708 -0.10947938 0.083492026 0.27272883 -0.086503536 0.0077912603 -0.013253008 -0.2045779 -0.114620104 0.04944226 0.049822178 0.11472686 0.07151492 -0.15414204 -0.1719769 0.26646194 -0.21992025 0.19437233 -0.12767723 -0.10177595 0.29683724 0.032140534 -0.08762766 0.09192697 0.12773149 0.16755244 0.05712272 0.053402014 0.08637138 -0.03595103 -0.07181451 -0.25181037 -0.1639315 0.09838394 0.048764892 -0.11810579 -0.100573756 0.1731999 -0.28205556 0.19485822 0.016499665 -0.22474268 0.11580108 0.09422287 0.073336475 -0.40889335 -0.1956449 -0.050763417 -0.0070537594 0.14401303 0.1775061 -0.039277796 0.16743223 0.023230031 -0.056655496 0.25010696 -0.18443662 -0.20694137 -0.28822258 0.015716255 0.27021894 0.19317761 0.054227583
0 -0.20818402 0.22048773 0.03675723 -0.024973275 0.23122434 -0.1349695 -0.054793026 0.0039637997 -0.17926274 -0.19473429 -0.13072073 0.12887403 0.053682625 0.07012878 -0.14823431 -0.1398503 0.20682928 -0.016029004 0.15864031 -0.07014877 -0.053856153 0.21814351 -0.04096388 -0.09933636 -0.0062847827 0.24215502 0.15662454 0.05189684 0.005522342 0.15973857 0.08243101 -0.06837978 -0.13947226 -0.091890685 0.06708038 0.13343279 0.028516142 -0.17332289 0.10382496 -0.18207195 0.087060645 -0.05663097 -0.23571604 0.09086933 0.028944058 0.10916975 -0.42464426 -0.20130688 -0.2201372 0.07473836 -0.055403296 0.1300883 -0.021436527 0.045348756 0.011563254 -0.056322612 0.12448333 -0.14669228 -0.32806262 -0.24508405 -0.013011252 0.08277702 0.13321245 -0.13653381
2 -0.26760995 0.14563188 0.062758245 -0.11717866 0.21599239 -0.055788696 -0.08635414 -0.0050376547 -0.27213347 -0.25523877 -0.16147457 0.0023182898 -0.17311887 -0.03818105 -0.25077823 -0.17995846 0.41811955 0.09268255 0.3205004 -0.1472224 -0.19228272 0.14704135 0.07845417 -0.13727322 0.10911058 0.15205584 0.042826638 -0.06679464 0.2924158 0.16321298 -0.1197543 -0.2178891 -0.11337662 -0.044058304 -0.01284373 0.087689936 0.14920989 -0.15299194 0.12973331 -0.08573756 -0.062093563 -0.13834332 -0.03248243 0.0631745 0.043872163 0.24145892 -0.4188217 -0.33632708 -0.12294463 -0.11499376 0.06146848 0.15370895 -0.16605458 0.06860669 0.20248362 -0.17281976 0.18366434 -0.15622464 -0.08493158 -0.06902749 -0.019222418 0.08947974 0.06509364 -0.028112771
3 -0.2723258 0.10468489 0.09881225 -0.11602301 0.31337863 -0.0828969 -0.07331371 0.01799079 -0.1497183 -0.2541513 -0.3083962 0.02995726 -0.05373462 -0.023173913 -0.17432493 -0.0421752 0.20090407 0.18908884 0.23075624 -0.09182957 0.012734153 0.116372675 -0.06571336 -0.15910573 -0.08154454 0.13869822 0.08865229 0.06456031 0.13323444 0.2900324 0.116781645 -0.13035734 -0.0405989 0.023436703 -0.09834244 0.10894522 0.086088814 -0.20172644 0.10166865 -0.059795737 -0.093660295 -0.17407201 -0.22289833 0.19743836 -0.05594788 0.14515643 -0.38977176 -0.31675726 -0.25000727 0.13554755 -0.07897986 -0.017906105 -0.03108351 -0.009988962 0.08058556 -0.113594264 0.0108602755 -0.1814954 -0.2037858 0.0074158856 0.019481584 -0.028529672 0.16061065 -0.24870732
12 -0.29965106 0.09443223 -0.037088074 0.0218418 0.24528617 -0.04069296 0.18831855 0.23870946 -0.2664745 -0.33139825 -0.24107087 -0.20242648 0.35557848 -0.0626303 -0.041389823 -0.15280426 0.06989129 0.1276284 -0.1579587 -0.20870486 -0.11981647 0.010492036 -0.07813873 0.10532281 -0.14537115 0.32517564 0.0026256253 0.18291666 -0.049914338 0.108608484 0.114393085 -0.02900899 -0.1192854 0.0050607678 -0.29126814 0.09438879 0.12316365 -0.3301792 0.119275205 0.037292432 0.09313755 -0.030478865 -0.25958318 -0.0113130305 0.17839235 0.16013469 -0.2654532 -0.008773113 -0.33442825 0.25362256 -0.035195515 0.04181851 -0.020413866 0.06602848 0.06379896 -0.09603177 0.09156781 -0.1628199 -0.15305345 -0.36262196 0.1236785 -0.17634758 -0.033964526 -0.2457471
10 -0.33323357 0.10854475 -0.13329138 0.029122652 0.28373045 -0.005167577 0.08153501 0.11139959 -0.23443075 -0.1743393 -0.107727736 -0.22520114 0.069393665 -0.07621021 -0.24658619 0.012485677 0.18841776 0.04079543 0.33305198 -0.32859367 -0.027494619 0.1365735 0.036130928 -0.12922513 0.061674863 -0.041163392 0.06802976 0.112563975 0.16160306 0.108185515 -0.068069756 -0.11437512 -0.09161922 0.040255204 -0.086780086 -0.028603274 -0.056292534 -0.08687425 0.1269542 -0.14494054 0.055754732 0.02867704 -0.20301548 0.2669349 -0.122848175 0.2685974 -0.31873944 -0.26818183 -0.05707513 0.05965558 0.24800766 -0.008910459 0.014731676 0.05989654 0.077243805 -0.09416007 0.07796183 -0.24004543 0.022155613 0.008973576 -0.04586218 0.16113563 0.1989605 -0.044394918
13 -0.4006041 0.024467165 -0.1422348 0.15341868 0.2571633 0.040303223 0.09257008 0.10815182 -0.14945026 -0.1498672 -0.19167471 -0.26420724 -0.03001098 -0.07506983 -0.2013482 0.06357726 0.17665926 0.040359806 0.31996706 -0.2533126 -0.0029408436 0.06944536 0.13724165 -0.027407937 -0.11846128 -0.0036317096 0.0038384786 0.0675574 0.13615093 0.21075779 -0.11629511 -0.06807348 -0.11595019 0.15546283 -0.17689994 -0.032229453 -0.030722205 -0.19001707 0.13806511 0.08538883 0.004332651 0.011543351 -0.1253601 0.3503819 -0.07973674 0.42667103 -0.26480418 -0.2538704 -0.13130568 -0.05470455 0.30516818 -0.01785832 0.06682874 0.108377315 0.113209985 -0.16004336 -0.032957397 -0.16753238 0.01936744 0.08230519 0.058329664 0.19167793 0.12531006 -0.1206011
28 -0.3568271 0.085222125 -0.25439274 0.11018768 0.056283623 0.080618866 0.16782743 0.15521276 -0.24261622 -0.1351329 -0.13427605 -0.12790285 -0.08199537 0.029534873 -0.34368464 0.09411079 0.18667443 0.005904004 0.34529838 -0.38364616 -0.031390876 0.12467308 0.16109373 0.11904844 -0.07675204 -0.0035346155 0.17639317 0.096222185 0.053138863 0.17678277 -0.33894446 0.1274641 0.052555904 0.26466894 -0.09306584 0.06567901 -0.06299811 -0.2802431 -0.032677665 0.0034606077 0.19753057 0.22432125 -0.15350991 0.29096267 -0.04394668 0.56487405 -0.22865513 -0.1681923 -0.08737743 -0.22702803 0.39667544 0.020587591 0.23768957 -0.024393216 0.0027974045 -0.1539539 -0.1025029 -0.16942935 -0.09405603 0.037245616 0.020128869 0.2272954 0.10778233 -0.08565001
20 -0.23205867 0.18445195 -0.11896677 -0.031429145 0.0035770356 -0.04276387 0.1028149 0.1293524 -0.32958058 -0.12683824 -0.14586987 0.15552332 -0.005942397 0.1348847 -0.23149733 -0.14215982 0.20606865 0.023243781 0.16956212 -0.16504003 -0.27354148 0.15071288 0.14237922 0.2481998 0.0012674899 0.29381424 0.1640786 0.029346416 -0.10892404 0.101083994 -0.2547677 0.09802856 -0.07668982 0.063446246 -0.0047502425 0.16358423 0.114788406 -0.42121395 -0.04783803 0.0050124666 0.17875189 0.086596884 -0.15738268 -0.048456047 0.14491569 0.43462572 -0.24364482 -0.068684615 -0.24047884 -0.22178863 0.10741321 0.17158815 0.12431645 -0.06938992 0.020899277 -0.10449223 0.026699299 -0.123693444 -0.3057004 -0.34894675 0.087697804 0.09057989 -0.01980851 -0.11136718
19 -0.26107252 0.38659105 -0.16788559 -0.014549229 0.35046116 -0.050843533 0.012909066 -0.037516456 -0.2650435 -0.041232217 0.07149481 0.16480745 0.163923 0.024377415 -0.2545389 -0.11282205 0.24002413 -0.30808303 0.33391756 -0.17929913 -0.16475427 0.31572008 0.120936304 -0.11040526 0.18197125 0.02699786 0.17018966 0.028441666 0.018633138 0.04528918 -0.10381193 -0.114043176 -0.22856708 -0.2806999 0.057588298 -0.0015913653 -0.16011323 -0.07084141 0.17908752 -0.30170465 0.24828441 0.03105765 -0.16427207 0.13434345 0.08780374 0.08391314 -0.35578114 -0.22505347 -0.022937518 -0.037197735 0.23908482 0.116892986 0.048368063 0.077705085 -0.00668414 0.0015665999 0.28972113 -0.23809108 -0.077187814 -0.34192082 0.037587628 0.32197687 0.25951147 0.16491538
4 -0.2707299 0.0649424 0.12510549 -0.18422423 0.20929398 -0.1287933 -0.017305445 0.0493524 -0.23355292 -0.32227412 -0.31768134 0.1111996 0.03327776 -0.04689032 -0.090013064 -0.20968597 0.24059658 0.20489773 0.09981227 -0.049481716 -0.15845709 0.06219822 -0.024274606 -0.02845508 -0.09463799 0.36646482 0.04290204 0.018737156 -0.000378115 0.17815633 0.08832483 -0.10465985 -0.1121957 -0.042382944 -0.11805888 0.17458911 0.2611908 -0.3068999 0.056093078 0.03165571 -0.13750595 -0.17954685 -0.1562635 -0.0021719255 0.028189646 0.22907174 -0.32070836 -0.20313692 -0.34085378 0.1648087 -0.21336018 0.052338522 -0.1550432 -0.07423793 0.086139366 -0.12599978 0.015620609 -0.17026836 -0.26842746 -0.2660432 0.047282264 -0.18572602 -0.003452424 -0.24058227
22 -0.32569316 0.09549624 -0.17087556 0.113191165 0.10861929 0.013019272 0.29489985 0.30708113 -0.32018703 -0.23825909 -0.19726141 -0.1912596 0.3440516 0.027840285 -0.09419871 -0.15333302 0.026486387 0.06659735 -0.12604958 -0.23725918 -0.20936696 0.017297255 0.046709128 0.2962419 -0.1511708 0.31559584 0.0064473874 0.16718736 -0.1373858 0.0109060155 -0.03923751 0.111034095 -0.11851527 0.053056993 -0.23767324 0.10004945 0.133267 -0.41634357 0.06314144 0.10214471 0.21891591 0.08201989 -0.25360718 -0.048288543 0.21206275 0.36059356 -0.1967012 0.09974401 -0.34515965 0.06875544 0.10054756 0.096948594 0.11494447 0.045034997 0.0693402 -0.090575986 0.06599987 -0.1381677 -0.20228176 -0.4371285 0.13852753 -0.104972444 -0.0876021 -0.16404437
9 -0.10735676 0.25986415 -0.011663854 -0.0614506 0.12777242 -0.18921168 -0.04805941 0.072537266 -0.24572863 -0.13002433 -0.13094333 0.13630381 0.044931494 0.18495476 -0.2406879 -0.16964106 0.13033254 0.097541705 0.103421584 -0.056817364 -0.02932575 0.26232308 -0.16130656 -0.07161845 0.07060078 0.25237715 0.25888717 0.10036759 -0.00017894461 0.16511543 0.11687727 0.03604233 -0.06495976 -0.00671863 0.18921188 0.17524214 0.02729935 -0.1639149 0.016993674 -0.3395089 0.1797055 -0.004941951 -0.3269289 0.0019870459 0.005083145 0.038277928 -0.5103626 -0.14676897 -0.20210786 0.067665964 -0.09587732 0.17410801 0.061575998 -0.004738672 -0.026084844 -0.055298608 0.15276706 -0.10065067 -0.4723906 -0.21563238 -0.09602842 0.04102542 0.12716755 -0.18793885
14 -0.34897748 0.16502391 -0.079612 -0.09822737 0.38665232 -0.052696873 0.14512074 0.07540619 -0.23508076 -0.2300908 -0.15275341 -0.091555156 0.34098998 -0.13368663 -0.061597466 -0.115667485 0.12860434 0.023064787 0.06701771 -0.18111074 -0.07271216 0.10893136 -0.04015191 -0.13249762 -0.0010981334 0.10772247 0.005557459 0.15350872 0.018698862 0.07483216 0.1119186 -0.13080445 -0.21566786 -0.13478908 -0.26180863 -0.02464565 -0.003178682 -0.19670177 0.19347975 -0.13145004 -0.03183937 -0.15654385 -0.2466379 0.115725584 0.03925269 0.022571508 -0.25936508 -0.19685754 -0.1917191 0.30497718 -0.027804859 -0.046544384 -0.104871154 0.09121672 0.05807106 -0.042922832 0.116104886 -0.29761267 0.022277424 -0.26826835 0.08431976 -0.06925171 0.1491044 -0.07448101
16 -0.47616017 0.046064936 -0.06643964 -0.14139327 0.41916883 -0.0051778266 0.2186115 0.06822948 -0.18791874 -0.30217138 -0.28921276 -0.14986823 0.29376084 -0.23515601 -0.027106237 -0.035595905 0.13139345 0.11834521 0.08875245 -0.23864362 -0.019620774 -0.022610985 0.018860731 -0.1186339 -0.1891799 0.10552731 -0.0889952 0.112514794 0.011790965 0.14864706 0.085329674 -0.1013781 -0.1428927 0.0090020755 -0.4223985 -0.03944507 0.10131609 -0.32281226 0.16966763 0.111303315 -0.21467727 -0.2183377 -0.22445033 0.210624 -0.016768916 0.18402043 -0.15115957 -0.2902353 -0.27268386 0.32224077 -0.0337724 -0.13660972 -0.072331406 0.038077734 0.059407417 -0.08934469 -0.06506824 -0.34808132 0.085030265 -0.16199106 0.10888056 -0.16887353 0.14573695 -0.16879088
23 -0.1532583 0.36072853 -0.17492999 0.10615424 0.17674533 -0.17080724 0.115119636 0.14427698 -0.28429288 -0.10966634 0.0015506038 -0.0154051 0.37021294 0.2082737 -0.13375711 -0.27062178 0.051214382 -0.17336877 -0.09398605 -0.11528585 -0.055227675 0.27548274 -0.12354048 0.022932727 0.035542805 0.3131166 0.21884592 0.14220142 -0.06468775 -0.0034229693 0.13149108 0.107666 -0.22192799 -0.14094414 0.1773076 0.08771877 -0.095164366 -0.13979761 0.10554182 -0.3574677 0.37790447 0.06882766 -0.3703739 -0.062289525 0.19076583 0.009736262 -0.50032175 0.0048213303 -0.20251973 0.12937458 0.019736536 0.25194988 0.14036736 0.1317386 -0.04772729 -0.009828623 0.32679793 -0.09337746 -0.40106335 -0.5023905 -0.036310047 0.10257248 0.12650073 -0.05739895
15 -0.32982606 0.22319257 -0.01690047 -0.15522365 0.41729635 -0.102790475 -0.033619586 0.0034605586 -0.2097941 -0.15430932 -0.19852626 0.056189615 0.09565223 0.008996196 -0.20687205 -0.070444144 0.17357023 0.10094231 0.27009892 -0.07461245 -0.043749187 0.116432466 -0.012504942 -0.1885128 0.076371 -0.006538831 0.08135707 0.05695313 0.1776701 0.20352721 0.12207933 -0.20621131 -0.12292544 -0.17697942 -0.10992597 -0.03296372 -0.013893222 -0.11540474 0.19482133 -0.18831027 -0.05748935 -0.21284167 -0.18949385 0.16739556 -0.026817294 -0.027000537 -0.43908963 -0.3572515 -0.17965509 0.16567487 -0.013545724 -0.031217098 -0.03376777 0.06944994 0.13914594 -0.061860707 0.17452136 -0.2608534 -0.07582334 -0.09684995 0.038751423 0.07258691 0.273452 -0.049948797
45 -0.48468933 0.043728292 -0.15669546 -0.005823087 0.36587128 0.04832625 0.25239584 0.13413179 -0.19296496 -0.29676446 -0.2267636 -0.44081593 0.25401127 -0.28089112 -0.085940905 0.019873163 0.18620646 0.13211386 0.14999072 -0.4307634 0.08045017 0.017011251 0.025640737 -0.14974402 -0.14432152 -0.02635454 -0.113471806 0.16718914 0.16567299 0.16906361 -0.035499785 -0.09849142 -0.091623925 0.16026108 -0.4532662 -0.05356159 -0.021812694 -0.24061728 0.17731172 0.05393053 -0.15814245 -0.06621566 -0.2563684 0.35865656 -0.06727989 0.26130983 -0.17280403 -0.29520306 -0.113604665 0.2515165 0.16917054 -0.16434886 -0.070898525 0.117116064 0.092915684 -0.10917075 -0.065049134 -0.34257722 0.22580986 0.0334859 0.036718767 -0.047442842 0.11097126 -0.15527123
39 -0.2765792 0.1352346 -0.23704816 0.16540435 0.022191789 0.033982232 0.25450447 0.27327973 -0.22492275 -0.12970941 -0.15685302 -0.13726807 0.21136014 0.12555787 -0.22923598 0.042240273 0.05822336 -0.030323083 0.02798038 -0.30545303 -0.06585757 0.10998417 0.019066496 0.2857302 -0.16603607 0.12721781 0.15543894 0.16272852 -0.13275129 0.107263535 -0.19882612 0.20564078 0.0015937351 0.19481918 -0.1225529 0.117343985 -0.07326151 -0.40661976 -0.022878945 0.022651082 0.31522554 0.19330402 -0.2944087 0.13710563 0.15967672 0.40720883 -0.22137535 0.031062454 -0.21302837 -0.094414696 0.2446289 0.08146419 0.318238 0.0064483173 0.0012392863 -0.07267078 -0.038601197 -0.1444509 -0.22900642 -0.20013222 0.09957691 0.10352077 0.03904765 -0.18169883
30 -0.36455598 -0.031386636 -0.057461005 0.08124071 0.19648834 0.025690412 -0.0031941824 0.07439271 -0.14297667 -0.2151751 -0.17257476 -0.28866863 -0.17033708 -0.101729155 -0.25196704 0.03339217 0.31508538 0.15140161 0.43649343 -0.29678774 -0.0124177225 0.096641585 0.08157556 -0.13151103 0.0030465217 -0.044717174 -0.008762208 0.048351772 0.28016037 0.15862612 -0.11069624 -0.16962658 -0.08802958 0.177968 -0.043808933 -0.00011375031 0.04987377 -0.100997075 0.15645508 0.018048862 -0.087630525 -0.032813966 -0.12569611 0.3520508 -0.18099125 0.43932015 -0.3419226 -0.3474647 -0.07422931 -0.06637674 0.25379485 0.019966075 -0.07554202 0.079498425 0.18482597 -0.16360044 0.0029398862 -0.19528548 0.009105873 0.19807707 -0.088764794 0.18856761 0.12556325 -0.110894985
34 -0.43479088 0.024810692 -0.24836291 0.13596113 0.12549628 0.083731145 0.2537893 0.16673759 -0.21635479 -0.19420116 -0.13733567 -0.39928877 0.07737725 -0.074466966 -0.25700855 0.08975036 0.19445005 0.10592245 0.26671043 -0.45136762 0.0759259 0.0895002 0.029541342 -0.003316631 -0.075472414 -0.09623294 0.037697032 0.13132808 0.12345883 0.11762463 -0.21267816 0.063325785 -0.01716581 0.3179798 -0.20836633 0.00015066846 -0.030839112 -0.26866236 0.058890425 0.023019573 0.036689628 0.092270985 -0.24696283 0.34151992 -0.064713605 0.49163347 -0.18911855 -0.25112066 -0.08797333 -0.0071194977 0.31511843 -0.06523137 0.10621909 0.07635943 0.07931414 -0.16232936 -0.09743173 -0.2892238 0.06374078 0.1288647 -0.02433996 0.10081798 0.10435934 -0.111221485
17 -0.38513497 0.0958087 -0.04716409 0.042575564 0.40621358 -0.058972504 -0.0083601475 0.037096944 -0.11385728 -0.1646741 -0.16498104 -0.2789814 0.019463617 0.008549129 -0.21500671 0.008308718 0.2452499 0.15126614 0.37437236 -0.1758315 0.17122291 0.13638298 -0.08717579 -0.3069041 0.053806026 -0.20249878 0.040516127 0.10663648 0.37024423 0.20458655 0.15476908 -0.20058115 -0.13476095 0.021351572 -0.00049332855 -0.08135406 -0.08365052 -0.021426182 0.24168952 -0.18732549 -0.13634424 -0.20978631 -0.29704896 0.39045018 -0.1537751 0.05770215 -0.50798225 -0.46394318 -0.070775144 0.17517273 0.105290376 -0.050848857 -0.06100396 0.1622641 0.2313056 -0.08701657 0.13690005 -0.29349294 -0.022148615 0.20333834 -0.07427345 0.14595124 0.30550787 -0.088771746
32 -0.35640872 -0.058021028 0.07323566 -0.10339239 0.37912756 -0.00036262907 0.18258749 0.16604814 -0.19283159 -0.453997 -0.3897664 -0.20855437 0.3340814 -0.2916053 0.018046305 -0.04467123 0.13299094 0.1959257 -0.04257412 -0.2665934 -0.06673958 0.010609816 -0.11472244 -0.07863375 -0.24355064 0.2965282 -0.11267926 0.22528237 -0.05701471 0.13067883 0.19824049 -0.12716389 -0.16473089 0.05964978 -0.46323594 0.10341692 0.1831727 -0.3532276 0.16241583 0.106710635 -0.15239792 -0.20903851 -0.285532 0.15209977 -0.0034703482 0.20997842 -0.16534473 -0.15764593 -0.37584975 0.46004915 -0.19112955 -0.08926557 -0.16402821 -0.031242648 0.022571592 -0.09912543 -0.0684785 -0.30267143 0.0049012853 -0.21528962 0.12541215 -0.3541749 -0.008426485 -0.3342095
26 -0.16424823 0.24302632 -0.20942436 0.19077261 0.09390094 -0.09056056 0.22270101 0.28878924 -0.27351335 -0.16573237 -0.06369107 -0.119836055 0.4496632 0.1803189 -0.1255591 -0.16447848 0.008758664 -0.09954203 -0.23792383 -0.20248419 -0.094629034 0.17930102 -0.14553395 0.20627359 -0.07487023 0.33753198 0.20278068 0.22871162 -0.1720808 0.029859988 0.038001508 0.18890476 -0.15124884 0.037417997 -0.032557443 0.13894857 -0.10192183 -0.3220104 0.024814177 -0.20317852 0.44298536 0.14889862 -0.3773674 -0.036912017 0.2710205 0.100117184 -0.3645067 0.15741834 -0.24973239 0.12284739 0.062508054 0.21954288 0.18736388 0.10081722 -0.037248343 -0.008908898 0.20868638 -0.0909351 -0.37156126 -0.50713205 0.06775021 0.016420333 0.021445403 -0.18954402
7 -0.23274146 0.21072032 -0.006404282 -0.080579095 0.23674253 -0.086445704 -0.04569343 0.01103919 -0.25418326 -0.19743812 -0.093968675 0.12960967 0.008372623 -0.040897757 -0.17015748 -0.20269404 0.2891992 -0.07664253 0.24219936 -0.10322538 -0.22498521 0.22800705 0.05525811 -0.0782793 0.08289357 0.23883504 0.12868436 0.008938232 0.055517055 0.08556154 -0.0397736 -0.14572896 -0.20812072 -0.17300926 0.055403944 0.09427893 0.050337736 -0.124835506 0.11935031 -0.19395222 0.09314071 -0.024800321 -0.10420216 0.032196432 0.02008858 0.18581158 -0.37015215 -0.19058782 -0.12274491 -0.0076562776 0.03171666 0.14159642 -0.104396544 0.009138735 0.05323892 -0.09810834 0.18891741 -0.15344308 -0.19243865 -0.30339974 0.0051031224 0.12116576 0.10446182 0.0023412944
42 -0.26765072 0.23046689 -0.29355565 0.20861182 0.13736741 -0.024691116 0.30965355 0.2644183 -0.22857311 -0.061744224 -0.027997158 -0.15139543 0.4579171 0.084083095 -0.14337625 -0.037012845 0.009520062 -0.2326982 -0.09667069 -0.27681085 -0.11238131 0.2050412 -0.005424468 0.22184512 -0.11678839 0.19438492 0.13871308 0.19838904 -0.21630153 -0.0072587766 -0.10771918 0.18161726 -0.19944727 0.025039103 -0.08970838 0.03691919 -0.19444536 -0.3626689 0.07502897 -0.1443101 0.39411855 0.1676301 -0.36159122 0.09649588 0.20932874 0.23666273 -0.25243038 0.07209044 -0.16153415 0.02346567 0.25342292 0.17175731 0.26194564 0.11557047 -0.064114295 -0.002476126 0.10424803 -0.1725461 -0.19392915 -0.42675436 0.13050771 0.16127817 0.07883948 -0.09193021
27 -0.32734135 0.026845122 0.019339597 -0.078937374 0.2678944 -0.057484977 0.04189808 0.055474166 -0.16032062 -0.30767152 -0.29756984 -0.08254475 0.055518135 -0.096183546 -0.08250959 -0.10587048 0.19904013 0.18598051 0.19247542 -0.15946779 -0.0059269075 0.034128632 -0.035243627 -0.093079254 -0.14673683 0.20984846 0.029232865 0.06915653 0.057964128 0.18087001 0.098863006 -0.089057736 -0.10816913 0.051359292 -0.13977057 0.085745014 0.1436822 -0.2099909 0.10424558 0.041897222 -0.14333652 -0.14136495 -0.20084605 0.17020422 -0.09722869 0.26174316 -0.27749074 -0.23499319 -0.26983637 0.21342453 -0.10155797 -0.046950392 -0.07867109 -0.046463024 0.076614626 -0.11765451 -0.022687227 -0.19691786 -0.13751581 -0.09984399 -0.011533787 -0.122604206 0.094929345 -0.23439561
29 -0.26084298 0.2703138 -0.20343263 0.0375931 0.07205029 -0.09297373 0.08860108 0.07643923 -0.22296295 0.0007973966 -0.053645875 0.16672482 0.026235953 0.21154672 -0.23922954 -0.075858034 0.1484545 -0.10523224 0.25235128 -0.14543207 -0.1278116 0.20835418 0.13357544 0.13971226 0.014397335 0.14592911 0.22843277 0.048699338 -0.06556033 0.10810674 -0.1855567 0.113851294 -0.077743165 -0.029821629 0.12671739 0.081133954 -0.07693793 -0.28835866 -0.008632138 -0.13138907 0.21854551 0.12156298 -0.23004581 0.08206837 0.06403411 0.30719644 -0.3167061 -0.12074743 -0.14264078 -0.22012316 0.21334778 0.16103938 0.22898728 0.0009749158 -0.026309036 -0.030367298 0.06424695 -0.14270818 -0.32310435 -0.2659268 0.012831786 0.2576836 0.15743008 -0.029326078
48 -0.3230663 0.12286229 -0.32455847 0.24348369 0.04034427 0.054045398 0.32978076 0.27109373 -0.23189425 -0.07666989 -0.06693792 -0.28487557 0.28763947 0.11751728 -0.2170144 0.048998486 0.024915865 -0.076355614 0.027346354 -0.34589395 -0.025797088 0.1409764 0.008345177 0.25912964 -0.13083225 0.05993292 0.1430363 0.20206717 -0.1090225 0.05410408 -0.21528824 0.23327017 -0.061812777 0.23450437 -0.10594185 0.06079497 -0.14021564 -0.3728048 0.0052850745 -0.050698716 0.32305303 0.22045223 -0.34974638 0.18290082 0.117220245 0.39531326 -0.19620942 0.000115094765 -0.123289116 -0.071562916 0.33508834 0.09028131 0.2974272 0.103240974 -0.02337985 -0.0683485 -0.021981584 -0.18292533 -0.163669 -0.16933328 0.09069703 0.16200398 0.0601535 -0.11505235
11 -0.16518696 0.21853374 0.09028161 -0.16015269 0.12083944 -0.23041041 -0.1329688 -0.003118309 -0.18325622 -0.15103532 -0.27050817 0.21103075 -0.13619196 0.23569037 -0.23053531 -0.17814335 0.17685832 0.2076366 0.18021575 0.054393694 0.0237789 0.18388523 -0.14729393 -0.09814856 0.031642582 0.22790952 0.23305303 0.027467554 0.105299786 0.24048309 0.1633097 0.0054091923 -0.017804457 -0.0081839925 0.2361857 0.19069447 0.14719665 -0.17610161 -0.0069183125 -0.20974511 0.002245585 -0.13219404 -0.2960018 0.030942256 -0.018638032 0.08279657 -0.5590497 -0.28640205 -0.2964242 0.030677782 -0.19199364 0.107029155 0.060650144 -0.048596513 0.054474752 -0.09803226 0.063699655 -0.09333885 -0.5469545 -0.08948307 -0.09750489 0.02718044 0.19151361 -0.2533916
37 -0.37007487 0.08701013 -0.25062996 0.108090885 0.07774304 0.009761267 0.1641539 0.10994302 -0.17471895 -0.07661011 -0.07050373 -0.1310777 -0.0037125086 0.007336405 -0.27559388 0.05643891 0.21031599 -0.020329963 0.35670543 -0.33334845 0.0001718271 0.1703919 0.13290346 0.040556904 -0.05660454 -0.021194313 0.101851255 0.08354293 0.01573079 0.09746072 -0.26505885 0.096153766 -0.051886793 0.19482076 -0.005353258 0.028861418 -0.071796715 -0.2834522 0.02881316 -0.010635536 0.08194335 0.14139597 -0.24269804 0.31144547 -0.088055 0.5137694 -0.21517174 -0.20745285 -0.063630514 -0.157388 0.3208175 0.034419548 0.14646143 0.00149539 0.015915856 -0.10338781 -0.10490073 -0.24738559 -0.09302475 -0.011641875 -0.03183785 0.2446873 0.1273185 -0.060942095
44 -0.33853275 0.13379504 -0.12308724 0.07128888 0.051860236 0.008640732 0.05212009 0.03931073 -0.15737863 -0.10955907 -0.13627116 -0.016336804 -0.17261262 0.06772376 -0.28181872 0.018975995 0.30164033 0.005221758 0.35443002 -0.21534914 -0.034390822 0.14950292 0.13137259 0.047959507 -0.07245952 0.033784945 0.12474991 -0.027871912 0.11832941 0.22226894 -0.29113796 0.05607124 -0.011950798 0.18655045 -0.005286039 0.09228885 0.0067309667 -0.2975995 0.0036196525 0.051757976 0.053681508 0.067871 -0.10581489 0.24576326 0.023499873 0.4874452 -0.27709207 -0.2617575 -0.10178794 -0.2754155 0.2554147 0.08038198 0.12795547 0.037809674 0.09753091 -0.17617816 -0.057284202 -0.16489816 -0.15329488 0.05114167 0.0013922593 0.2270579 0.07913015 -0.09093491
21 -0.27263886 0.07717408 -0.0956917 0.042921957 0.19911417 -0.04718746 0.1389534 0.1805603 -0.25750786 -0.20923254 -0.19354361 -0.224874 0.1948646 -0.018538088 -0.16997722 -0.059656534 0.072677724 0.16813889 0.10774058 -0.2527328 0.0070757354 0.105789915 -0.06490569 -0.009351404 -0.051027413 0.12475615 0.0791177 0.17672777 0.013453962 0.116675474 0.053883053 0.015508015 -0.06856474 0.11281577 -0.11249317 0.07451443 0.038545147 -0.2021212 0.057944346 -0.08520832 0.058949854 0.03159138 -0.3130817 0.13361806 -0.054993056 0.2509529 -0.30297998 -0.13636832 -0.20629524 0.19225246 0.07158494 -0.026906583 0.03995142 0.0008004882 0.024104679 -0.07169313 0.019579427 -0.19902922 -0.15462059 -0.120171875 -0.009218457 -0.052860327 0.08286668 -0.20675382
49 -0.3973999 0.068656124 -0.07131266 0.050821133 0.2603775 0.013057528 0.16837032 0.10575698 -0.21163817 -0.2888908 -0.2175576 -0.29588276 0.16103084 -0.07366637 -0.08448211 -0.022128273 0.16199581 0.17422678 0.07424201 -0.28129125 0.0631628 0.03140083 -0.040753294 -0.070824206 -0.12328044 0.06813654 0.010712408 0.14269361 0.12342114 0.20754167 0.009817005 -0.02071889 -0.07525924 0.1871392 -0.30769822 0.035062496 0.061566904 -0.27318192 0.100312434 0.02807634 -0.08265514 -0.06991376 -0.23719534 0.1991528 0.016553368 0.2362149 -0.2259262 -0.24537335 -0.19275583 0.1867154 0.07168711 -0.070629925 -0.046312217 0.1269275 0.08239507 -0.14615493 -0.033420492 -0.24760775 -0.0012968364 -0.005100898 0.035968907 -0.078366876 0.067918204 -0.21215323
35 -0.38889173 0.09739522 -0.05748058 0.052304305 0.22044937 0.043013636 -0.051829174 -0.026921853 -0.15799505 -0.14906019 -0.16212204 -0.13360041 -0.26873752 -0.037171714 -0.27759978 0.014092792 0.33451626 0.12779063 0.5502936 -0.23312062 -0.033758864 0.10560748 0.15145881 -0.13925602 0.012868762 -0.044362232 0.03487543 -0.043557037 0.30351853 0.2746067 -0.1738589 -0.16573529 -0.030019466 0.11086126 -0.058179036 0.0061377008 0.04436459 -0.10058038 0.14540471 0.004833178 -0.09147542 -0.016749019 -0.059733614 0.37409437 -0.16961017 0.43337798 -0.333898 -0.37821916 -0.04549065 -0.15820989 0.26696894 -0.012637271 -0.03859202 0.08764456 0.19994482 -0.18759248 0.029880531 -0.17527655 -0.01659465 0.16770005 -0.08843709 0.2475191 0.1478047 -0.069225796
40 -0.37806576 0.07704142 -0.06791222 -0.049342778 0.32952577 -0.011914872 0.26469585 0.2500564 -0.26202223 -0.3677068 -0.3034515 -0.15740636 0.4760611 -0.11865417 0.04933318 -0.13660157 0.028064558 0.15462887 -0.19594818 -0.22417134 -0.131052 -0.09087799 -0.022605928 0.12823528 -0.24157797 0.33684212 -0.041414194 0.21798871 -0.13216259 0.13872418 0.11847643 -0.02239161 -0.11890377 -0.022469139 -0.49241102 0.058969267 0.11884572 -0.41718125 0.10278381 0.1451616 0.013975572 -0.101016365 -0.252221 0.010934974 0.18391252 0.12515706 -0.15482605 0.037067913 -0.39780393 0.35256642 -0.08698881 -0.057694282 -0.01705162 0.03646804 0.053901494 -0.039393663 0.029077545 -0.1917216 -0.0639945 -0.4426274 0.20778058 -0.29828534 -0.02054685 -0.28919342
47 -0.3428889 0.30886307 -0.098047465 -0.1816629 0.5195865 -0.11105139 0.044871695 -0.011545369 -0.25002888 -0.17095433 -0.054164954 0.114538476 0.31714708 -0.07728046 -0.12245288 -0.11979443 0.14098069 -0.07707587 0.19450127 -0.1644334 -0.08407265 0.16576369 0.047667272 -0.24388629 0.09905719 0.0678366 0.062019996 0.12677412 0.06586206 0.093304425 0.14278354 -0.19523 -0.1744725 -0.33400533 -0.16700459 -0.071713336 -0.115012065 -0.11647736 0.2464471 -0.3097441 0.022292456 -0.15680662 -0.23912829 0.12975003 0.026002787 -0.147411 -0.3858559 -0.27998072 -0.115661696 0.2593077 0.013415148 0.0046148356 -0.07023517 0.09121125 0.012170679 0.042248845 0.2622498 -0.33099645 -0.02205853 -0.3409332 0.050603855 0.07259825 0.28082564 0.05033091
41 -0.23533571 0.1313405 -0.016528657 -0.061824538 0.008003275 -0.12671943 -0.00022546042 0.10409456 -0.25092673 -0.15070038 -0.23056704 0.21617106 -0.09670977 0.16308473 -0.21132256 -0.15978777 0.16735892 0.1110302 0.15545204 -0.04178967 -0.20398165 0.123892374 0.09665124 0.19890653 -0.065380864 0.3528995 0.19051458 0.009587176 -0.10531731 0.16857955 -0.11988284 0.06988842 -0.050254114 0.03391463 0.08473853 0.19823001 0.1772093 -0.385564 -0.048215833 0.022894379 0.09819033 0.045714382 -0.18688898 -0.05234753 0.07693878 0.40045676 -0.33583617 -0.1037624 -0.32612345 -0.1681931 0.011856822 0.16224048 0.09400661 -0.086851455 0.02020117 -0.10994146 -0.034723386 -0.0776222 -0.46308267 -0.29340133 0.053517025 0.066272385 0.0132216895 -0.21525703
18 -0.21886809 0.17331336 0.019526439 -0.08072292 0.15807082 -0.12006027 -0.062228285 0.012139444 -0.2450747 -0.16268131 -0.124907695 0.15159388 -0.04989315 0.030217163 -0.20664394 -0.16439629 0.25189558 -0.004380815 0.22268452 -0.06803971 -0.18019928 0.21459894 0.035642233 -0.03573369 0.0689785 0.2222157 0.15923917 0.0069076987 0.027010998 0.11183843 -0.059868667 -0.09701482 -0.15105662 -0.09041613 0.10516837 0.123613 0.08690633 -0.18450001 0.07909855 -0.157459 0.08021813 -0.018593324 -0.1464739 0.021627657 0.015524687 0.23154743 -0.3860746 -0.21168035 -0.16893528 -0.05430499 0.016953299 0.14536175 -0.06094758 0.004899945 0.035249792 -0.10616927 0.09449033 -0.12964866 -0.28766674 -0.22201866 0.014741562 0.1324415 0.094039604 -0.06296993
43 -0.30064842 0.15154767 -0.12978 0.04987291 0.055745352 -0.021920225 0.0321909 0.06552909 -0.2204223 -0.13116992 -0.11436157 0.09611398 -0.11279017 0.101253316 -0.26233655 -0.058061186 0.24187887 -0.01742494 0.29740226 -0.19922939 -0.16318293 0.12905483 0.20335753 0.15651198 -0.050658986 0.17050186 0.16305828 -0.010078536 0.0062626135 0.16651067 -0.28490153 0.04169551 -0.031232279 0.065923944 -0.013292988 0.12133245 0.023203762 -0.31698966 -0.0035499462 0.048736636 0.14415182 0.11245484 -0.085411176 0.109216854 0.07851871 0.46106884 -0.26202896 -0.13104142 -0.16502112 -0.27125788 0.23887505 0.1348594 0.13176171 -0.0153285675 0.05357462 -0.124512225 0.016491482 -0.11942473 -0.22814119 -0.17352195 0.03709278 0.20415945 0.04941058 -0.07521651
33 -0.36554733 -0.010927968 -0.17129283 0.14709863 0.120409355 0.03526169 0.28497055 0.33715662 -0.28740886 -0.297868 -0.20571816 -0.35255304 0.30682307 -0.036629543 -0.09471903 -0.077246174 0.071739055 0.14531964 -0.07932692 -0.3462486 -0.1126915 -0.014647129 0.008071798 0.23293798 -0.16686028 0.2120777 -0.0019197179 0.23081496 -0.050404314 0.04987976 -0.064390294 0.070807695 -0.0890498 0.17920241 -0.3142426 0.075617746 0.09220757 -0.3689539 0.06977721 0.1191519 0.1494728 0.09901256 -0.25419894 0.08530958 0.11689534 0.40118656 -0.19423439 0.06300891 -0.28102574 0.109243624 0.14915504 0.03932278 0.057010956 0.058174267 0.089971974 -0.11348765 -0.006815996 -0.16098207 -0.08354675 -0.25958982 0.12431415 -0.09430701 -0.07489929 -0.20963174
38 -0.2293704 0.10863703 0.13745081 -0.1376482 0.16308933 -0.09221606 -0.11899812 -0.00234377 -0.1821559 -0.2582484 -0.285574 0.1870673 -0.17306337 0.018009322 -0.20459872 -0.10974889 0.28076726 0.15671615 0.23154785 -0.03565361 -0.1162914 0.122394376 0.03653179 -0.03878434 -0.070995666 0.29489237 0.113876656 -0.037429854 0.087874934 0.26917428 -0.031195484 -0.09059237 -0.028346878 0.036875613 -0.01863511 0.18710886 0.18173318 -0.30007112 0.019200144 0.025930008 -0.07161681 -0.12491854 -0.103988715 0.06358915 0.034364574 0.29262042 -0.37554348 -0.26385337 -0.28762096 -0.050504673 -0.07072793 0.09825177 -0.044948854 -0.04914818 0.07038493 -0.15174833 0.0019788062 -0.11323343 -0.29686627 -0.1026166 0.03278457 -0.009141697 0.05548299 -0.2429579
24 -0.21616967 0.41791177 -0.16774768 0.028547928 0.36071926 -0.15406412 0.022960551 0.020083534 -0.26544312 -0.087390356 0.08021547 0.12212495 0.28803158 0.0952127 -0.18229914 -0.21984805 0.21127284 -0.28364784 0.15912917 -0.1507018 -0.11789924 0.31701985 -0.0023418497 -0.1387164 0.1750787 0.15566324 0.2135862 0.09498343 0.007956092 0.028996207 0.035855483 -0.09216987 -0.2728733 -0.32098052 0.113384694 0.0068095312 -0.22650184 -0.034439426 0.19559264 -0.45098016 0.29750213 0.020109309 -0.24700014 0.06939775 0.11788435 -0.11145461 -0.49068597 -0.15253943 -0.048742983 0.08738023 0.11366484 0.17498983 -0.007172385 0.14111121 -0.019461988 0.032651413 0.39493757 -0.19654785 -0.20279521 -0.44198883 -0.013682609 0.2517653 0.23864755 0.10193617
46 -0.27472958 0.27204803 -0.03551932 -0.031167468 0.15225299 -0.07112419 -0.03906842 -0.033586863 -0.27618983 -0.13808973 -0.08017852 0.1800085 -0.11108925 0.13563696 -0.20055977 -0.20062205 0.34569335 -0.024032101 0.28052127 -0.06442849 -0.2520199 0.15422547 0.15284643 0.03919705 0.09755802 0.22888614 0.1545968 -0.07878781 0.10800425 0.18821931 -0.19618566 -0.10158717 -0.13116361 -0.115434006 0.012909533 0.100529194 0.065957345 -0.23058978 0.08165422 -0.06022808 0.06308004 -0.031582307 -0.019095246 -0.010971049 0.14739585 0.24061626 -0.3390894 -0.21633787 -0.15768646 -0.20687151 0.09547172 0.16133115 -0.043663636 0.08439743 0.13612323 -0.14284983 0.21229911 -0.13121817 -0.20527244 -0.26240158 0.03720001 0.1701831 0.056185152 -0.0040798225
36 -0.17986166 0.26113313 0.013880746 -0.12582937 0.24309033 -0.14311513 -0.08565073 0.0025193335 -0.2270614 -0.12776549 -0.13843429 0.24528082 0.005833703 0.07867252 -0.21995895 -0.14074297 0.18853648 -0.045903318 0.24687557 -0.048941016 -0.12163185 0.2625698 -0.01698274 -0.08850862 0.07061342 0.21828888 0.2194903 0.042066958 -0.009637202 0.14333422 0.056742772 -0.06196172 -0.13580954 -0.15574089 0.14805062 0.11581443 0.0060681016 -0.14979778 0.06491393 -0.2679803 0.11644757 -0.050118774 -0.22251274 0.050442208 0.0009761369 0.09621901 -0.42214745 -0.21798587 -0.1724115 0.031050209 -0.039923057 0.11189582 0.029607898 -0.039979216 -0.029325604 -0.04577771 0.13244867 -0.15772338 -0.3418762 -0.25763476 -0.0061394926 0.10969941 0.19112115 -0.09558228
25 -0.37656617 0.17620918 0.07484463 -0.08067495 0.4718611 -0.10937374 -0.1656758 -0.07953841 -0.11635024 -0.16555643 -0.26815054 0.010597189 -0.16179019 0.04343486 -0.20169918 -0.060158614 0.29859617 0.14994267 0.42428914 0.001402307 0.031516217 0.06738272 0.042332478 -0.2823314 0.021177275 -0.041654315 0.04076223 -0.036572117 0.36916393 0.3444921 0.1228693 -0.27991506 -0.13175882 -0.12566184 -0.046507057 -0.041210942 0.016402403 -0.048841596 0.22421207 -0.07562021 -0.21031506 -0.32071045 -0.11282083 0.2820398 -0.08815595 0.033161733 -0.5279584 -0.50795764 -0.17346273 0.046820935 -0.0010030491 -0.031641897 -0.07610051 0.1234638 0.25738567 -0.13316388 0.1816133 -0.19682626 -0.07753142 0.12650958 0.0021210965 0.1434462 0.30911967 -0.10625929
31 -0.28085646 0.15945195 -0.013144042 -0.015425476 0.22741935 -0.06999425 -0.016748294 0.011198902 -0.21158688 -0.21805257 -0.09945508 0.025597695 0.017321166 -0.03236287 -0.15241511 -0.13725688 0.2796971 -0.0288458 0.20567077 -0.13849624 -0.12519023 0.19061817 0.03596672 -0.074055545 0.030527331 0.16847904 0.09998016 0.045330483 0.090615444 0.12596574 -0.03594397 -0.1300549 -0.16957149 -0.08198709 -0.013498929 0.07968808 0.037290026 -0.15520072 0.14248294 -0.12322479 0.058940478 -0.019042553 -0.14849363 0.103377394 0.033291306 0.19130006 -0.35206068 -0.21660383 -0.13322604 0.017340397 0.06969418 0.11047276 -0.10652504 0.08364429 0.06951939 -0.11178568 0.11892167 -0.17119482 -0.16277005 -0.19181207 0.028023276 0.12508094 0.10325094 -0.044735372
