30 64
3 0.08843288 -0.08053013 -0.15940085 -0.0017448243 -0.12198402 -0.011024081 -0.070298426 -0.16746175 0.20772396 0.044757348 0.17751217 -0.10536491 -0.06353373 0.008576106 -0.1682021 0.09161757 0.018065799 0.18889944 0.068074554 0.1057449 0.17837031 0.2972302 -0.08559538 -0.18667704 0.019420117 -0.022544011 -0.08791404 0.1385706 0.22811863 -0.08198908 -0.07021941 -0.13258252 -0.14353846 0.06922875 -0.06957537 0.14968903 0.18215346 0.025218064 0.2856654 0.10571341 0.04637041 -0.23982805 -0.055014573 -0.025712878 -0.104209416 0.09743491 -0.04702074 -0.0034471224 -0.29289615 -0.15113965 0.24146594 0.11307419 -0.05390644 -0.14161111 0.31465372 0.07533302 -0.06684336 0.028321417 0.024450501 -0.08827596 0.26070362 0.059104368 -0.12206078 -0.056972187
0 0.111972354 -0.15010339 -0.20604926 0.06494291 -0.12212305 0.14961529 0.01834304 -0.08665531 0.20005845 0.14065869 0.14289972 -0.10118401 -0.03513451 0.011681404 -0.2555656 -0.06616733 -0.06241181 0.14348654 0.006547768 0.05984959 0.05360477 0.33399454 -0.1494046 -0.15452911 -0.07090465 0.016754506 -0.022752998 0.061848886 0.27440405 -0.11997728 0.025913926 -0.068747245 -0.14198683 0.16901581 -0.03788665 0.16237994 0.12788725 0.024599094 0.29080018 0.19984215 -0.011922319 -0.24891329 -0.0006500072 -0.084694915 -0.06966413 0.0151273785 0.01786193 -0.042671166 -0.23348002 -0.1301384 0.20893736 0.062374346 -0.013405893 -0.12245329 0.42878997 0.037114635 -0.14857237 0.08108391 0.072945535 -0.14037491 0.17699532 0.14384432 -0.10590318 -0.06634051
2 0.08432138 -0.08385444 -0.23212555 0.033822265 -0.16196819 0.04874195 -0.009499361 -0.11369917 0.18272057 0.14356816 0.14888431 -0.06103276 -0.045205664 0.026479186 -0.2382472 -0.0040113246 -0.062804975 0.14554748 0.06799261 0.053433597 0.05661088 0.29414535 -0.17720367 -0.15247987 -0.058014996 0.019073356 -0.019366298 0.07521692 0.27352223 -0.06280603 -0.04413794 -0.08817942 -0.14899126 0.18828847 -0.06264122 0.1782108 0.09986609 0.01995963 0.2586714 0.17975917 -0.026480503 -0.24713227 0.0320346 -0.061005354 -0.11682057 0.009691738 0.0047372333 -0.055740546 -0.25693807 -0.18015958 0.21701175 0.1128453 -0.056549903 -0.1402266 0.4585207 0.056649826 -0.11412917 0.064890094 0.02321949 -0.1271144 0.1740668 0.18501815 -0.115457386 -0.11467133
6 0.13787301 -0.14521253 -0.028253712 0.08221776 -0.026043437 0.11846083 -0.011170182 -0.14613724 0.2390127 0.06305719 0.099958256 -0.1074441 -0.042463057 -0.00603532 -0.19893245 -0.033220824 0.00614132 0.16469064 -0.056464456 0.099767216 0.1494179 0.38474068 -0.087212026 -0.21640056 -0.04723049 -0.04564817 -0.046363607 0.106028184 0.2512546 -0.20676155 -0.015848888 -0.061566032 -0.10431622 0.05265382 -0.044728708 0.17816253 0.24720633 0.0068163075 0.3193295 0.121959515 0.043298077 -0.1763298 -0.0652727 -0.113406055 -0.07924335 0.10725803 0.022887694 0.02166011 -0.20919603 -0.16029939 0.23636025 -0.0013968248 0.02420657 -0.14688236 0.30238652 0.06747965 -0.13605066 0.10898004 0.13256268 -0.106775224 0.22294608 -0.0049407748 -0.14459872 -0.030175446
5 0.10220885 -0.19564155 -0.2223258 0.103777125 -0.0834509 0.1982012 0.051006913 -0.05865478 0.18427415 0.1730999 0.13671757 -0.08652918 -0.008056499 0.04893143 -0.25191247 -0.1087429 -0.07974806 0.12956859 -0.038967073 0.02359978 -0.0153952995 0.35915768 -0.16886665 -0.12985776 -0.104227714 -0.01470736 -0.0065947035 0.044647798 0.2637651 -0.15040796 0.025111267 -0.022849025 -0.11143616 0.21399488 -0.06559508 0.16743085 0.10750214 -0.018171117 0.30977714 0.18576872 -0.020866647 -0.2257755 0.05516966 -0.11301203 -0.06688573 -0.016870165 0.062647514 -0.036691517 -0.20351428 -0.17776567 0.21497698 0.032242928 -0.016522506 -0.16565897 0.4423921 0.027848987 -0.1321151 0.08374942 0.10596123 -0.1520915 0.15185276 0.14526378 -0.124641545 -0.094377235
4 0.033858463 -0.046279777 -0.29085755 -0.05136769 -0.20904057 -0.07400959 -0.07400232 -0.16202325 0.16778257 0.067136034 0.20610043 -0.10331281 -0.06723584 0.02354094 -0.17888206 0.14876923 0.0037887213 0.17690244 0.15354785 0.08503883 0.11258084 0.22824417 -0.09733439 -0.14283942 0.018734064 -0.0055151624 -0.091621265 0.13357998 0.22495104 0.0039858534 -0.07635216 -0.14588526 -0.15778531 0.12782721 -0.077527314 0.1398972 0.0954706 0.033753563 0.24475911 0.1189084 -0.0032211132 -0.27286193 -0.03494747 0.009934236 -0.11299202 0.050655276 -0.054767396 -0.059842363 -0.3243005 -0.15061451 0.23514901 0.17900349 -0.09395283 -0.13530083 0.388294 0.066361904 -0.057539623 0.00055292883 -0.055863928 -0.10142705 0.24063464 0.1721017 -0.09395357 -0.077506915
7 0.11333645 -0.053869206 -0.13880019 -0.0046810308 -0.13666695 0.0153892515 -0.07390622 -0.14581299 0.21730655 0.050483882 0.15563278 -0.11331773 -0.041582834 -0.020638714 -0.18533048 0.06787962 0.01036076 0.16648565 0.08622972 0.13671166 0.15440078 0.28737098 -0.0823855 -0.18136322 0.003506387 0.007818866 -0.05180229 0.11609408 0.24695943 -0.082537174 -0.0015456388 -0.1276247 -0.12255449 0.05312519 -0.032007743 0.12438178 0.18656561 0.070088096 0.27621278 0.14486325 0.03489594 -0.23224308 -0.081359886 -0.0388001 -0.07047715 0.10903377 -0.03333225 -0.038503993 -0.29835743 -0.11326561 0.23727155 0.08170533 -0.027456453 -0.08990396 0.33104634 0.07620563 -0.12243925 0.065901466 0.001319384 -0.09689546 0.23857474 0.05276471 -0.08263689 -0.007755302
10 0.09742211 -0.07478892 -0.15701593 0.0015470713 -0.1522759 0.015440496 -0.045054697 -0.13693464 0.20097673 0.04811533 0.17092836 -0.10875577 -0.06361627 0.0026836253 -0.18405016 0.06624777 0.0014382475 0.16623975 0.08272493 0.11773573 0.15493143 0.2978579 -0.069705464 -0.16301504 -0.0016491243 -0.009778161 -0.082672596 0.108944766 0.25162658 -0.09082716 -0.035469066 -0.10974006 -0.15183768 0.08227945 -0.03486299 0.14437129 0.1842854 0.045551218 0.2832765 0.13182935 0.019732025 -0.23087181 -0.07786363 -0.025440188 -0.08895241 0.08384047 -0.036216784 -0.03130741 -0.29209626 -0.120568864 0.22015743 0.1040069 -0.03540383 -0.110925004 0.32042176 0.08112449 -0.11588404 0.052066375 0.02843479 -0.09086607 0.23766932 0.07708406 -0.12098376 -0.028918276
1 0.0959791 -0.095649004 -0.21347421 0.02287897 -0.13894704 0.06567981 -0.008172833 -0.123808615 0.1851145 0.101204515 0.15141426 -0.09297353 -0.050123945 0.021306073 -0.2217118 0.014184846 -0.052321974 0.16697086 0.052275028 0.08265946 0.083261006 0.32017714 -0.1332098 -0.15437964 -0.033848852 -0.0010520733 -0.057301916 0.08953337 0.26824552 -0.094291285 -0.02041785 -0.078499034 -0.1406847 0.14685924 -0.05851299 0.15733907 0.1350854 0.034530897 0.29570234 0.16405906 -0.0062797293 -0.23487847 -0.0012904449 -0.052046787 -0.08435845 0.037606105 -0.012984913 -0.037116576 -0.26988786 -0.16377862 0.20938744 0.11978772 -0.037030786 -0.13360512 0.4047207 0.058955688 -0.11785854 0.06425108 0.046617743 -0.12184651 0.20859662 0.14434566 -0.1254331 -0.073983744
9 0.09000599 -0.122167744 -0.13718209 0.024502907 -0.07479069 0.044488087 -0.03202037 -0.11770781 0.20796171 0.04111429 0.156589 -0.11725918 -0.043064624 0.03890829 -0.16664892 0.05402628 0.015732365 0.17568636 0.016056798 0.1050124 0.14345409 0.348031 -0.05311485 -0.17191282 0.008349423 -0.058418483 -0.094720855 0.11768724 0.21940033 -0.14769849 -0.016611302 -0.08530433 -0.114669554 0.084956504 -0.052794803 0.15028045 0.19794735 -0.00078902044 0.32753327 0.08522144 0.038775142 -0.21055228 -0.070818394 -0.05554951 -0.088103704 0.06450484 -0.005814542 -0.010003377 -0.27300134 -0.14610134 0.22936887 0.06700938 -0.03716835 -0.14278436 0.29120663 0.079938754 -0.099903405 0.058324255 0.06654078 -0.10079985 0.23270918 0.03547084 -0.12706478 -0.0334039
16 0.14352462 -0.11693181 0.039325643 0.005625153 -0.043229677 0.014525612 -0.09424945 -0.18840152 0.28666604 -0.06737009 0.12963016 -0.16733323 -0.07420816 -0.027216163 -0.12679234 0.1058855 0.111617796 0.22570492 0.0039530443 0.21699716 0.27124733 0.3866292 0.03767554 -0.2512947 0.052231763 -0.09028076 -0.12373506 0.15991867 0.20204729 -0.20295033 -0.0009004894 -0.11377196 -0.10621028 -0.08420347 -0.010472388 0.13212541 0.34210214 0.036664404 0.36687174 0.06940351 0.12345407 -0.16712175 -0.22995842 -0.06129825 -0.071099915 0.19632487 -0.037970286 0.031510327 -0.302638 -0.10821469 0.28045726 -0.01571303 0.021109797 -0.11333953 0.14633854 0.101838194 -0.13258237 0.07801112 0.07813981 -0.0821014 0.3042346 -0.14272489 -0.13511603 0.09052195
15 0.042603657 -0.104277335 -0.20666155 -0.020025956 -0.15395245 -0.036078107 -0.05912316 -0.15903132 0.19146274 0.050652202 0.21360882 -0.13766503 -0.056270458 0.03164192 -0.16417946 0.13182634 0.03504896 0.18358976 0.09147292 0.09060689 0.16868317 0.27181852 -0.044688586 -0.18816973 0.028912095 -0.017567176 -0.10070122 0.13927254 0.20780212 -0.06909344 -0.07274574 -0.13452119 -0.17518106 0.09444019 -0.06442715 0.14971021 0.16210468 0.0051958947 0.268166 0.08793789 0.017240446 -0.26928967 -0.08155834 -0.018158514 -0.12283396 0.056881186 -0.05328252 -0.032263372 -0.30309793 -0.12906016 0.2510621 0.14010334 -0.061745014 -0.14476837 0.3467461 0.084429346 -0.06633622 0.031379852 -0.0086970525 -0.092371404 0.2614064 0.11659313 -0.110313185 -0.07372951
13 0.07952479 -0.023220247 -0.24622561 -0.014480435 -0.19518258 -0.056806926 -0.08349124 -0.16547258 0.19503142 0.11318008 0.13837543 -0.054873284 -0.05351685 0.00061716035 -0.19278902 0.09454208 -0.038728736 0.1731255 0.13041976 0.073903695 0.086592495 0.23591769 -0.15114063 -0.15725847 0.009869687 0.0021196487 -0.029363183 0.11497967 0.25070822 0.0052779997 -0.074967265 -0.12505817 -0.12588142 0.13470568 -0.0770635 0.15011755 0.076426 0.061185487 0.2034001 0.16637118 -0.013587961 -0.253 0.0026058971 -0.0022657702 -0.13764656 0.076134816 -0.04393093 -0.06359324 -0.3001013 -0.18176144 0.2358805 0.15650651 -0.06525443 -0.1227757 0.42109236 0.052583404 -0.07684653 0.047798987 -0.060332876 -0.101252 0.21078709 0.16455571 -0.0925433 -0.08838067
24 0.14166546 -0.10515873 0.019607082 0.02382757 -0.049357515 0.027894588 -0.09164331 -0.17767046 0.2608657 -0.051504396 0.12205197 -0.14547174 -0.06315663 -0.021131879 -0.1319163 0.06776374 0.09798213 0.2159909 0.028276017 0.21447028 0.24781506 0.38631576 0.027300432 -0.22385414 0.03225327 -0.06795697 -0.107817285 0.13538337 0.2038742 -0.1952972 0.012753831 -0.112029046 -0.09426792 -0.06661477 2.5284198e-05 0.1279169 0.32853925 0.052471608 0.36357164 0.07772503 0.11870162 -0.15001588 -0.21201353 -0.064708546 -0.05775711 0.17944829 -0.038079176 0.031952776 -0.2965571 -0.10691479 0.2622948 -0.01737654 0.032941736 -0.10960387 0.13238083 0.09602403 -0.13828889 0.087892935 0.078717574 -0.07160564 0.28476614 -0.1386418 -0.13617592 0.084756136
14 0.09544395 -0.14301129 -0.22951894 0.021902572 -0.11152992 0.07375753 -0.005944745 -0.112052664 0.20263901 0.071083 0.1636984 -0.11254186 -0.03865126 0.042408805 -0.19427441 0.035363022 -0.03286664 0.17805083 0.041995224 0.078476965 0.063704476 0.36511004 -0.093035206 -0.120873675 -0.021321032 -0.074189916 -0.09020741 0.11622937 0.24068075 -0.12904602 -0.021380538 -0.065056324 -0.1023338 0.13589917 -0.0800849 0.13498096 0.15921438 0.007516746 0.34626728 0.123935744 0.012256332 -0.21038415 -0.015962332 -0.04187334 -0.06487552 0.048046343 -0.009379951 -0.015410363 -0.28502044 -0.17663383 0.21678539 0.088507846 -0.05684852 -0.16192369 0.34496352 0.045563813 -0.09611219 0.040739603 0.072731994 -0.13309257 0.24043411 0.093217984 -0.14578788 -0.03472199
20 0.1419178 -0.10060528 -0.009910501 0.013379637 -0.08314459 0.012391718 -0.10776208 -0.18837033 0.26494044 -0.021022594 0.12760079 -0.1361785 -0.07456387 -0.013999053 -0.13922438 0.065793514 0.085752346 0.21566129 0.030064335 0.1944904 0.23065566 0.38631028 -0.0024008122 -0.22234388 0.0088213645 -0.0656788 -0.09667906 0.13885772 0.2270556 -0.16941442 -0.025981754 -0.09846301 -0.11443542 -0.04810606 -0.020619724 0.13531666 0.31419554 0.034033947 0.34753585 0.087069586 0.12087564 -0.15218383 -0.17926657 -0.050660778 -0.07809807 0.18610914 -0.040248286 0.03712118 -0.2973975 -0.118465975 0.26660034 -0.005288483 0.0039454284 -0.12359929 0.16280271 0.0959211 -0.12780261 0.06974252 0.06866548 -0.090493575 0.27262077 -0.0931 -0.14221315 0.06311106
8 0.14029443 -0.10021389 -0.061046172 0.06902174 -0.067327134 0.10728749 -1.1044488e-05 -0.13341908 0.20888737 0.020764709 0.13291378 -0.12689206 -0.05460971 -0.0056526894 -0.17903405 -0.031244416 -0.011847512 0.17479749 0.0006579851 0.13191485 0.15333724 0.34932563 -0.06051586 -0.18186465 -0.031699922 -0.010437372 -0.07552034 0.10083824 0.24957219 -0.18402451 0.0072082137 -0.06236009 -0.115007944 0.050512962 -0.016973276 0.15592623 0.23756902 0.041076377 0.33689547 0.12544447 0.04243362 -0.17986092 -0.07137317 -0.07053844 -0.045201335 0.10046433 0.0013879945 -0.008577633 -0.25137442 -0.11520988 0.20325911 0.03868692 0.01111125 -0.103861436 0.27226752 0.069442846 -0.14608994 0.099426165 0.11066831 -0.0993401 0.23475786 -0.0075290306 -0.1441917 0.0063330457
12 0.0971882 -0.11931038 -0.07332974 0.031799033 -0.06220784 0.01719908 -0.0483271 -0.1612064 0.2386804 -0.009640857 0.13228662 -0.12268045 -0.061220758 0.012693483 -0.14039119 0.08352208 0.06311018 0.20152278 0.010046843 0.13672645 0.20415528 0.37763485 -0.018927798 -0.19710022 0.024344154 -0.09348276 -0.11962633 0.1419494 0.21189536 -0.18153757 -0.04945491 -0.09245249 -0.12051748 0.02671661 -0.05354563 0.15509324 0.26381508 0.014519681 0.34268773 0.0490792 0.07531906 -0.17256625 -0.11499262 -0.06590615 -0.08147278 0.11974019 -0.038042437 0.025237141 -0.26544994 -0.14442626 0.23161563 0.0405709 -0.007420961 -0.15770593 0.22886397 0.09717178 -0.08477615 0.06502566 0.08032835 -0.07161775 0.28556708 -0.050306913 -0.15541872 0.0043997625
11 0.13880822 -0.1400854 -0.16072969 0.13580564 -0.074898146 0.1851489 0.06448107 -0.07853135 0.18336417 0.13832732 0.09875735 -0.077464044 -0.009042518 0.03676015 -0.2579647 -0.11531234 -0.09501317 0.12901941 -0.021359518 0.042028435 0.016429538 0.37514475 -0.1684677 -0.14459997 -0.11693534 0.007596033 -0.0049069505 0.03516899 0.2852796 -0.18714939 0.015453246 -0.030310765 -0.12396493 0.18275018 -0.0531701 0.18689035 0.14627537 0.022622554 0.32120988 0.16656917 -0.024015358 -0.20580247 0.06842948 -0.12591408 -0.050120447 0.008676438 0.046212 -0.041175578 -0.18211626 -0.17252542 0.19133206 0.045158 -0.0019678348 -0.14578766 0.4273539 0.034149174 -0.14742312 0.1243161 0.12768942 -0.12862079 0.15868224 0.12326775 -0.12787555 -0.082166776
25 0.12317088 -0.13019805 -0.12078589 0.0392848 -0.08529053 0.060218852 -0.03629434 -0.13488927 0.23232117 0.030342016 0.13592593 -0.109658144 -0.051186126 0.0031822457 -0.17322494 0.027649067 0.02100341 0.18782218 0.015562867 0.13302335 0.12742184 0.36903843 -0.057524808 -0.1674483 -0.002367622 -0.06762417 -0.085457675 0.11158466 0.2402196 -0.14529698 -0.0092504 -0.08874158 -0.10260869 0.057355125 -0.048150446 0.13425839 0.22133501 0.023846986 0.33838978 0.11397494 0.06064393 -0.18958467 -0.09167362 -0.07366715 -0.06844154 0.10801416 -0.0030992788 -0.012436901 -0.27587107 -0.15204926 0.24115475 0.03816124 -0.004066701 -0.14637549 0.27129683 0.059954487 -0.12838002 0.07316502 0.07061841 -0.103280626 0.24914901 -0.0016333648 -0.13803668 0.0079696365
19 0.0060332487 -0.043107517 -0.3263092 -0.10395923 -0.21337868 -0.15123956 -0.10698118 -0.16829857 0.1657636 0.06761811 0.21675494 -0.10919618 -0.05969357 0.041674387 -0.15715674 0.22767237 0.028870683 0.18471937 0.17026818 0.093192674 0.12600644 0.2035961 -0.07885245 -0.1627645 0.06439308 -0.027503502 -0.09119762 0.15493993 0.198849 0.03291906 -0.097544625 -0.18190116 -0.14365706 0.11286065 -0.09903592 0.1300438 0.0699063 0.034035463 0.22223644 0.10480882 0.014099108 -0.29327866 -0.06638597 0.03509683 -0.14684986 0.06138808 -0.0738933 -0.07324399 -0.34767595 -0.16391392 0.2619708 0.21878523 -0.1126705 -0.1596434 0.40104455 0.068044305 -0.026689874 -0.015396038 -0.119077906 -0.10212012 0.24325746 0.19608758 -0.07716354 -0.08785936
29 0.124738686 -0.097654 0.0060051666 0.008535043 -0.061257172 -0.013210647 -0.09944047 -0.19521399 0.26650348 -0.051845472 0.13464607 -0.14439788 -0.08429265 -0.013727196 -0.12907831 0.099170014 0.108458035 0.23098029 0.03398058 0.21648629 0.24681693 0.40710932 0.012635289 -0.23868367 0.03568156 -0.09706287 -0.13003762 0.1576778 0.22110592 -0.20428173 -0.043491684 -0.101955265 -0.104977265 -0.060322277 -0.022134846 0.13351983 0.33931875 0.03156721 0.3776217 0.06895979 0.13868742 -0.1502273 -0.20317034 -0.07150967 -0.081755936 0.18872872 -0.041436095 0.029415287 -0.31062764 -0.13108055 0.26149365 -0.009674272 0.01253819 -0.14591569 0.14770891 0.10379199 -0.13348682 0.08104715 0.07559549 -0.0737018 0.30421877 -0.12997225 -0.15724516 0.07612701
21 0.106065735 -0.088785656 -0.24678247 0.061251543 -0.16148055 0.07980774 0.0012294378 -0.114149064 0.17132927 0.17158592 0.11571018 -0.061836086 -0.009350012 0.016962988 -0.2441974 -0.034579884 -0.083830066 0.13768953 0.06530062 0.035937425 0.0059492285 0.28678513 -0.20068577 -0.1370665 -0.0885447 0.027598493 0.01198074 0.055669222 0.27728787 -0.079648465 -0.007220915 -0.07408723 -0.12768917 0.18146211 -0.06946922 0.16623984 0.080378555 0.058228515 0.25471187 0.2058903 -0.04060608 -0.2468576 0.05883938 -0.079815686 -0.091554545 0.011768993 0.010986162 -0.07631958 -0.22260106 -0.1816987 0.21056165 0.1094138 -0.025446376 -0.13524336 0.49275753 0.04769896 -0.12391859 0.08382041 0.021761667 -0.12853912 0.14581545 0.20869316 -0.082723245 -0.09604627
26 0.100608796 -0.1390873 -0.2208668 0.110104226 -0.08512506 0.16547032 0.06991673 -0.07915183 0.15939088 0.16583098 0.13164607 -0.06692349 -0.016744785 0.05729523 -0.25257722 -0.09459391 -0.10011795 0.12980941 -0.019501157 0.0052568065 -0.012238993 0.3428784 -0.18747804 -0.120918654 -0.10927061 -0.009148101 -0.0053285877 0.045293584 0.26718146 -0.15529227 -0.01767125 -0.01840559 -0.12828 0.22120602 -0.07726999 0.18554941 0.092958294 -0.00746628 0.29657233 0.15150313 -0.04641063 -0.22006741 0.10438506 -0.10641386 -0.06119081 -0.022163318 0.049387798 -0.03505799 -0.184806 -0.19671468 0.19158454 0.0851846 -0.039573517 -0.15567446 0.45467877 0.030139565 -0.1180641 0.08972478 0.11534676 -0.14468373 0.15662977 0.1779554 -0.13875495 -0.10870652
22 0.0060125054 -0.04867712 -0.2808504 -0.119775675 -0.20678362 -0.17242077 -0.13670523 -0.18170133 0.1843362 0.030488113 0.22373836 -0.11687342 -0.08074134 0.04321044 -0.11863235 0.26303008 0.06253486 0.21157938 0.19158036 0.12800747 0.19404219 0.22181378 -0.027925435 -0.17367388 0.09720352 -0.043814406 -0.13698189 0.18406412 0.17399533 0.03432909 -0.09664374 -0.20343077 -0.15408942 0.06177851 -0.099128984 0.1345193 0.12695329 0.04422709 0.25222835 0.077732906 0.04211732 -0.28672123 -0.11549308 0.05057313 -0.15622662 0.07231605 -0.0881481 -0.054067966 -0.38738048 -0.13968588 0.2646099 0.2121586 -0.11385183 -0.1585028 0.3323317 0.083855405 -0.017275773 -0.035006527 -0.109198995 -0.08555285 0.26951927 0.12926857 -0.07832488 -0.07359235
23 0.079011194 -0.10230154 -0.18585265 0.0036871112 -0.14421134 0.01630831 -0.06231374 -0.15319993 0.18717419 0.06172386 0.17717446 -0.106067546 -0.052778117 0.013728572 -0.18949924 0.07777353 0.0137623325 0.15932676 0.077453524 0.09135934 0.15077059 0.2865183 -0.0965004 -0.18037644 0.0028431108 0.0028383797 -0.07171101 0.10855681 0.22997153 -0.06123704 -0.045045156 -0.12010139 -0.156465 0.09701792 -0.063988745 0.1482844 0.16690968 0.0147897545 0.28068674 0.13516957 0.017692477 -0.24974744 -0.047604114 -0.024920607 -0.112434395 0.05662398 -0.018609783 -0.020127198 -0.2700254 -0.13158134 0.24249917 0.10504942 -0.056215122 -0.13225073 0.3554837 0.07899814 -0.07565917 0.03407438 0.014098446 -0.094042726 0.23409955 0.10067628 -0.10861796 -0.074475676
27 0.10325389 -0.15442123 -0.23432367 0.05681998 -0.13433358 0.1374376 0.018012922 -0.09860408 0.19045083 0.13063978 0.15662833 -0.1154818 -0.03826432 0.026842076 -0.24396516 -0.047103837 -0.05701524 0.15195468 0.015311839 0.052568264 0.027349584 0.32176396 -0.13971247 -0.13749708 -0.07720703 -0.0049738856 -0.04109127 0.07838467 0.25834614 -0.12279913 0.027104225 -0.048743255 -0.1307418 0.15765317 -0.05713589 0.14872512 0.13682309 0.023880055 0.30955198 0.17616555 -0.017971817 -0.25016844 0.011057874 -0.06504334 -0.04868712 0.006956682 0.017805945 -0.045356113 -0.23913191 -0.13611443 0.20614842 0.071726054 -0.023561615 -0.1395254 0.42494583 0.036414057 -0.14188689 0.058178216 0.059651125 -0.14070678 0.18797873 0.15067725 -0.1156914 -0.060145784
17 0.07285274 -0.093542986 -0.20814462 0.003652184 -0.1431074 0.020043846 -0.038213544 -0.1352237 0.17661999 0.08354107 0.16934682 -0.10293765 -0.043912448 0.026356243 -0.19513948 0.054750558 -0.015177841 0.15380251 0.08181112 0.088563845 0.11237586 0.29152238 -0.10318501 -0.15056477 -0.013948696 -0.013638343 -0.07001739 0.0956608 0.24070136 -0.076218694 -0.034876954 -0.10328597 -0.14049345 0.11638382 -0.06642384 0.14488927 0.14529602 0.03336417 0.2870304 0.1326892 0.0076655606 -0.2440498 -0.028444707 -0.044342846 -0.089296006 0.05007092 -0.014472151 -0.037675828 -0.27960303 -0.14748947 0.22370733 0.11814119 -0.053179536 -0.13937595 0.36652488 0.060413424 -0.08984163 0.039471526 0.015337121 -0.10683533 0.21687491 0.12170499 -0.11167226 -0.063506566
18 0.08890877 -0.0984419 -0.108661704 0.0019567246 -0.08893523 0.021021912 -0.05218846 -0.15377058 0.21455772 0.015497079 0.15370405 -0.12679039 -0.061180066 0.016807258 -0.16021684 0.08545651 0.03528887 0.18647751 0.054051008 0.12475965 0.18451066 0.32174727 -0.03811171 -0.19014373 0.019345637 -0.034516767 -0.1081005 0.13519277 0.22389199 -0.1296496 -0.04151245 -0.11645701 -0.13193847 0.04572932 -0.05306408 0.15524097 0.21875729 0.034792237 0.3119403 0.097524114 0.055438638 -0.20918508 -0.10327548 -0.04786349 -0.09063944 0.09877265 -0.031028196 -0.006227979 -0.28946143 -0.13963726 0.23695011 0.08533595 -0.019782819 -0.13928014 0.26892778 0.085269816 -0.10096585 0.054119427 0.051963784 -0.08809426 0.25192586 0.015470801 -0.12899302 -0.018400788
28 0.11669206 -0.19925165 -0.20422262 0.06367874 -0.088613816 0.16744865 0.009277689 -0.073932946 0.20433973 0.10936673 0.1605135 -0.12970932 -0.019372446 0.036047537 -0.22175673 -0.035289 -0.022220861 0.14989011 -0.0060913544 0.080852956 0.033544328 0.37552166 -0.08892813 -0.116820045 -0.063491344 -0.048806973 -0.052100666 0.08973932 0.22819437 -0.15861398 0.05869185 -0.059726093 -0.10324802 0.13177148 -0.0456902 0.12994719 0.17718634 0.0059903814 0.3571364 0.15922153 0.013712402 -0.22596674 -0.045913275 -0.07158756 -0.021632463 0.022882989 0.024447346 -0.01882991 -0.2548375 -0.1250434 0.2316691 0.01901347 -0.022856962 -0.1513483 0.34168553 0.025789184 -0.14762266 0.051772323 0.091056824 -0.15281308 0.19890873 0.06932334 -0.11293299 -0.03113172
052180897 0.13768005 0.0663876
28036168 -0.06499352 0.14822815 0.1648629 0.12632878 0.29578638 -0.22208667 -0.014798721 -0.21796072 -0.054257862 -0.23804837 0.027702278 0.065379165 -0.27446815 -0.21715002 -0.20075154 0.113538764
