50 64
2 -0.29076076 0.09384277 -0.17727421 0.06785075 -0.088984415 0.2503233 -0.22485165 -0.13066621 -0.140691 -0.07054841 -0.11943672 0.35811746 -0.16985077 -0.14476062 0.2019506 -0.001124704 -0.014699028 0.011105086 0.26882228 -0.030868597 -0.056245744 -0.10134519 0.29821435 0.24888948 -0.31838715 -0.083396435 -0.080972664 0.090101555 -0.16289859 0.0080609545 -0.030520305 -0.027754562 -0.1255946 0.23369122 0.011726439 -0.0064622257 0.044553395 -0.09794108 0.15813866 -0.057344086 0.06325001 -0.13978067 0.16485576 -0.016199451 -0.22456317 0.02856239 -0.17099366 -0.12469164 0.10994079 0.09615053 -0.18089968 -0.073372275 0.17294304 -0.16458926 0.15763712 0.3140494 0.004885456 0.1327069 0.23408397 -0.05936746 0.20978586 0.20766939 0.12320197 -0.26641142
1 -0.16566941 0.07098999 -0.14037313 0.07555078 0.013617636 0.16393557 -0.10947933 -0.025061442 -0.10301205 -0.22238967 -0.22213201 0.4175742 -0.21446925 0.21888356 0.17813542 0.21269222 0.08967648 0.05348133 0.15122296 0.03296492 -0.025465509 -0.099618554 0.19598784 0.23575792 -0.0023541139 -0.17221777 -0.12726353 0.19418085 -0.14243469 -0.06325576 0.14571685 0.05094612 -0.04151905 -0.0159639 -0.022322338 -0.06913485 -0.12311675 -0.14093481 -0.01756519 -0.119483836 0.1942147 -0.12240668 0.23184858 -0.01944387 -0.041466452 0.022076825 -0.012474198 -0.021755442 0.020083714 0.023085644 -0.07566231 -0.064134516 0.024518188 -0.09649537 0.06618173 0.13551162 0.20012723 -0.087816186 0.11538258 -0.07561082 0.013738004 0.18203923 0.077542074 -0.21320313
9 -0.106397726 0.09869377 -0.2448277 0.026111774 -0.030285552 0.188452 -0.20115934 -0.053565867 -0.113222405 -0.19505668 -0.18382601 0.30067694 -0.050053503 -0.20064878 0.37072453 0.10154525 -0.069118224 0.0039898073 0.12722068 0.025567021 -0.06791409 -0.04851432 0.2820717 0.21855035 -0.165966 -0.27346215 -0.24355677 0.12164904 -0.1778159 0.08801149 0.017917173 0.085256584 -0.031203281 -0.005070359 0.059369903 -0.09800459 0.053119864 -0.29088062 0.10211842 0.058850195 0.16339411 -0.14050017 0.08382232 -0.0413263 -0.34927472 -0.07247501 0.04237818 -0.038605805 0.16922608 0.15316537 -0.12227143 -0.07861184 0.076492436 -0.17800044 0.16062024 0.07581234 0.052476957 0.08548434 0.12011247 -0.19266123 0.13265517 0.25972715 0.14056501 -0.20607285
3 -0.20009452 0.118162654 -0.05131257 0.12266424 -0.093655854 0.14405824 -0.029905971 -0.0806892 -0.009349396 -0.13024099 -0.2214704 0.40758055 -0.23009978 0.16684528 0.18220788 0.20547156 0.13162856 0.06595821 0.07949393 0.07911001 0.0102525335 -0.08448427 0.14933456 0.31336772 -0.10260302 -0.033340063 -0.19758986 0.1325721 -0.1776786 0.026478931 0.13033576 0.021907656 -0.046890218 0.14899698 -0.03646733 -0.05741429 -0.057456497 -0.12285082 -0.050582856 -0.09799171 0.22491068 -0.17840007 0.21847203 0.042293172 -0.05783199 -0.07487409 -0.0075341403 -0.091998674 0.10961539 0.08435126 -0.06861479 0.004666334 0.0037804183 -0.074458025 0.044088475 0.11918263 0.088025935 -0.1125656 0.10249225 0.114049055 0.057676725 0.1607562 0.064870514 -0.20397691
6 -0.2906978 0.1039518 0.06663068 0.07810081 -0.19066392 0.10864513 -0.08526763 -0.010695054 -0.046249565 -0.26435602 -0.022855388 0.35785604 -0.35437283 0.10356824 0.10931019 0.038363054 0.0901273 -0.012588995 0.15223175 0.049443696 -0.11551788 -0.07453078 0.13300271 0.18591183 -0.16452593 0.031116873 -0.098110944 0.19541068 -0.28162837 -0.047176145 -0.052164063 0.17193872 -0.10001458 0.0957244 -0.026278613 0.14591917 -0.06112663 0.045523208 -0.1457105 -0.16722086 0.21597347 -0.1417949 0.37522224 -0.0464585 -0.040574078 -0.069725566 -0.07988771 -0.08480958 0.033816814 0.064020894 -0.05031797 -0.05138629 0.031476893 -0.054177817 0.1485733 0.19782917 0.2312847 -0.010438199 0.16210063 0.07124987 -0.026879856 0.13003458 0.1793571 -0.22701791
12 -0.03268556 0.24772325 0.0058178343 0.16087727 -0.21100524 -0.04116497 0.06736913 -0.019281931 -0.0030436246 -0.21644033 -0.36238727 0.48328203 -0.09582507 0.2954785 0.21284644 0.37001234 0.24203612 0.07295721 -0.02286704 0.166559 -0.13357896 -0.060330175 0.20436224 0.4547671 0.2474832 -0.08662081 -0.38180673 0.21444012 -0.30562225 0.20134945 0.25129 0.05321922 -0.0085986145 -0.062144477 -0.028858218 -0.0013019273 -0.20096792 -0.2294893 -0.21254994 0.12230967 0.39540642 -0.14077833 0.16798541 -0.0066841803 -0.05362534 -0.031290196 0.23747317 -0.13727179 0.2965373 0.047394063 0.13750193 0.08382039 -0.16173042 -0.09060222 -0.086105555 0.023443708 0.28606197 -0.18733399 0.03618876 0.11231536 0.0031012935 0.18253633 0.04796593 -0.18855083
0 -0.24002178 0.10393144 -0.0152467955 0.099324435 -0.08735389 0.102568164 -0.051755425 -0.079707116 -0.067822255 -0.18869248 -0.10166212 0.35309702 -0.38051912 0.12080939 0.108232826 0.12142274 0.10492467 0.008002859 0.15244222 0.08898533 0.03941442 -0.013192976 0.122231096 0.32449168 -0.24282162 -0.029943796 -0.11980901 0.15675229 -0.1545952 -0.09922729 0.06215879 0.16181333 -0.15290391 0.25399205 -0.12337279 -0.040847927 -0.02101588 0.029831322 -0.06432828 -0.1829038 0.14326479 -0.19769903 0.3595628 -0.028481934 -0.033806328 -0.10111916 -0.11656788 -0.1297252 -0.0031996227 0.039492693 -0.11866228 -0.00014089348 0.05847951 0.00028409855 0.1177481 0.12925659 0.10966604 -0.12893559 0.17406337 0.11713102 0.07579867 0.14183539 0.09065544 -0.17289
8 -0.08362394 0.22313762 0.033052623 0.06094613 -0.22769421 -0.13421702 -0.012095746 0.008841738 -0.05027773 -0.3225387 -0.19003321 0.37484846 -0.16308494 0.08557191 0.18291919 0.25654072 0.15593979 -0.02080796 0.04127687 0.1859173 -0.1436793 -0.009157898 0.13917121 0.36190715 0.14273866 -0.15396054 -0.27417162 0.24031267 -0.2874732 0.057593156 0.15409112 0.22529113 -0.112957306 -0.05046533 -0.04224688 0.06504792 -0.10581681 -0.15904495 -0.17326811 0.13303508 0.3189944 -0.1519459 0.23785523 -0.09370192 -0.1182247 -0.03038063 0.09704888 -0.21796542 0.19585171 0.006244323 0.12685093 0.017090393 -0.117782645 -0.06430698 0.07191904 -0.0059035523 0.2970971 -0.06567332 0.07142233 0.09887396 -0.01439699 0.18778315 0.042622533 -0.15635738
4 -0.29503432 0.08860771 -0.014123662 0.16255404 0.009612356 0.22019741 -0.005825792 -0.07326594 0.0069942335 -0.11755921 -0.14784384 0.5051004 -0.5008352 0.3409504 0.1256914 0.3132637 0.17220883 0.158352 0.043623965 0.1476085 0.21295436 -0.004991629 -0.017562203 0.33924788 -0.24122588 -0.067027785 -0.14300597 0.19414786 -0.02671767 -0.18958166 0.19155757 0.11651219 -0.15755026 0.22748539 -0.15357831 -0.17144884 -0.12566896 0.02068805 -0.115065664 -0.33197415 0.22439285 -0.20860341 0.37996772 0.05493306 0.1639967 -0.21051824 -0.12086417 -0.0735614 -0.13575387 0.034685034 -0.13382801 0.021869918 0.04697208 0.08182767 0.06432366 0.07737352 0.013532079 -0.23277873 0.07408611 0.21568863 0.08864053 0.040301017 0.08859476 -0.13637471
10 -0.179218 0.10987438 -0.10315341 0.021437995 -0.17959088 -0.055980835 -0.26789436 -0.1332986 -0.25056988 -0.21428813 -0.151325 0.30522215 -0.19195169 -0.072999425 0.13765901 0.15742277 0.05097359 -0.1023095 0.1728257 0.12629683 -0.032599777 0.05649416 0.18657787 0.27648923 -0.094968766 -0.32244253 -0.11054265 0.38693422 -0.12677197 -0.06754746 0.20627502 0.20323823 -0.23929231 -0.110479645 -0.12289835 -0.10227621 -0.06216558 -0.1493624 0.07533435 0.073650464 0.15975927 0.046870127 0.1994704 -0.123604536 -0.19753239 -0.040552873 -0.20919493 -0.2658359 -0.05434003 -0.10125959 0.014810003 0.05091448 0.07649792 -0.121200085 0.15572333 0.050301388 0.096908614 0.09784294 0.09567335 -0.048895944 0.26909402 0.0763975 0.08016511 -0.153347
18 -0.22034207 -0.0034086257 -0.22624357 0.07720892 0.07893044 0.37051836 -0.18489578 -0.15216765 -0.06613698 -0.07514472 -0.24120936 0.42274848 -0.15015936 0.07787783 0.26071343 0.1496934 -0.016598223 0.084383115 0.18332002 -0.053657193 0.03088578 -0.13192214 0.27404016 0.1706035 -0.20261712 -0.17815253 -0.094582126 0.1287164 -0.035865735 -0.06420797 0.09438372 -0.10370203 0.011520507 0.038176425 0.036645204 -0.16680487 -0.035175815 -0.22060816 0.15463515 -0.14002657 0.1303126 -0.09818705 0.0956125 0.029000437 -0.1492533 -0.02877239 -0.085402146 0.02744497 -0.011499603 0.09884075 -0.22716624 -0.09898586 0.1564759 -0.15989095 0.092962556 0.21084385 -0.0060219606 0.02112082 0.14411807 -0.15028603 0.122861594 0.2112503 0.10397399 -0.21132295
26 -0.12002749 0.06554779 -0.15109728 0.014344526 -0.1345548 0.19153653 -0.2758548 -0.0368776 -0.15268087 -0.2046346 -0.18547723 0.29968262 -0.13837779 -0.15462248 0.27688345 0.0046036667 -0.04076316 0.09290729 0.28128433 0.03690276 -0.19633523 0.021102022 0.49708545 0.15327248 -0.086721875 -0.2910132 -0.1329468 0.1215 -0.18031272 0.109868325 -0.023783091 0.03357371 -0.11953642 -0.08921749 -0.05025387 -0.046616 -0.037291773 -0.10412235 0.09887053 0.052675758 0.09942672 -0.087094784 0.07431453 -0.12943015 -0.21851097 0.04043429 0.10352183 0.04462562 0.12717654 -0.032072507 -0.04779835 -0.026510322 0.16166106 -0.20495671 -0.0031151066 0.25054565 0.18082632 0.09241492 0.1528415 -0.3565077 0.31696936 0.17770937 0.26902112 -0.16317275
11 -0.3558689 0.046234652 -0.044203587 0.06102046 -0.112205915 0.37474358 -0.20925194 -0.0704486 -0.079092756 -0.15989575 -0.045534495 0.38593584 -0.28752714 -0.0051605357 0.16741057 -0.12729526 -0.004699306 0.072585024 0.34155467 -0.09011228 -0.2030092 -0.19990407 0.43907607 0.044342604 -0.2731722 0.103416815 0.04807147 0.059812 -0.23726355 0.0072223754 -0.19056028 -0.12874913 -0.06719708 0.16889897 0.09315735 0.16805418 -0.057678156 0.047023248 0.05257413 -0.18870541 0.05934418 -0.15145521 0.22163709 -0.037771724 -0.11174071 0.10473203 -0.05232021 0.049580142 0.100028895 0.041233514 -0.19123316 -0.16400872 0.2195942 -0.15258105 0.094524644 0.48195058 0.19631073 0.1292797 0.29839298 -0.19993818 0.06301976 0.22348975 0.2603868 -0.27953658
5 -0.21049084 -0.039543506 -0.024149746 0.07303093 0.23944527 0.34096438 -0.08283291 -0.07323201 0.07132002 -0.2812672 -0.09305345 0.52634645 -0.46881476 0.38001063 0.24322078 0.15584257 -0.017467335 0.007113597 0.12087021 -0.04259235 -0.012113889 -0.17281838 0.16222169 0.041003842 -0.20365249 -0.023870336 -0.08325598 0.122716084 -0.10003429 -0.32098973 -0.034227837 0.076731674 0.11909064 -0.056777928 0.058211062 -0.056431506 -0.15631573 -0.054558218 -0.096429594 -0.42075932 0.174587 -0.155912 0.36263666 -0.056162193 0.0039368747 -0.16831817 0.017664693 0.10895637 -0.17327568 0.17217569 -0.27985293 -0.21052842 0.08452041 -0.0023643642 0.1969251 0.1275125 0.30074507 -0.05901032 0.2386122 -0.21933854 -0.21737017 0.3200816 0.15528 -0.1365211
22 -0.11728792 0.25999245 -0.040733084 0.0048124944 -0.12758867 -0.029054053 -0.0019839462 -0.016000446 -0.014312531 -0.3711778 -0.0043494487 0.15243694 -0.21346092 -0.16520801 0.3784032 0.20399328 0.0039115506 -0.13173854 -0.060701463 0.15578057 0.005161523 -0.01770653 0.01535652 0.30194852 -0.29529822 -0.13252205 -0.39291966 0.23584057 -0.28081903 0.10454733 -0.039435443 0.44738045 -0.08894319 0.12365318 0.01166237 0.08187252 0.08704709 -0.22685365 -0.10274555 0.011224296 0.3191025 -0.25252268 0.2783409 -0.03877836 -0.38706937 -0.38158575 -0.06822703 -0.14288056 0.071819395 0.22314084 -0.03622504 -0.044088118 -0.07860866 0.01819028 0.36552662 -0.1985263 0.039737895 -0.043794062 0.06915512 0.15964998 -0.09146817 0.20279704 0.13621312 -0.15690891
13 0.007853582 0.2760817 0.0038064716 -0.031122139 -0.19743124 -0.18088444 -0.008145402 0.022797544 -0.07820937 -0.39469746 -0.1755859 0.26140773 -0.046399724 -0.018807473 0.30812886 0.21951531 0.077130176 -0.1006799 0.027375072 0.12372254 -0.26639858 -0.07699239 0.25508425 0.28588882 0.18500307 -0.17407292 -0.39269704 0.19890352 -0.3623306 0.18107484 0.078785226 0.22633733 -0.005895701 -0.11850634 0.058936253 0.15926534 -0.08978981 -0.31587824 -0.1395361 0.26225224 0.36150733 -0.14765766 0.1443893 -0.15455943 -0.35128498 -0.02651279 0.17877014 -0.18414268 0.24231507 0.059378326 0.12056941 -0.052076597 -0.15621229 -0.080150746 0.1430989 -0.05633655 0.37817892 -0.00090429175 0.106838875 -0.048451345 -0.12790549 0.28047493 0.09489879 -0.1643087
43 -0.10676735 0.17364787 -0.12726063 -0.0199796 0.00035024405 -0.034929648 -0.04621843 0.02504523 -0.028462263 -0.4252346 -0.0033598887 0.16040592 -0.27043086 -0.19145532 0.3787876 0.33337808 -0.01498909 -0.10120283 -0.11239978 0.23081733 0.16899791 0.097157724 -0.15739276 0.3160478 -0.3267461 -0.38149017 -0.38465318 0.30766702 -0.15847422 -0.07490837 0.0576957 0.60506827 -0.16520952 0.03898571 -0.06442492 -0.08405268 0.10543804 -0.2703183 -0.09829633 -0.03381234 0.3121815 -0.26179525 0.33510774 -0.04466727 -0.32622734 -0.47618517 -0.12554146 -0.13281071 -0.07654846 0.22370124 -0.038236745 -0.048200354 -0.07734944 0.04769651 0.44468978 -0.34532726 -0.039726652 -0.07104469 -0.0076954756 0.1700883 -0.07072541 0.18703328 0.111843765 -0.10047173
7 -0.34758905 0.10878589 0.025590511 0.20689824 -0.18069977 0.08395513 -0.049012654 -0.11196621 -0.11801351 -0.13817503 -0.17381541 0.44292706 -0.47405988 0.35015956 -0.00972592 0.23505445 0.27364135 0.048833117 0.13016677 0.13015178 0.12441272 0.004563507 0.062709965 0.4258819 -0.20952004 -0.017742483 -0.045086443 0.3356706 -0.14544515 -0.094540715 0.2621983 0.12840927 -0.25844538 0.19243288 -0.23364177 -0.09793036 -0.15610082 0.11194342 -0.14822257 -0.27765226 0.2220257 -0.10332636 0.42791298 0.039165873 0.18551871 -0.11838672 -0.21156351 -0.16289602 -0.11478703 -0.09193149 -0.038906664 0.14158767 0.08068135 0.0061473916 0.0029228304 0.1411913 0.042659104 -0.21482657 0.0711233 0.30541554 0.18894435 -0.024536334 0.07160434 -0.21672319
24 -0.14214478 0.110853136 -0.2387748 0.015771918 0.051911484 0.17070447 -0.14633653 -0.069331534 -0.095399976 -0.23629472 -0.16443917 0.30468476 -0.14081068 -0.10092705 0.31736666 0.268717 -0.050182227 0.016058182 0.03651835 0.11169127 0.084881455 0.004172229 0.08094016 0.27311727 -0.25101006 -0.35128358 -0.24129741 0.21643008 -0.041177977 -0.041699342 0.092492916 0.22774379 -0.12155427 0.04867413 -0.0030944431 -0.16412136 0.013112119 -0.27373487 0.069984384 -0.024069631 0.18968344 -0.15746267 0.13470417 -0.011517186 -0.21978858 -0.21072036 -0.096194975 -0.08810904 -0.027397163 0.117779404 -0.13534337 -0.078666896 0.09342144 -0.048206482 0.25468218 -0.062019046 -0.067115024 0.010979951 0.06808202 -0.029672159 0.11236398 0.14436202 0.122155994 -0.14622709
32 -0.1812373 0.06096787 -0.35132244 0.05189473 -0.110805124 0.166234 -0.29583126 -0.15759876 -0.23633817 -0.05739121 -0.23384406 0.25577095 0.00724215 -0.33149242 0.27280363 0.036960658 -0.023299512 0.024445076 0.26879916 -0.015049329 -0.029152708 0.01294977 0.39004198 0.31706175 -0.27261186 -0.29254282 -0.1236427 0.100017786 -0.113839015 0.08326975 0.10210458 -0.031230392 -0.18269712 0.2044684 -0.044535425 -0.21115024 0.14818375 -0.23031808 0.26408532 0.110234916 0.045738712 -0.1317485 0.042065077 -0.0365416 -0.32939443 0.12554447 -0.1291095 -0.1381643 0.1613516 0.03476262 -0.16585532 0.009958234 0.18701245 -0.24520849 0.08047591 0.24743935 -0.08969673 0.07519382 0.15106411 -0.15187387 0.3723419 0.15126121 0.118247464 -0.2651582
14 -0.22854762 0.21720932 -0.0047740014 0.17439255 -0.21174769 0.19178586 0.015269787 -0.0057824724 -0.06897972 -0.12294266 -0.22271082 0.46327606 -0.2789036 0.3008203 0.10648401 0.2381885 0.17864174 0.14089611 0.13657 0.078868024 -0.038901772 -0.11599487 0.15353309 0.33354625 -0.009364965 0.05343074 -0.1682028 0.17031947 -0.21807429 0.13537395 0.1282493 -0.0173011 -0.09480221 0.18283223 -0.100136034 0.06692849 -0.18907382 -0.032721054 -0.09890963 -0.11626821 0.24323346 -0.15957776 0.2231477 0.06846523 0.080228314 -0.010121229 -0.03191445 -0.04656951 0.13527447 -0.024089452 0.027609887 0.036292672 0.00060693227 -0.04940061 -0.037266564 0.22319022 0.1477713 -0.123963505 0.08720151 0.16492642 0.09909353 0.05347112 0.12314325 -0.24546865
17 -0.31387222 0.11525224 -0.12362181 0.060134925 -0.025582822 0.3331306 -0.18400252 -0.10540017 -0.10038925 -0.08034219 -0.087526605 0.2988739 -0.11468093 -0.15321088 0.28285095 -0.07220086 -0.05918123 -0.015865449 0.28782228 -0.12692088 -0.15224707 -0.24093695 0.38657957 0.10503199 -0.32696733 0.04955566 -0.08920652 0.022215927 -0.21390854 0.08051553 -0.16798612 -0.10366556 -0.0026281334 0.2540329 0.14620332 0.14116338 0.040205948 -0.13217302 0.14761443 -0.09605755 0.0944152 -0.19116487 0.08820072 0.013176799 -0.29987597 0.08121716 -0.09458547 -0.000266447 0.11975542 0.14773257 -0.2623235 -0.18577491 0.14958112 -0.17952085 0.19466285 0.40432495 0.060171366 0.16582605 0.28573644 -0.1141218 0.046261277 0.26590213 0.19025755 -0.28788376
36 -0.24621177 0.14188501 -0.36679018 0.0826399 -0.10357842 0.23000482 -0.3020897 -0.16826761 -0.2274635 0.03683521 -0.22914785 0.27018264 0.062472347 -0.42426148 0.3107687 -0.00021318757 -0.052260347 0.049014 0.31102893 -0.042206775 -0.03614214 -0.05618168 0.41027722 0.34487906 -0.34641927 -0.23792626 -0.11893454 0.023550041 -0.12439702 0.15231612 0.022771442 -0.0990372 -0.18601225 0.3501648 -0.005980344 -0.15871432 0.20724863 -0.23112833 0.32450712 0.12897296 0.019157907 -0.18060398 -0.036823556 0.038950473 -0.40595248 0.16613549 -0.17534193 -0.17728674 0.22581157 0.07555664 -0.22882125 -0.013720245 0.20537923 -0.29207483 0.1008281 0.36706817 -0.1849297 0.16107702 0.19304097 -0.08580065 0.43810484 0.16928108 0.100491986 -0.32687816
28 -0.2123897 0.20634742 0.025167298 -0.03513386 -0.11851039 -0.03165125 0.002617947 0.037592076 -0.0065433867 -0.44054163 0.12690593 0.14076537 -0.39472196 -0.15760258 0.30886212 0.12240627 -0.016295142 -0.106964946 -0.020501241 0.18300346 0.06601531 0.026835218 -0.08288349 0.251736 -0.40356296 -0.13882019 -0.32312307 0.21398774 -0.25977656 -0.05115447 -0.092659645 0.5781055 -0.1490637 0.20277643 -0.05211615 0.10886506 0.12168459 -0.077912636 -0.15283485 -0.1209528 0.27831498 -0.30583987 0.43786642 -0.07733016 -0.26655293 -0.42445394 -0.1412358 -0.1310074 -0.05994822 0.21466982 -0.064486615 -0.065840736 -0.048246343 0.10010894 0.4456944 -0.18244736 0.09184223 -0.05506435 0.09448597 0.21574047 -0.11423452 0.17245908 0.15690722 -0.12199949
25 -0.22420038 0.07972994 -0.077189006 0.06859977 -0.114319876 0.070390366 -0.19445796 -0.033495337 -0.15707229 -0.2593257 -0.13377918 0.38649467 -0.29515025 0.027511135 0.13738504 0.16277657 0.026465151 -0.06616832 0.18343322 0.09230587 -0.026446344 -0.03288561 0.08740486 0.21228082 -0.13148387 -0.16364351 -0.07295298 0.2863229 -0.16549776 -0.14402778 0.1031646 0.18195035 -0.13953526 0.012060989 -0.07878942 -0.046176206 -0.046738297 -0.08265992 -0.026651926 -0.11262692 0.16024515 -0.05853512 0.2847532 -0.03738759 -0.09592611 -0.021911517 -0.18421642 -0.17557438 -0.038523275 -0.044876844 -0.10250876 -0.05631305 0.03507808 -0.08416288 0.18219599 0.108092375 0.1582546 0.060627285 0.13762489 0.004328535 0.097609 0.12831531 0.11261446 -0.20296186
27 -0.17466356 0.18869752 -0.10339777 0.16197681 -0.15297294 0.15113288 -0.07461013 -0.021548338 -0.110174514 -0.09556755 -0.3000691 0.4580743 -0.16364281 0.2222895 0.14831349 0.2685907 0.15479557 0.12576199 0.13374898 0.050217163 -0.016715843 -0.09794921 0.18061326 0.36579508 0.035031807 -0.10868949 -0.20546786 0.19394165 -0.19661921 0.13308965 0.22685836 -0.021247527 -0.076699644 0.056717575 -0.1384129 -0.040404096 -0.15972285 -0.09806671 -0.017274426 -0.026814785 0.25299937 -0.09620565 0.13575573 0.064865485 0.006161392 0.010578254 -0.059111167 -0.053379554 0.104957126 -0.0010748659 0.027971938 0.081595436 0.01784881 -0.16095363 -0.023096964 0.16105215 0.07282147 -0.08343795 0.010511524 0.06986554 0.20233274 0.07764842 0.08668414 -0.25445688
38 -0.26194584 -0.07163484 -0.100862555 -0.06280858 0.062232126 0.37942463 -0.21395588 -0.145482 -0.038600646 -0.2088958 -0.11286605 0.454642 -0.30854243 0.1463581 0.16051953 -0.020360103 -0.043571956 0.02081809 0.3058661 -0.096194424 -0.13696395 -0.19846867 0.42873442 0.009540091 -0.20991565 -0.05587701 0.050720774 0.13245887 -0.08311548 -0.21286261 -0.042259715 -0.078587376 0.018186554 -0.05204683 0.12471605 0.03350715 -0.1488886 -0.064735465 0.124087624 -0.223015 0.03295264 -0.08545357 0.23199823 -0.13938233 -0.07442578 0.035307303 -0.08917544 0.025493603 -0.032877572 0.05269217 -0.2193311 -0.20913407 0.26953617 -0.09266627 0.17314416 0.32585537 0.23274878 0.13000533 0.2935688 -0.30655625 -0.04574823 0.31959873 0.17013924 -0.17687719
15 -0.08303007 0.08551247 -0.10362937 0.13951558 -0.027603602 0.15256138 -0.0032113905 -0.035792172 0.045831885 -0.14626311 -0.28483695 0.3817199 -0.20004022 0.152391 0.24297068 0.24105732 0.15638459 0.16290797 0.08496802 0.1419106 -0.011070831 0.0007246569 0.21520042 0.36972836 -0.047047462 -0.11295264 -0.2413892 0.04528905 -0.13966301 0.06763974 0.12823978 0.030155517 -0.06399735 0.15588786 -0.07184477 -0.13442442 -0.04420182 -0.1017886 -0.04907184 -0.045826826 0.18954815 -0.28574753 0.18101941 0.052529033 -0.071568206 -0.114339635 0.16261998 -0.014331853 0.22292566 0.09841124 -0.050600328 0.022329766 -0.02657044 -0.07848149 -0.06504509 0.09226918 0.13402592 -0.23100778 0.10095155 -0.024895763 0.11198171 0.20458479 0.0901964 -0.17602664
20 -0.3278324 0.1560067 -0.19479848 0.07139822 -0.10665857 0.26453707 -0.1704161 -0.121177785 -0.14453918 -0.021812689 -0.11771568 0.31853732 -0.08563554 -0.25211367 0.24091557 -0.0646409 -0.023786638 0.017650573 0.28642514 -0.048512895 -0.08786031 -0.15448691 0.3482364 0.26575074 -0.36397007 0.008581827 -0.08999399 -0.0114850355 -0.18766421 0.104982235 -0.09666767 -0.08006616 -0.13680312 0.4255345 0.080179475 0.03816714 0.13942014 -0.11936734 0.18474613 -0.00035862843 0.042196464 -0.22696565 0.08730344 0.05461275 -0.303194 0.12692323 -0.15751465 -0.16376011 0.22485967 0.127595 -0.24612808 -0.095890224 0.17262855 -0.16843665 0.1724103 0.4116356 -0.04396646 0.1288631 0.26924297 0.01293031 0.19823758 0.1951011 0.11730555 -0.32609406
35 -0.14688395 0.044332784 -0.14170252 0.055322878 0.27561572 0.39680147 -0.072090715 -0.11319028 -0.012511159 -0.18218791 -0.22325745 0.47224423 -0.29731217 0.30026963 0.35539162 0.2973362 -0.06724491 0.029531201 0.08606132 -0.021662401 0.10390773 -0.1581726 0.16835046 0.08426722 -0.14202257 -0.215999 -0.1981135 0.163495 0.028164452 -0.16355993 0.10190803 0.023098899 0.1293433 -0.082663104 0.025341418 -0.18944854 -0.14225516 -0.25951388 0.033986293 -0.27621672 0.21663302 -0.09190433 0.12501407 0.019253846 -0.1093416 -0.18904567 -0.002037238 0.14537735 -0.21036507 0.11519613 -0.295199 -0.18219055 0.09681365 -0.028553922 0.18076731 0.04198747 0.0821605 -0.056133952 0.13034666 -0.21920384 -0.03625972 0.24070211 0.120421 -0.097404614
30 -0.31696343 0.15584023 -0.031297583 0.27582553 -0.25595635 0.34560755 -0.113775246 0.023704393 -0.15056995 0.0076314555 -0.27377737 0.5739842 -0.3422241 0.3459176 0.05419251 0.24187846 0.20563978 0.18651079 0.17873615 0.043710332 0.100142 -0.108547576 0.03825306 0.33452016 -0.06709879 0.018523626 -0.11342758 0.2646572 -0.19189392 0.08855788 0.23676534 -0.064928815 -0.11078288 0.14831217 -0.2548474 -0.018373769 -0.21066144 0.072243996 -0.079524025 -0.22608502 0.2471493 -0.035908096 0.25651112 0.18325534 0.21105488 -0.027731486 -0.20522217 0.02927937 -0.013672204 -0.037191637 -0.009209472 0.13384159 0.034359727 -0.13987848 -0.047849156 0.2759128 0.033876818 -0.094766214 -0.014101916 0.20486738 0.2932363 -0.0565072 0.15935811 -0.29615027
21 -0.024789508 0.22886057 -0.036964603 0.1148589 -0.19198567 -0.08260905 0.019685999 0.031928632 -0.04025127 -0.2773942 -0.34676158 0.45775682 -0.08109087 0.22059809 0.21343382 0.38766503 0.21671262 0.033821292 -0.013760184 0.1717101 -0.1187422 -0.04434325 0.12645352 0.40878573 0.29454497 -0.19601583 -0.36255395 0.25722843 -0.3002916 0.13861535 0.2851313 0.11026998 -0.016695194 -0.12549007 -0.027789002 -0.0019932794 -0.18419501 -0.27654025 -0.18396884 0.16645181 0.39816296 -0.1338979 0.1719771 -0.027112741 -0.09957505 0.011574331 0.18154137 -0.1660069 0.24217996 0.03597924 0.15171157 0.051860254 -0.18809272 -0.122577615 -0.020067047 -0.03525638 0.29216868 -0.12741728 0.015152735 0.08954334 -0.031055223 0.18886752 0.01695752 -0.18987687
23 -0.020795405 0.24509673 -0.03285172 0.08745827 -0.25041723 -0.13606992 -0.03553831 0.034381248 -0.10018959 -0.33123082 -0.34543037 0.4643488 -0.09060266 0.21916005 0.20570035 0.3917917 0.17892703 0.04532507 0.014163099 0.18516034 -0.15652646 0.009434914 0.18313155 0.40399057 0.34138322 -0.3179035 -0.3620803 0.3184691 -0.28102234 0.14819139 0.31340858 0.17707695 -0.06049632 -0.243638 -0.08985525 -0.012670863 -0.2277249 -0.26186678 -0.20088716 0.19449927 0.4113569 -0.048382692 0.15695582 -0.08364523 -0.072580494 0.012527549 0.1809274 -0.15696728 0.19794022 -0.061721038 0.20356102 0.08387067 -0.16235052 -0.12414012 -0.026689589 -0.038668495 0.3386886 -0.10363621 -0.028343873 0.012244626 0.07860948 0.14531632 0.07422839 -0.1476103
31 0.027212035 0.23665038 -0.018745273 -0.06331782 -0.28189227 -0.18305808 -0.11562673 -0.0003073126 -0.1844731 -0.4183982 -0.25593787 0.34622017 -0.061515417 0.016098982 0.26051676 0.21328905 0.059836477 -0.08288849 0.07487634 0.17436157 -0.28500667 0.018791217 0.37130207 0.28736466 0.32130617 -0.3711167 -0.36252633 0.3399082 -0.3371645 0.18856108 0.18625164 0.22822219 -0.061579898 -0.37384945 -0.005709831 0.053201538 -0.2052727 -0.33446622 -0.12045055 0.3108035 0.3474733 0.017681766 0.13935056 -0.22646785 -0.28153956 0.01191122 0.21967193 -0.1853593 0.20510115 -0.07233292 0.21699046 0.03311804 -0.09154861 -0.120703764 0.06536701 -0.056863498 0.4273544 0.057142247 0.075032525 -0.17849976 0.081640616 0.21082284 0.15966704 -0.13113305
19 -0.043085296 0.07813261 -0.10591811 0.12265556 -0.066092774 0.17827597 -0.1213206 -0.03848654 0.0063385363 -0.1764187 -0.3292897 0.3606192 -0.11610463 0.09103481 0.29055396 0.2020102 0.06393622 0.124928854 0.14467636 0.08553951 -0.11523817 -0.02127706 0.3214503 0.2573903 0.008403521 -0.16987689 -0.25294316 0.11480535 -0.16949517 0.1223169 0.08714945 -0.021433894 0.012073966 -0.025179993 -0.05184842 -0.09722609 -0.09556004 -0.16620407 0.010439493 0.008647094 0.19355197 -0.1612508 0.08193654 -0.0029427414 -0.15438965 -0.056315962 0.19439143 0.043269742 0.2102186 0.063783295 -0.04724305 -0.010074025 0.011967996 -0.18775576 -0.07113607 0.12164932 0.18320785 -0.11256728 0.11198828 -0.18919054 0.14734134 0.23412922 0.1515327 -0.15081453
39 -0.24064967 -0.084016226 -0.012477071 -0.15132743 0.13191392 0.4477843 -0.25085276 -0.10944364 -0.004791588 -0.31298113 -0.034028787 0.48714337 -0.3904073 0.13442746 0.26767692 -0.14829001 -0.16435307 -0.08220657 0.3479268 -0.13937008 -0.29595438 -0.29114202 0.5242722 -0.16405259 -0.1934438 -0.00037228837 0.026440287 0.07783796 -0.17425998 -0.26397496 -0.21692497 -0.034463663 0.15755083 -0.1894266 0.2331954 0.18499382 -0.182119 -0.072530136 0.090167984 -0.25355503 0.044038564 -0.08062741 0.24692088 -0.23595598 -0.20460092 -0.0054825074 0.0009072162 0.107699014 -0.05678644 0.14704122 -0.29070306 -0.34822953 0.29778096 -0.0895778 0.28905207 0.35067126 0.40137613 0.2681248 0.40036023 -0.540655 -0.2114011 0.49969387 0.26147 -0.1441687
48 -0.2789985 0.034125727 -0.18578549 0.090670235 -0.17050084 0.22358078 -0.21167791 -0.12244197 -0.10421652 -0.006749916 -0.1610024 0.28524363 -0.21491605 -0.1486414 0.22035003 0.015146019 0.058345694 0.13979486 0.189213 0.018623035 0.06547365 0.026933042 0.2778776 0.3134693 -0.39615342 -0.14313021 -0.14053732 0.09888777 -0.13909526 0.0537733 0.05899697 0.057617966 -0.17919362 0.28380656 -0.15720296 -0.14259425 0.12580855 -0.002625755 0.13101418 -0.08276312 0.094446495 -0.20493487 0.16137372 0.040731784 -0.10311563 -0.0928383 -0.15905309 -0.057071377 0.077129714 0.10500834 -0.14485122 0.1119457 0.1946275 -0.16877735 0.062414557 0.23920454 -0.14202204 -0.034023054 0.0683929 0.029043876 0.39954334 0.04854567 0.1791997 -0.24051756
45 -0.3113888 0.1324345 -0.33103284 0.10855162 -0.123598695 0.27208412 -0.23603357 -0.1541411 -0.17932037 0.02640382 -0.14782432 0.22379161 0.0804072 -0.4609893 0.34616366 -0.05820846 -0.052540474 -0.006271241 0.25613376 -0.08878418 -0.033844214 -0.1409327 0.3288494 0.30080926 -0.47937292 -0.09179798 -0.13982993 -0.0071971645 -0.1687164 0.18264474 -0.06810762 -0.08860445 -0.13628973 0.44080615 0.11547231 -0.03189487 0.2646488 -0.23972227 0.28707635 0.086609766 0.066620044 -0.25496542 0.0038717296 0.091981985 -0.4256838 0.10280013 -0.17731479 -0.15565614 0.25546008 0.20287852 -0.28627566 -0.0834676 0.15081733 -0.2509912 0.20087175 0.37141412 -0.19564706 0.1428111 0.21802428 0.027376361 0.26962543 0.17880033 0.09096969 -0.36670113
40 -0.3393291 0.055794843 -0.0049526985 0.09861508 -0.1370188 0.27136406 -0.09688909 -0.07408315 -0.082413815 -0.15854998 -0.09095369 0.40465194 -0.4149475 0.17673498 0.08461354 0.02912728 0.10830482 0.04355318 0.21124557 0.040687457 -0.013793639 -0.10951074 0.20768078 0.1985016 -0.29052275 0.07354713 0.015177321 0.18041657 -0.15203066 -0.08312956 0.028543178 0.037044194 -0.15684706 0.20983264 -0.06299738 0.051758055 -0.09701198 0.103917204 -0.053552523 -0.25748983 0.123963356 -0.1513728 0.33655378 0.011444043 0.053179182 -0.0431001 -0.14741273 -0.04353381 -0.03295253 -0.009462085 -0.1563174 -0.040439934 0.17153901 -0.0005120558 0.0976229 0.2991686 0.12258384 -0.05937242 0.19693844 0.06905769 0.07736924 0.079751275 0.15595207 -0.21731263
49 -0.15221743 0.15950099 -0.20020097 -0.016657239 -0.13009734 -0.18007347 -0.12810098 -0.009599632 -0.185035 -0.35528138 -0.08359574 0.17525418 -0.18355301 -0.22852144 0.2422901 0.2888392 0.046104778 -0.11374319 -0.0071042012 0.22016673 0.11676944 0.0985597 -0.10079079 0.40361392 -0.22541663 -0.3789995 -0.29625583 0.33564785 -0.16222954 -0.074597046 0.18863967 0.48274907 -0.26614425 0.10364179 -0.12144334 -0.13209993 0.14483559 -0.26128528 -0.013931024 0.08548288 0.25265196 -0.18879578 0.31513736 -0.04477079 -0.30082825 -0.23480354 -0.23545845 -0.32427004 -0.01271608 0.06159995 -0.016140014 0.021771878 -0.08071755 -0.015352969 0.35535303 -0.23829748 -0.011007602 -0.039969638 0.008159177 0.20459113 0.065237656 0.11998599 0.021430457 -0.17994076
37 -0.314704 0.046872657 -0.11465692 0.050255314 -0.24547477 -0.00016311748 -0.23444617 -0.08728244 -0.27024436 -0.13471708 -0.16763845 0.39920056 -0.35983643 0.007804818 -0.017174171 0.14954327 0.1296531 0.027162397 0.20368275 0.14550689 0.09664981 0.05955923 0.10355037 0.37845823 -0.18412974 -0.22173981 -0.01734003 0.3082741 -0.0783719 -0.15234658 0.27785596 0.14192334 -0.3406846 0.16083585 -0.23715052 -0.16859652 -0.033274822 0.006439375 0.033308897 -0.06482695 0.10473655 -0.04589426 0.3382689 -0.035342067 0.043466855 0.036367096 -0.32362807 -0.31077322 -0.078649305 -0.17702718 -0.0499457 0.099765636 0.12818037 -0.035930403 0.106100425 0.1371256 0.023344299 -0.026381887 0.07708958 0.15559721 0.31489402 -0.0067521343 0.07987461 -0.19750972
16 -0.18072012 0.09015297 -0.057599384 0.14434355 0.0057191895 0.14833933 0.01025156 -0.07750722 -0.02220795 -0.14606583 -0.2642202 0.50695586 -0.36750913 0.38849655 0.13625517 0.33924013 0.21978515 0.15150318 0.051224504 0.154311 0.104695484 -0.039269764 0.092862986 0.38127026 -0.07185858 -0.08845588 -0.15783645 0.18128458 -0.050878298 -0.120233305 0.2676022 0.055464037 -0.13505492 0.14500877 -0.116429284 -0.15976793 -0.16238047 -0.046619657 -0.09359488 -0.18644668 0.21609911 -0.2178572 0.2839525 0.03052439 0.13046336 -0.108386844 -0.0072183614 -0.10030062 -0.008251984 0.0041185673 -0.070816435 0.02519484 0.026768029 0.043338187 -0.008128052 0.084331356 0.09963222 -0.26869363 0.078118734 0.11180003 0.05679628 0.09788649 0.024463514 -0.1518493
47 -0.06134853 0.19296926 -0.11577734 -0.074080385 0.09421658 0.02632997 -0.039422095 0.0325144 0.003752166 -0.42620525 0.032488685 0.1350813 -0.20028006 -0.18876468 0.45089462 0.21097495 -0.110001266 -0.12312263 -0.049787447 0.11242668 0.035271447 -0.042237226 -0.0066123046 0.18794209 -0.300508 -0.26247567 -0.4268129 0.15720405 -0.19338629 -0.025690682 -0.089464955 0.49197423 -0.0029186758 0.038095113 0.054732244 0.052723713 0.10036701 -0.29357678 -0.02438252 -0.01382522 0.27712327 -0.2935023 0.24062815 -0.07593998 -0.44344693 -0.41676298 -0.04597661 -0.049500395 -0.045312293 0.2974146 -0.11677379 -0.16755669 -0.07670917 0.02453381 0.4790065 -0.25099444 0.08344273 0.0049898596 0.09767609 -0.017549714 -0.18923956 0.30687162 0.13620232 -0.107739024
41 -0.14909376 0.073994555 -0.24451081 0.067540675 -0.011938272 0.20767254 -0.16641709 -0.08051606 -0.0683515 -0.14178035 -0.2164914 0.29773656 -0.064865045 -0.09676626 0.31435505 0.16011338 0.011456758 0.07317524 0.08325754 0.039352555 0.0412231 -0.032615356 0.21115977 0.2797137 -0.22260286 -0.26123425 -0.2041084 0.13614252 -0.11020684 0.05056985 0.09561452 0.07425464 -0.07564134 0.07010892 -0.0031755364 -0.15026252 0.05734696 -0.23449603 0.10570416 -0.0035845067 0.17131583 -0.17612787 0.09547925 0.027843514 -0.21231389 -0.10550048 -0.029825052 -0.037386432 0.08022306 0.15866226 -0.11508343 -0.012411855 0.09983331 -0.15570956 0.13404112 0.07826909 -0.053260557 -0.030478977 0.07094655 -0.055943992 0.17380863 0.16159935 0.11356191 -0.22402418
34 -0.30482417 0.21662419 -0.045532636 0.25572908 -0.3295518 0.20856614 -0.07392035 -0.031443913 -0.17642276 0.01440086 -0.29481456 0.50631016 -0.14061134 0.24118286 0.0051426953 0.118353374 0.24027508 0.15236767 0.25491783 -0.0036850057 -0.12716146 -0.16345005 0.28388345 0.3886209 0.028391043 0.11146436 -0.10030589 0.1710119 -0.29658285 0.25774446 0.15039086 -0.20467547 -0.12476611 0.20568341 -0.1175718 0.11292671 -0.15921979 0.028719269 -0.064115696 -0.044030655 0.22676933 -0.06255405 0.16027527 0.13689618 0.09476793 0.20283113 -0.087642424 -0.07403238 0.25607288 -0.06280672 0.052594908 0.11303255 0.038004905 -0.20941515 -0.1303184 0.46190464 0.13260232 -0.044710096 0.08636444 0.1685408 0.27405304 0.00013147082 0.12228307 -0.3657635
44 -0.11247317 -0.0074415226 -0.26987493 0.038003236 0.33005026 0.27311993 -0.13290758 -0.15335087 -0.053079866 -0.17432255 -0.21197341 0.45054826 -0.1889652 0.17561424 0.3358742 0.3138951 -0.08584061 -0.00087967684 0.07046344 -0.03515633 0.11110955 -0.1161193 0.14609204 0.15659048 -0.16468443 -0.32727873 -0.20430021 0.14582346 0.064291656 -0.26125532 0.13515003 0.026085738 0.07873287 -0.10372041 0.08881156 -0.2827322 -0.06329484 -0.37707582 0.1011174 -0.19512752 0.19093587 -0.111655526 0.15314026 -0.053844027 -0.17328037 -0.110735446 -0.019542571 0.012801911 -0.16122633 0.15766163 -0.29122567 -0.20766148 0.059841532 -0.037662048 0.21196485 0.013853939 0.10326712 -0.03597304 0.14605854 -0.22330482 -0.09107878 0.28491607 0.033663545 -0.10856462
33 -0.24956526 0.097408704 -0.013080427 0.011422915 -0.14810166 0.3797239 -0.23232032 0.015064933 -0.13492878 -0.24741207 -0.080055915 0.3331241 -0.36992884 0.038612373 0.2268086 -0.049261108 -0.056505144 0.08445113 0.29539594 0.0032388172 -0.17592505 -0.0753943 0.41489765 -0.00962812 -0.17386794 -0.095958926 -0.080981724 0.18716672 -0.22987682 0.109938234 -0.16350855 0.051414758 -0.04897109 -0.05556469 -0.03307752 0.1476164 -0.18031597 0.031380516 -0.029160786 -0.18926017 0.1142588 -0.055679914 0.2177648 -0.08545944 -0.09885151 -0.03340381 0.026695082 0.20060383 0.0008931969 -0.04947272 -0.07738279 -0.102130376 0.2030167 -0.09646891 0.07690834 0.3168617 0.23600398 0.090468764 0.19174118 -0.30957943 0.17621069 0.13511698 0.39744988 -0.1728556
29 -0.24732421 0.04711503 0.046790443 0.073992096 -0.059410024 0.22698113 -0.10690272 -0.008100114 -0.11392726 -0.2823345 -0.04961193 0.45674682 -0.41169646 0.24691579 0.12360284 0.04573306 0.02216557 -0.088465296 0.23640172 0.01520902 -0.06055087 -0.16826445 0.09766789 0.10861875 -0.107249744 0.031941485 -0.012790614 0.24522123 -0.23281737 -0.18836331 0.020846168 0.15046637 0.010445063 -0.027136099 -0.030483099 0.08882847 -0.11311744 0.022623697 -0.06929657 -0.282975 0.16661336 -0.047155403 0.4076108 -0.057885118 -0.04567878 -0.03985918 -0.17239611 -0.03206172 -0.10438562 0.027467895 -0.13710327 -0.13716023 0.032975283 -0.05401314 0.21220107 0.17660652 0.32601503 0.038196806 0.22750099 -0.041163314 -0.10983569 0.229396 0.098916635 -0.22681087
46 -0.19975573 -0.103706755 -0.15264276 -0.10187942 0.15418807 0.3156187 -0.27191123 -0.1544278 -0.072385564 -0.24426877 -0.11932919 0.3968177 -0.2931544 0.020948341 0.22227038 -0.041230086 -0.071867146 -0.031404916 0.32904175 -0.07243984 -0.15040883 -0.14770268 0.49179387 0.010399316 -0.24521227 -0.13964094 0.09090649 0.117025025 -0.0463143 -0.2789769 -0.035313856 -0.022440907 -0.028301056 -0.057268325 0.11208849 -0.060078647 -0.08678566 -0.07545929 0.1946306 -0.16382666 -0.040198687 -0.12614237 0.19446184 -0.18940036 -0.19882645 0.041882295 -0.09479073 -0.017304532 -0.062417682 0.029240442 -0.271779 -0.21011326 0.30164832 -0.12155497 0.20687239 0.26302686 0.20644794 0.14677572 0.34741658 -0.42637855 -0.026777469 0.39538333 0.155574 -0.16546461
42 -0.03593417 0.15301065 0.008842378 -0.034036875 -0.27050975 0.031764854 -0.1628456 0.028054198 -0.13814759 -0.4016446 -0.14678007 0.26293164 -0.13009308 0.008648913 0.26478612 0.0359415 0.017719608 -0.021686776 0.16027676 0.05897721 -0.3183409 -0.026214017 0.4377826 0.123433396 0.15708193 -0.2308783 -0.2383898 0.25992578 -0.35304457 0.20650002 0.004606547 0.15530497 -0.0030952236 -0.3112409 0.0043749167 0.15183699 -0.17653927 -0.1855503 -0.11473218 0.13546263 0.28627276 0.002719441 0.1802341 -0.20747511 -0.23964228 0.0017850924 0.21094933 0.042899694 0.13894732 -0.036891144 0.12254791 -0.024170667 0.028016713 -0.13942061 0.045705803 0.10189758 0.42896238 0.061384145 0.10489886 -0.2922323 0.045006916 0.20711128 0.28046256 -0.16247122
