50 64
2 -0.056261238 -0.05676515 -0.14781864 0.124893345 -0.07023981 0.05887507 -0.046902053 0.04750628 -0.04655464 -0.03277929 -0.17074162 -0.12649964 0.047911394 -0.15366215 -0.17234282 0.010654334 -0.19959036 -0.033370655 -0.091706425 -0.045126155 -0.21967019 0.017002316 -0.107179925 -0.08241824 0.13471024 0.3146057 0.25966406 -0.28442702 0.10090734 0.17830479 -0.03795129 -0.028062114 -0.25936934 -0.10699716 0.17687199 -0.07366495 -0.09146913 0.12371433 0.052761868 0.18489012 -0.29322654 0.28343558 0.14297663 0.18663414 -0.07042469 -0.086070135 -0.19315173 -0.28664503 0.07096251 0.21175003 -0.13044506 -0.07882657 -0.21941873 0.44561207 0.17682473 0.084912054 0.13540855 -0.14023495 0.23492837 -0.23102866 0.05464553 0.038976338 0.050352316 0.18222757
1 -0.24221437 0.10438145 0.09888426 -0.12906513 -0.009804288 0.021841913 -0.09591767 -0.0676608 0.04040251 -0.12472407 -0.18823923 -0.16966856 0.16257364 -0.22866888 -0.0009454238 0.059949063 -0.1729087 -0.0745571 0.053721566 -0.010584449 -0.093687095 0.0054257996 -0.13866356 -0.0740514 0.07913036 0.11871619 -0.0071697654 -0.15155408 0.089183025 0.11051024 -0.032040823 -0.14888111 -0.29378897 -0.04091116 0.059023134 0.051021256 -0.10983688 0.12503484 -0.066007964 0.28071538 -0.2288889 0.19907951 -0.01869952 0.22568743 0.016070904 0.035127584 -0.23845533 -0.12082657 0.25345796 -0.005321509 -0.22927399 -0.002092282 -0.1894988 0.35914087 0.15454079 -0.106342524 0.06612974 -0.038705885 -0.005206677 -0.0013919558 -0.104219705 0.021365874 0.05622111 -0.0642474
9 -0.08070444 0.00923756 -0.054903407 0.06931517 -0.10343532 0.08131002 -0.062271252 -0.12290653 -0.090574734 -0.16178195 -0.0989277 -0.15309517 0.040364627 -0.28782266 0.0854713 0.096052594 -0.14546591 -0.06941624 -0.09313767 -0.032055233 -0.43838066 -0.17225072 -0.020772364 -0.14865015 0.042795137 0.24353336 0.11071143 -0.2345971 0.1450369 0.18541366 -0.008981064 -0.044779923 -0.121138565 -0.14276065 0.040942095 -0.10133865 -0.109599605 0.21391577 -0.023463855 0.077100076 -0.23333634 0.18478812 -0.09659679 0.27458152 0.026566254 -0.13169572 -0.26651555 -0.17821027 0.23768435 0.06879085 -0.17652923 -0.05674231 -0.2042269 0.2863613 0.3596933 0.08848294 0.12378812 0.017544854 0.11255166 -0.20394376 0.16315272 0.054048505 0.018889895 0.1504563
3 -0.22619432 0.13033417 -0.075895004 0.10261748 0.008029939 0.034456976 -0.13217333 -0.09325445 0.020831514 -0.1438053 -0.18326846 -0.22889286 0.11433199 -0.2278413 0.06049451 -0.058319326 -0.19103728 -0.03858331 -0.06517362 -0.04894491 -0.0989734 0.11176805 -0.16796255 -0.040837597 0.06948916 0.1371026 0.0037926284 -0.036033377 0.026966302 0.123410836 -0.024313081 0.029709898 -0.23382702 -0.061750684 0.13196374 0.068676725 -0.16473025 0.1481496 -0.13247818 0.3492106 -0.30019963 0.22822629 0.03260698 0.1229543 -0.10891213 0.013149213 -0.1450523 -0.040031075 0.25785887 0.0515935 -0.22860315 0.029468179 -0.187695 0.27909088 0.047978424 -0.09373908 0.091715395 0.030673895 0.0671388 -0.089040376 -0.111749396 0.03529696 0.06888984 -0.057933424
6 -0.25304568 0.06731804 0.104380906 0.056837894 -0.012942342 -0.1216642 -0.085061334 -0.11119401 -0.19705927 -0.1282847 -0.17843129 -0.19811073 0.044776335 -0.13530643 -0.13887031 -0.15901546 -0.07973842 -0.12852176 -0.15748404 -0.038028326 0.054153208 0.093305536 -0.11359889 -0.060635604 0.09719537 0.15446565 -0.007613791 -0.11623 0.020107536 0.0063687596 0.07695179 -0.055370107 -0.33320758 -0.0789665 0.09795356 0.16838017 -0.09834499 0.14161609 -0.19828776 0.26416066 -0.24708545 0.3003851 0.19851694 0.2574524 0.00043496807 0.009659825 -0.054341406 -0.2524621 0.1472421 0.095851235 -0.091637865 0.09190017 -0.21680275 0.3449322 0.11068045 0.04256724 -0.03091317 -0.12351774 0.17211287 -0.01810921 -0.24551834 0.042333607 0.06407144 -0.035858482
12 -0.43709558 0.16247475 -0.021155214 -0.020519616 0.20437995 -0.075913236 0.0063236128 -0.3609856 0.13054296 -0.39355266 -0.25646862 -0.3588966 0.08983326 -0.44547492 0.40465382 -0.010075487 -0.15580907 -0.10044235 -0.108699135 0.048522264 -0.16282244 0.032275885 0.008819712 -0.10242473 -0.086882606 0.020060632 -0.08963149 0.1760248 -0.08747238 0.07911781 -0.03463524 0.05097604 -0.31771606 -0.1117683 0.20539227 0.14261417 -0.2745943 0.214073 -0.22822374 0.39273906 -0.34397185 0.1383046 -0.13837734 0.18854392 0.027461816 0.039460987 -0.13863827 0.09872313 0.49132195 -0.14773202 -0.29549775 -0.065443926 -0.19797488 0.14824568 -0.013809632 -0.05958849 0.029812278 0.19822691 -0.06476257 0.018756699 -0.106100544 0.0023092278 0.16266319 -0.11757631
0 -0.20306866 0.1936412 -0.105174884 0.094064154 -0.06647294 0.027105518 -0.2117404 0.023910776 -0.093366876 -0.06825932 -0.24779347 -0.16934085 0.08819582 -0.11699048 -0.13010603 -0.087072454 -0.16353768 -0.11031631 -0.021898454 -0.120340675 0.002863308 0.13920835 -0.20000863 -0.0019452902 0.06745595 0.15538792 -0.028010366 -0.11911956 0.063986726 0.031986967 0.00055706315 0.065978594 -0.23598453 -0.106506005 0.08247391 0.13953368 -0.10793737 0.18931296 -0.13461608 0.3348673 -0.2642979 0.24943398 0.20976506 0.23835813 -0.095478594 -0.0010363959 -0.04624894 -0.12855211 0.16980453 0.12500773 -0.14694037 0.005332868 -0.19682766 0.32379597 0.10706674 -0.09720406 0.08721858 -0.0922986 0.17513025 -0.07190113 -0.19062693 0.093483485 0.089900605 -0.1328292
8 -0.35264274 0.13480893 0.008928358 -0.011870511 0.12798731 -0.06418893 -0.038277555 -0.2931633 -0.024998013 -0.3234104 -0.29336408 -0.2254095 0.0021055087 -0.4131444 0.21326986 -0.0743776 -0.036014564 -0.21707778 -0.11605173 -0.040679846 -0.058235183 -0.06004361 0.048035145 -0.06945894 -0.08034191 0.06228027 -0.044176288 -0.014546335 -0.05741346 0.0019316359 -0.006229914 0.019940404 -0.26112247 -0.18359214 0.12081751 0.15000565 -0.25560346 0.27130765 -0.19686535 0.26295066 -0.19440113 0.17159122 -0.025589222 0.33402964 0.104390316 -0.02050402 -0.07211399 -0.03188502 0.38016313 -0.068502195 -0.17270668 -0.08412189 -0.24085607 0.1299664 0.093724966 0.022086203 -0.05571928 0.066879414 -0.0022788998 0.0024020532 -0.10491574 -0.004248235 0.14196506 -0.15748198
4 -0.24701042 0.29207617 -0.08866328 0.105960555 -0.074617915 0.13424787 -0.35047138 0.042519417 -0.02491349 -0.04708373 -0.24350302 -0.2554152 0.20111403 -0.08488252 -0.1257295 -0.10201329 -0.23985468 -0.061550684 0.037304286 -0.23200396 0.07992506 0.20524278 -0.3799904 0.07564585 0.05785411 0.11357583 -0.21154465 -0.09551972 0.10628981 0.046627104 0.0058234646 -0.021685226 -0.24311091 -0.043853004 -0.0243933 0.22916168 -0.097053505 0.1272417 -0.15381593 0.5315796 -0.25961244 0.20383126 0.12767676 0.12599432 -0.23015152 0.008140602 -0.08711828 0.036527216 0.19640328 0.0938092 -0.31154612 0.115511045 -0.14566767 0.32627216 -0.0017855469 -0.3001766 0.119791105 -0.10803 0.10896719 -0.028007988 -0.29911175 0.14612958 0.0674828 -0.31739667
10 -0.18662399 0.03598623 -0.05682346 -0.121855736 0.15839057 0.05201878 -0.017617257 0.11941704 -0.04760878 -0.14315966 -0.32513568 -0.17110394 0.04339826 -0.2766492 -0.09601284 -0.041846268 -0.016818494 -0.31829828 0.00554755 -0.2144575 -0.044053033 -0.094594024 -0.01781186 -0.09816685 -0.03754397 0.21447122 0.112386934 -0.40421596 0.18374602 -0.033960648 0.040043984 -0.15440604 -0.2779953 -0.2463864 0.019932233 0.026634037 -0.15122847 0.2890856 0.14587565 0.2085413 0.002663304 0.12854192 -0.040318016 0.33537728 0.13840146 -0.19712165 -0.07655437 -0.20190664 0.087634616 -0.021370322 -0.29762682 -0.24222583 -0.2444925 0.17142422 0.2620128 -0.04743499 0.05124769 -0.16879436 -0.0055549047 -0.17234205 -0.058866985 0.023686692 0.08019247 -0.07995696
18 -0.050147504 -0.010371502 -0.0059564495 0.037086945 -0.046732478 0.14897546 -0.09727263 0.07238146 0.04885963 -0.003018422 -0.0568678 -0.19144899 0.1631209 -0.20630755 -0.09724337 0.09710827 -0.22263831 0.020171424 0.045597572 -0.033503987 -0.27684414 0.03647209 -0.21546498 -0.10880185 0.14390284 0.21301043 0.08889404 -0.25249502 0.21255255 0.19985047 -0.070166446 -0.1579748 -0.20914212 -0.00047090245 0.09517798 -0.085090056 -0.034526154 0.06986378 0.0645001 0.22256556 -0.2539763 0.2281631 -0.025249157 0.098221645 -0.108112425 -0.00072605076 -0.32423982 -0.17176382 0.21172693 0.10498956 -0.23132938 0.0051517636 -0.15793315 0.43175516 0.22183488 -0.13248456 0.17967263 -0.06236595 0.038211264 -0.17386411 0.07353234 0.03085535 -2.0356718e-05 0.10114292
26 -0.1872478 -0.0060401047 0.013970333 -0.099619046 0.0037524719 -0.036005028 0.11659166 -0.071810596 -0.08727652 -0.25424826 -0.14469138 -0.14666352 0.09682943 -0.14711323 -0.055449598 0.24360564 -0.15014678 -0.07408753 -0.026621487 -0.03837071 -0.420507 -0.18482581 0.072138146 -0.14024782 -0.016413864 0.16544522 0.0577761 -0.25843084 0.1373183 0.11390794 -0.02799266 -0.15202174 -0.30148706 -0.04344588 0.06939688 0.0012521575 -0.0021712813 0.05125441 0.08299895 0.008204121 -0.24077335 0.062048536 -0.0029147419 0.30715775 0.13993126 -0.17660753 -0.1907048 -0.25126204 0.1977779 0.042136114 -0.18249294 -0.23769394 -0.1413585 0.4317396 0.38237122 0.15611312 0.079108045 -0.19164854 0.22679718 -0.17282403 0.06039134 0.04382186 0.097372085 0.26993877
11 -0.13492091 -0.108299464 0.10411827 0.049956262 -0.08999308 -0.119844444 0.076300554 -0.053837176 -0.12707843 -0.049356237 -0.053950552 -0.12625983 0.0857017 -0.034436606 -0.27481973 0.046243925 -0.23143409 0.07190527 -0.13038245 0.11281793 -0.14604793 0.10997185 -0.098232165 -0.12088586 0.17601706 0.24632353 0.15395723 -0.17802982 0.059919782 0.19326986 -0.0045724236 -0.16356575 -0.40319178 0.062502176 0.20755225 0.029905325 0.017733503 -0.09839454 -0.016520148 0.12598543 -0.43102953 0.32852772 0.27409098 0.14956222 -0.035284452 0.01693685 -0.19307432 -0.42294544 0.10555872 0.24704306 0.0035615007 0.037410535 -0.19186065 0.65296024 0.16807677 0.109904826 0.07402408 -0.2323473 0.27619186 -0.13030997 -0.07225525 -0.04450199 0.073706485 0.32540372
5 -0.099805 0.0880298 0.31465405 0.004163215 -0.16890298 0.06267 -0.22293845 -0.052036382 -0.14204712 0.07032391 0.036717467 -0.25293088 0.1602732 -0.19898361 -0.14827529 0.0273579 -0.25867397 0.0494346 0.06457994 0.052612577 -0.06596394 0.13326047 -0.39739424 -0.16722009 0.10685715 0.0531518 -0.26087713 -0.12427185 0.29275313 0.065850906 -0.046757035 -0.19947377 -0.1671087 0.0021303778 0.024310946 0.13104919 0.06500562 0.047932945 -0.25201172 0.19931622 -0.3349046 0.3769636 0.13953517 0.26204583 -0.0996736 0.1709152 -0.1859685 -0.32208973 0.37971097 0.12649006 -0.055079747 0.35101777 -0.16857465 0.5322079 0.2654166 -0.2804641 0.12525874 -0.11262729 0.038653336 0.13375647 -0.16182542 0.011302294 0.055051763 -0.11919402
22 -0.16947763 0.12724148 -0.09990321 0.29566184 -0.15070178 0.05470929 -0.30640075 -0.25838885 -0.43226746 -0.20621814 -0.18134089 -0.115730286 -0.07848485 -0.29120895 0.07760018 -0.25256288 -0.01441376 -0.31055364 -0.26088426 -0.13930228 -0.18789601 -0.080355555 -0.06279183 -0.08149448 -0.0075254785 0.20458475 0.007908988 -0.06157806 0.03068 0.01975011 0.17358938 0.19868113 -0.06923408 -0.3145915 -0.10998376 0.09939798 -0.21840131 0.41128612 -0.2576434 0.21739264 -0.15837531 0.28033832 0.018522538 0.34540123 0.03145872 -0.13991678 -0.12955995 -0.09596305 0.2641973 0.051214054 -0.10798008 0.13392252 -0.28831816 0.0038762998 0.38421702 0.015149912 0.032571767 0.19806239 0.062385697 -0.19936347 -0.06517573 0.07450684 -0.05052974 -0.10638407
13 -0.34302145 0.040294565 0.09342549 -0.020957455 0.12200612 -0.09824336 0.065459535 -0.4200241 -0.14923313 -0.37991154 -0.25383437 -0.13748462 -0.07634938 -0.50181276 0.31540102 -0.059417434 -0.0036799437 -0.27845094 -0.1583988 0.08414304 -0.20543016 -0.14010857 0.1593019 -0.21051091 -0.12236416 0.09698403 0.053125 0.02316446 -0.07339908 0.021685911 0.036662836 0.017241387 -0.18316641 -0.20770286 0.11657865 0.058866084 -0.25892076 0.31524265 -0.20182244 0.11091005 -0.21374577 0.186526 -0.056199655 0.4000219 0.2136467 -0.0149603 -0.16824298 -0.107332096 0.46278408 -0.08577131 -0.07037259 -0.09001145 -0.2679188 0.07945061 0.27676952 0.099436276 -0.06996186 0.21359374 -0.049542077 -0.040837843 0.000650898 -0.102767594 0.08518099 0.00998742
43 -0.11997895 0.22400987 -0.11769185 0.25069997 -0.22139832 0.2026485 -0.49563298 -0.15965267 -0.42312285 -0.14254951 -0.2045667 -0.10656322 -0.028993918 -0.30732384 0.025049817 -0.22000961 0.04124259 -0.39465526 -0.16259696 -0.3083691 -0.17361003 -0.20824441 -0.1577996 -0.010609252 -0.037199635 0.17099589 -0.10084436 -0.21031956 0.15341651 -0.011430531 0.17800747 0.1464298 -0.00031459995 -0.3791289 -0.26545623 0.15121643 -0.2178466 0.48273775 -0.2451196 0.23670307 0.024743818 0.21808174 -0.07668587 0.4485482 0.031941116 -0.17561245 -0.15458803 0.0027803525 0.23616742 0.0179171 -0.23438121 0.13994615 -0.29448822 -0.06239671 0.44419768 -0.079155274 0.040221386 0.12458111 0.02753448 -0.173567 -0.06517679 0.17127074 -0.09056431 -0.33642897
7 -0.3403623 0.28105587 -0.10705046 -0.023384795 0.14211102 0.0014696516 -0.19499093 0.13111684 0.019968087 -0.09790364 -0.34984756 -0.25275925 0.2012498 -0.026613155 -0.17332575 -0.18594012 -0.17971766 -0.15751263 0.008671534 -0.23603602 0.23463823 0.22888333 -0.28834474 0.082579575 0.11064054 0.15749581 -0.12034757 -0.15855506 0.018265435 -0.020406192 0.06338044 -0.038600728 -0.44854283 -0.09720175 0.057353206 0.24150188 -0.1444605 0.17877324 -0.07590406 0.57808024 -0.2151544 0.2087389 0.15722463 0.13406895 -0.09740635 -0.060189404 -0.002296658 -0.024410123 0.031094506 -0.014796526 -0.3869457 -0.0258963 -0.20046127 0.32862535 -0.06118359 -0.2295579 0.0984923 -0.1902265 0.08186696 -0.059237834 -0.39045283 0.14163125 0.09729069 -0.2891346
24 -0.06314239 0.08548385 -0.11235853 0.10890576 -0.10029156 0.19995244 -0.26279324 -0.03555475 -0.16083404 -0.09172242 -0.15779674 -0.13274299 0.054355662 -0.25016838 -0.033384413 -0.018649068 -0.089494295 -0.17064022 -0.04581368 -0.19184229 -0.2813647 -0.15837967 -0.1605471 -0.0317928 0.01176029 0.21836494 0.04296882 -0.27968913 0.18171598 0.11280096 0.059404377 -0.04214011 -0.10903312 -0.1829443 -0.0943819 0.01540531 -0.13103637 0.26148552 -0.014168542 0.22795601 -0.085927986 0.16854417 -0.094763786 0.2796583 -0.019851677 -0.120433025 -0.27819976 -0.059122935 0.2069734 0.042673282 -0.24874873 -0.023615737 -0.19768398 0.19652446 0.33251864 -0.080184735 0.12102646 0.018174158 0.054285914 -0.19156711 0.05677192 0.119293265 -0.046107333 -0.101844035
32 -0.051756926 0.0404441 -0.29189655 0.046308413 -0.04514856 0.1503965 0.017288297 0.11565032 0.04517684 -0.1100886 -0.22090106 -0.08189986 0.09043165 -0.19370203 -0.07059413 0.15047355 -0.17024611 -0.09433303 -0.014210004 -0.08686845 -0.40919518 -0.13940535 0.023943877 -0.035027675 0.11451048 0.3861232 0.32533193 -0.40997007 0.12176575 0.20787863 -0.04322033 -0.019995738 -0.18944946 -0.05961261 0.1193098 -0.21487443 -0.09519754 0.23883726 0.2146139 0.12573895 -0.2055372 0.109129906 -0.028264297 0.23274238 -0.038914096 -0.17646357 -0.26257774 -0.16464168 0.059798 0.13055387 -0.24271162 -0.32946998 -0.18358743 0.35697633 0.28457546 0.13603935 0.17372578 -0.09952856 0.21926375 -0.33796555 0.19029921 0.094779566 0.031720478 0.24408351
14 -0.34247935 0.10617284 -0.011308253 0.015507281 0.113229565 -0.09242433 -0.041743822 -0.1286265 0.042996835 -0.2202213 -0.26913327 -0.27170914 0.15476257 -0.13191964 0.014332245 -0.051863745 -0.20683524 -0.019138664 -0.10234648 -0.061984137 -0.022343224 0.20407975 -0.15429147 -0.019391663 0.0583045 0.1037881 0.0114481235 0.0929794 -0.08293375 0.12599072 -0.0018564113 -0.00930545 -0.39446464 -0.057450276 0.18791585 0.19533108 -0.18429026 0.06595233 -0.1250288 0.4661727 -0.35811114 0.20008238 0.08243019 0.026835304 -0.096998766 -0.014565555 -0.13098864 -0.014744321 0.2077302 0.016214844 -0.25122684 -0.018939283 -0.17908648 0.3462764 -0.06982877 -0.067493305 0.05053138 -0.021522494 0.08345625 -0.06177715 -0.20865789 0.042568002 0.11504772 -0.045561388
17 -0.032973386 -0.13227846 -0.0006057993 0.18944272 -0.13929641 -0.008914071 0.028997269 -0.10699209 -0.14612234 -0.014348681 -0.042940967 -0.037915267 0.035936426 -0.16198844 -0.18313698 0.0020671098 -0.22518364 0.029370485 -0.13586666 0.13127945 -0.24652994 0.03980472 -0.083618164 -0.17828485 0.21455128 0.35231102 0.30615833 -0.1986435 0.042052064 0.24353267 -0.023608841 -0.047191106 -0.26215452 -0.0021574912 0.17759238 -0.098568805 -0.074111536 0.040282782 0.015598534 0.13339223 -0.39148453 0.3615601 0.1969561 0.11379069 -0.05294931 -0.002420896 -0.2887407 -0.35581106 0.12723587 0.29537168 0.013274151 0.052407872 -0.18522398 0.5081871 0.20988882 0.08661353 0.12532522 -0.041494418 0.20455931 -0.22624025 0.10744844 -0.054900695 -0.023423813 0.37018046
36 0.013172994 -0.045009512 -0.36566386 0.16915013 -0.1014783 0.18405196 0.026598427 0.06317208 0.054619595 -0.09660947 -0.23583828 -0.02782371 0.05537563 -0.20272817 -0.10905465 0.12787378 -0.21655388 -0.033260304 -0.08277224 -0.069952704 -0.4678038 -0.15433834 0.038196772 -0.050140366 0.17409599 0.46636608 0.48766786 -0.407903 0.07307461 0.2745142 -0.089192875 0.05753555 -0.19408862 -0.06474607 0.16014373 -0.28299546 -0.16171794 0.20176163 0.24335463 0.15989581 -0.2839907 0.16235596 -0.0027720556 0.13908547 -0.10602113 -0.19342144 -0.32384753 -0.18221103 0.019009868 0.252567 -0.20660682 -0.2935554 -0.1753338 0.41385555 0.20186293 0.19054626 0.20403898 -0.06419608 0.27447182 -0.4242989 0.27997354 0.08676303 0.029263614 0.36289725
28 -0.1652148 0.2002759 -0.042761847 0.31582966 -0.24910697 0.045906875 -0.4137632 -0.19517548 -0.55480474 -0.14040613 -0.226634 -0.049204264 -0.07259183 -0.18428011 -0.09894784 -0.29828727 0.016439533 -0.35513762 -0.23055649 -0.22909254 -0.03072418 -0.050320704 -0.14809217 -0.0067328243 0.01074546 0.19823396 -0.086383015 -0.13116738 0.025881 -0.05591726 0.21690072 0.17817773 -0.06991106 -0.3137049 -0.18424727 0.20269908 -0.1734623 0.38776523 -0.31655407 0.22712623 -0.099335924 0.3052103 0.19088636 0.45349926 0.010994171 -0.13332093 -0.034210198 -0.13471928 0.16458723 0.12551442 -0.05835326 0.2001274 -0.26799887 0.07287648 0.40320367 0.023959108 -0.0331194 0.058427952 0.18189614 -0.12630044 -0.19576833 0.12501292 -0.0624788 -0.22141191
25 -0.16085841 0.05951655 0.07060239 -0.051805597 0.037950583 0.004970037 -0.115602925 0.048556566 -0.08369122 -0.08997027 -0.27101514 -0.18758686 0.05450099 -0.22699589 -0.15108044 -0.0759097 -0.052437723 -0.18407273 -0.013237087 -0.16083449 -0.0013415369 -0.005710057 -0.13609007 -0.078964636 0.06836816 0.1879344 0.064703226 -0.28064156 0.17985848 0.021011269 0.008228252 -0.12763998 -0.2653578 -0.16167496 0.024448376 0.0875969 -0.14721219 0.23259047 -0.016630916 0.27398112 -0.11353823 0.22929995 0.04014911 0.28356758 0.027165184 -0.074361406 -0.12661049 -0.23394477 0.13619593 0.06875136 -0.19504672 -0.044696596 -0.21674047 0.3064893 0.15747006 -0.07222034 0.024399338 -0.14634496 0.052106444 -0.07151278 -0.13130401 0.040679745 0.08341795 -0.106450036
27 -0.29810628 0.072927035 -0.03535846 -0.061107777 0.17532027 -0.025128089 -0.01673343 -0.07288711 0.13013707 -0.24070674 -0.24265556 -0.24804108 0.17383128 -0.20284145 0.06873982 0.013955074 -0.19249773 -0.053604133 -0.060669217 -0.07811141 -0.13220192 0.064361684 -0.103951685 -0.04810065 0.040957816 0.122957796 0.0642344 -0.05406695 -0.013074641 0.14868136 -0.02741953 -0.062808506 -0.38725066 -0.07624416 0.14332454 0.1092004 -0.21079451 0.13150752 -0.033784956 0.4424326 -0.24331258 0.13597721 -0.038559154 0.061030585 -0.050718725 -0.08277079 -0.19273096 0.004145074 0.17917971 -0.05244791 -0.3621826 -0.087629266 -0.16693479 0.2846715 -0.009407151 -0.052018043 0.10665904 -0.024883049 0.04147304 -0.07099654 -0.114740714 0.10948537 0.10058968 -0.028466571
38 -0.06615002 -0.1455301 0.20328899 -0.03533432 -0.035584126 0.011292256 0.025584038 0.08218341 -0.08545643 0.04637584 0.004945525 -0.15949228 0.108570494 -0.16155094 -0.2308702 0.11376907 -0.19465104 0.027531626 0.020713752 0.077643864 -0.114487715 0.09080911 -0.2027038 -0.12606344 0.11330723 0.13955511 0.012996302 -0.2714586 0.23055144 0.14435759 -0.0444551 -0.28984258 -0.29865545 0.03024919 0.1971546 -0.008892387 0.094820075 -0.06874656 -0.0038901148 0.05414087 -0.30359215 0.35215297 0.19840361 0.2569829 0.00031716924 0.11971641 -0.24973443 -0.41287583 0.23279625 0.13600317 -0.013627034 0.0747048 -0.23656806 0.6447456 0.298475 -0.07667692 0.120393746 -0.27114818 0.114186585 -0.04111101 -0.06252265 -0.08447367 0.09053899 0.16253896
15 -0.24733989 0.20353483 -0.16253665 0.1059021 -0.0788061 0.05691564 -0.17520766 -0.15720087 0.053725466 -0.24502794 -0.17106481 -0.22755483 0.14320002 -0.21056266 0.19176199 0.11087899 -0.27691698 0.018912353 -0.0052436856 -0.0340716 -0.28868276 0.036727943 -0.09560112 -0.004514012 0.00662482 0.04006986 -0.09315906 0.06373939 0.038089305 0.14860362 -0.102769025 0.11207498 -0.19679083 -0.0051368633 0.09945156 0.07229914 -0.124414474 0.11393432 -0.20634112 0.28189003 -0.37409964 0.12528601 -0.0207228 0.16712801 -0.10021056 0.009690314 -0.1847411 0.042513438 0.3648453 0.021891534 -0.21561894 -0.052211758 -0.13308564 0.30336443 0.11578489 -0.026518216 0.12316303 0.059403248 0.13724186 -0.07412047 -0.08114282 0.08881222 0.13339016 -0.06732366
20 -0.017736169 -0.061467115 -0.21794428 0.24245794 -0.13747936 0.06403362 -0.019576726 -0.011256304 -0.0642529 -0.051965196 -0.19658759 -0.037443753 0.019789543 -0.15614578 -0.15684198 -0.022140725 -0.20732486 0.020719133 -0.15342008 0.037719153 -0.26270762 0.019915046 -0.043695487 -0.07435953 0.19599767 0.41342133 0.4166683 -0.24707706 -0.013411691 0.2520514 -0.037464093 0.0858423 -0.21411605 -0.029337225 0.23706444 -0.15763536 -0.14841668 0.12413728 0.04898401 0.21015112 -0.39406353 0.3069309 0.18121557 0.12142635 -0.14827687 -0.037804194 -0.25450107 -0.25339162 0.06752822 0.31736085 -0.037981164 -0.08087688 -0.20144044 0.4773247 0.10975769 0.15785469 0.13516457 -0.052451815 0.28941867 -0.3056086 0.11505073 0.00060779107 0.035506275 0.31153163
35 -0.04674472 0.09601654 0.20882733 -0.004149388 -0.08982808 0.18837044 -0.222504 -0.011361492 -0.06980338 0.036190987 0.009023971 -0.21565507 0.18932857 -0.24816449 -0.092204295 0.08788983 -0.24121755 -0.010968035 0.14543702 -0.035223015 -0.2708237 0.058318127 -0.35711938 -0.21280663 0.07758926 0.102981746 -0.14678203 -0.15737534 0.302436 0.1403875 -0.05623272 -0.2045316 -0.09651716 -0.040176254 -0.06420024 0.05581464 -0.008750571 0.10134834 -0.046985116 0.2646453 -0.23754273 0.24445006 -0.027678743 0.13055581 -0.0986026 0.056172837 -0.3204468 -0.15166754 0.4021825 0.09558989 -0.22204071 0.19229238 -0.11009757 0.38103232 0.3224102 -0.36305857 0.18862095 0.04322108 -0.09014003 -0.014129051 0.046707682 0.03750127 -0.05964642 -0.06611777
30 -0.3070632 0.08247414 0.036753252 -0.06397883 0.19501379 -0.11524232 -0.102826186 0.060234413 0.1253448 -0.16303532 -0.27001455 -0.36852577 0.2658271 -0.028354444 -0.12858713 -0.07866611 -0.22067498 0.0021505402 -0.0713331 -0.18404876 0.0065765353 0.27480322 -0.23926145 -0.020030625 0.12596373 0.14913233 0.04898482 -0.047722764 0.026398301 0.15171874 -0.0052779606 -0.14713234 -0.5144003 -0.07150765 0.123520434 0.24843195 -0.18710217 0.07370654 -0.002020363 0.64265156 -0.26032296 0.15456358 0.06096787 -0.07147487 -0.17451788 -0.13397428 -0.10036623 -0.019527962 0.0011970486 0.00650347 -0.45141244 -0.02855321 -0.13975061 0.35577554 -0.15622783 -0.120092444 0.11409732 -0.16158083 0.09764731 -0.05883364 -0.29556727 0.19397177 0.11460306 -0.093187734
21 -0.41775107 0.1375108 0.05210806 -0.098554656 0.18750183 -0.05387122 -0.029564112 -0.3535665 0.11681971 -0.38080734 -0.28105178 -0.29708165 0.08840007 -0.49926013 0.38193506 -0.010586108 -0.09297447 -0.16483314 -0.08431832 0.012043791 -0.13584086 -0.03773885 0.050726146 -0.0951537 -0.071004234 0.03214664 -0.029433837 0.076524824 -0.05294363 0.07790558 -0.0490195 -0.019879099 -0.30017573 -0.14814511 0.12680742 0.12305129 -0.3077576 0.27208963 -0.19835153 0.34895408 -0.22193861 0.124431156 -0.17392737 0.25776443 0.088120736 0.016686315 -0.17972472 0.07725755 0.4616731 -0.16231146 -0.2882874 -0.08763758 -0.22879161 0.09586335 0.037973024 -0.045482695 -0.020096317 0.19411458 -0.113443114 0.045183804 -0.09532638 0.006257773 0.13130684 -0.1717303
23 -0.46129525 0.13999902 0.092471324 -0.20602398 0.29023877 -0.08672724 0.033978093 -0.31892762 0.09660094 -0.42504638 -0.34691754 -0.3160449 0.087999955 -0.48866498 0.3470878 0.02319602 -0.025982268 -0.24963517 -0.052883003 -0.062643945 -0.15794483 -0.11046317 0.08062329 -0.12884368 -0.15879633 0.03240546 -0.07629346 0.0028454163 -0.036313567 -0.0039862464 -0.009661169 -0.114694014 -0.34475887 -0.15410458 0.10814232 0.17485978 -0.2879553 0.29407683 -0.116043456 0.34657177 -0.14621013 0.067607746 -0.19244313 0.3160665 0.17513783 -0.056633275 -0.14896207 0.06556177 0.43558267 -0.22821207 -0.34270692 -0.19156727 -0.21381885 0.0790031 0.10338179 -0.038357396 -0.069031686 0.10253453 -0.095208354 0.024006078 -0.09539606 0.015722584 0.14804609 -0.16468796
31 -0.40790898 0.041355833 0.16083393 -0.25966963 0.2669685 -0.11610651 0.19191043 -0.32860088 -0.08650289 -0.45815322 -0.30435136 -0.24804072 -0.016033173 -0.5140749 0.31950107 0.061392516 0.036204297 -0.31450573 -0.08081604 0.009389621 -0.263105 -0.22221535 0.21541576 -0.23439123 -0.21500584 0.07352731 -0.029536923 -0.10140723 0.023604136 -0.04064929 0.051155392 -0.15382299 -0.27258816 -0.24069403 0.10802934 0.104076475 -0.198073 0.2986178 -0.055571098 0.0967742 -0.14298043 0.05699268 -0.16757073 0.47491786 0.33335635 -0.11184185 -0.13758194 -0.1076285 0.4670293 -0.21346046 -0.23502481 -0.25053146 -0.26541004 0.10050703 0.3523266 0.08229398 -0.07930864 0.061350938 -0.08276998 -0.03784035 -0.003932051 -0.077411816 0.12511152 0.021766083
19 -0.23451112 0.06458886 -0.05451934 0.012432147 -0.015682427 -0.002567806 -0.01899726 -0.18816358 0.05584836 -0.26473016 -0.09146625 -0.27143636 0.12917116 -0.27534327 0.18105148 0.19078813 -0.25159642 0.0040753777 -0.009027074 0.008479075 -0.40265426 -0.023683067 -0.024513979 -0.11875659 -0.014774819 0.046400893 -0.07157098 0.0031345417 0.13305858 0.15974389 -0.106195614 0.0017270178 -0.25377962 -0.05119109 0.11328619 0.031747703 -0.09946072 0.076949336 -0.08653479 0.15923561 -0.32946822 0.10349663 -0.07778265 0.17081408 0.023370365 -0.07209556 -0.2110509 -0.06911665 0.37376902 -0.015351596 -0.20893964 -0.09901159 -0.12451523 0.29948422 0.22792943 -0.022331456 0.10234426 0.037871666 0.09815258 -0.095379844 0.026703764 0.057018194 0.12690118 0.09706414
39 -0.02415742 -0.25825047 0.44359782 -0.04353543 -0.09838371 -0.07955817 0.07629029 -0.034099873 -0.23503625 0.08607206 0.159183 -0.16871944 0.025963357 -0.21805406 -0.26080108 0.12032632 -0.21054587 0.052184183 -0.025238698 0.2125628 -0.18199687 0.06754742 -0.19163696 -0.32538426 0.079402156 0.076907605 -0.028401563 -0.2772261 0.35162434 0.15648012 -0.06021565 -0.35566816 -0.26113743 -0.04213547 0.20726235 0.02136538 0.13803807 -0.14451031 -0.10356648 -0.14448829 -0.3358228 0.46174937 0.31192926 0.38888478 0.102600046 0.14449114 -0.24438627 -0.6873758 0.37731206 0.23803742 0.16965565 0.21529701 -0.2882211 0.7369173 0.47455853 -0.044386633 0.0928254 -0.27200165 0.15775315 0.06701819 -0.02745584 -0.169663 0.0817122 0.28002733
48 -0.09999838 0.1203148 -0.28760555 0.19434662 -0.04782425 0.09656331 -0.10427174 0.12991893 -0.07257934 -0.11445565 -0.15344991 -0.16626076 0.16544804 -0.019578397 -0.1351969 0.04204929 -0.22077608 -0.02811702 -0.12205917 -0.18757588 -0.25996137 0.012954837 -0.10999385 0.047395054 0.1438269 0.2904427 0.12486863 -0.29804918 0.053531446 0.13165377 0.0144372 0.058026325 -0.26863638 -0.03629364 0.056636516 -0.014621697 -0.041137345 0.16026708 0.025941387 0.2640351 -0.21580169 0.13291346 0.10110584 0.15225083 -0.17607814 -0.22310753 -0.11335455 -0.09063201 -0.01557012 0.13014579 -0.29341453 -0.15857309 -0.14294887 0.36391366 0.1871051 0.09784012 0.1961385 -0.18911491 0.33442813 -0.26998484 -0.05102698 0.23065189 0.039086856 0.13083552
45 0.061395735 -0.055563763 -0.34930032 0.34620026 -0.19790013 0.13008174 -0.04776286 -0.025706246 -0.085068814 -0.044347487 -0.16141956 -0.0044055786 0.007678306 -0.1830654 -0.09994532 -0.0028231316 -0.20057647 -0.007927992 -0.17217138 0.0058652344 -0.39114726 -0.06966449 -0.013739138 -0.04889133 0.23579566 0.54440546 0.5084375 -0.32874176 -0.0007191086 0.30260435 -0.02680449 0.13153929 -0.151243 -0.0269043 0.18460125 -0.30682886 -0.1759898 0.2304618 0.12023767 0.17457338 -0.35576633 0.27115625 0.062435865 0.09981331 -0.15913077 -0.11893608 -0.32893658 -0.19598788 0.001538233 0.30592835 -0.09909453 -0.1396466 -0.18004222 0.400182 0.21954648 0.23483929 0.19802205 0.031025756 0.27942696 -0.4417916 0.27271068 0.04196088 -0.05161034 0.37521857
40 -0.2044064 0.10249255 0.03249918 0.053955235 -0.011796856 -0.06465196 -0.10360952 0.07089195 -0.12652348 -0.048451316 -0.19854817 -0.17487471 0.12656496 0.0049892315 -0.24790737 -0.09676763 -0.18213029 -0.04191231 -0.056259062 -0.069815546 0.080731176 0.20507172 -0.21068347 0.0055220006 0.12896681 0.20032683 6.161805e-06 -0.17320524 0.042907253 0.09009684 0.05158471 -0.097675085 -0.3720549 -0.0051457733 0.11418261 0.14231308 -0.052034102 0.027595036 -0.07510587 0.35243803 -0.31255817 0.26214892 0.263786 0.14966805 -0.10032714 0.007226688 -0.08360704 -0.21215273 0.059024893 0.15581703 -0.13449982 0.026488217 -0.18639827 0.5011882 0.07836729 -0.07654208 0.07502821 -0.22326162 0.1935004 -0.08518754 -0.2613881 0.036583174 0.08074308 -0.015497151
49 -0.17250353 0.2042633 -0.20725305 0.08547457 -0.07020647 0.15819663 -0.3425215 -0.0127074355 -0.23274355 -0.16454656 -0.3953082 -0.050540872 -0.027277054 -0.31427678 0.00963157 -0.20584673 0.07225066 -0.4199834 -0.077243574 -0.31373158 -0.070032835 -0.18879904 -0.068148576 0.015767494 -0.004526897 0.2441028 0.08425674 -0.32779408 0.0788096 -0.035335597 0.1324112 0.09728499 -0.09320713 -0.34642234 -0.1585038 0.02842036 -0.26993755 0.51645005 -0.09653505 0.2685932 0.063797966 0.18040626 -0.07490042 0.457841 0.049910486 -0.20018618 -0.14147963 -0.016969753 0.11624724 -0.011465541 -0.2930518 -0.11973077 -0.29096055 -0.032075223 0.32916057 0.0004994833 0.017231548 0.04841224 0.01078019 -0.20287476 -0.07120474 0.1393823 -0.029031858 -0.302064
37 -0.23514244 0.15972315 -0.15985961 -0.12055873 0.15673843 0.050209932 -0.11152754 0.27030423 0.024526559 -0.09973959 -0.43578568 -0.16178559 0.10701243 -0.088835225 -0.2138132 -0.09907596 -0.034231964 -0.22728196 0.052098252 -0.31093922 0.12003148 0.05609307 -0.1388497 0.06391987 0.009384674 0.2552044 0.08232825 -0.41594467 0.104824305 -0.010010357 0.038056172 -0.12929237 -0.32831296 -0.14412053 0.079414375 0.104561 -0.13931157 0.2442821 0.104521945 0.39618683 -0.04939692 0.13200624 0.12672958 0.27865207 -0.045544684 -0.15444961 -0.04728586 -0.09905945 -0.047599148 0.04232737 -0.35373712 -0.29027867 -0.23010042 0.29893982 0.061545383 -0.07227369 0.05751953 -0.31612083 0.14580682 -0.1725407 -0.23567736 0.10391444 0.12609652 -0.19140324
16 -0.29162425 0.27837893 -0.07512192 0.01899956 0.030686442 0.09326891 -0.22645405 -0.00065639697 0.08361415 -0.12961791 -0.26166055 -0.2447804 0.1949986 -0.16551718 0.038344085 -0.011343835 -0.25373998 -0.051402982 0.07511448 -0.12979364 0.018620297 0.15565763 -0.2681168 0.045113176 0.01293914 0.053243592 -0.17097448 -0.04353394 0.059644803 0.08731038 -0.045421865 -0.020948978 -0.26517627 -0.020264346 0.07109991 0.1671307 -0.13241619 0.10728101 -0.1627105 0.46728253 -0.28121394 0.15644181 0.055607103 0.16598727 -0.1503293 0.058421712 -0.12974149 0.07115069 0.3054373 -0.006300637 -0.30000484 0.00078609405 -0.16395625 0.34557685 -0.0083763 -0.23581415 0.13616861 -0.05225823 0.037768323 0.011539047 -0.23885041 0.075655915 0.1271548 -0.27399504
47 -0.06547142 0.06972565 -0.003087924 0.27063286 -0.26590288 0.1452309 -0.38097522 -0.26305512 -0.48113522 -0.12956025 -0.09703292 -0.021093938 -0.082891054 -0.33360225 0.04305802 -0.15194726 -0.036890782 -0.3095029 -0.16460355 -0.11688405 -0.28046376 -0.17437118 -0.120139524 -0.14652486 -0.03745551 0.15805764 -0.017171491 -0.1246598 0.13529429 0.03661254 0.13239168 0.12651582 0.032365754 -0.3317994 -0.20629951 0.0646349 -0.15599287 0.37480602 -0.2728318 0.086999245 -0.09017471 0.2890529 0.016301852 0.44468158 0.061429266 -0.107915975 -0.21912268 -0.15507205 0.30816466 0.07662775 -0.05926508 0.2024569 -0.25360784 0.027340136 0.52777356 -0.019737232 0.04514682 0.20098554 0.057349805 -0.12908939 0.02880919 0.079034895 -0.10777612 -0.10873614
41 -0.10263718 0.07148518 -0.14292905 0.11044488 -0.07115108 0.1549628 -0.145208 -0.04009349 -0.046977635 -0.13795474 -0.10928522 -0.15181834 0.12169624 -0.21667491 0.03137172 0.04343701 -0.18027201 -0.08454889 -0.074361876 -0.07623725 -0.31373003 -0.11182444 -0.08978704 -0.029158037 0.08448532 0.24009345 0.11274508 -0.24829231 0.10622349 0.18369259 0.0077346275 -0.017276 -0.1750568 -0.08598235 0.020008447 -0.06517168 -0.11890703 0.18630475 0.008422047 0.20157987 -0.1888648 0.14524108 -0.098688774 0.19342138 -0.06286248 -0.1141974 -0.27548203 -0.050999593 0.1664764 0.03549316 -0.2728688 -0.056828525 -0.18028817 0.25981924 0.2585836 0.0028941166 0.15171164 0.015092041 0.09605075 -0.2116927 0.05918624 0.11619287 -0.017208675 0.06979194
34 -0.37093166 0.020000577 -0.045541108 -0.061234582 0.23951946 -0.19422787 0.15244369 -0.06394835 0.20014228 -0.24523148 -0.29595453 -0.29053754 0.17702939 -0.1022464 -0.0128983315 -0.04269492 -0.20064647 0.035237886 -0.14195636 0.017471062 -0.03161368 0.19128644 -0.05155249 -0.04060382 0.13946058 0.22462738 0.2287014 0.018063033 -0.17342779 0.17419346 -0.020135911 -0.0648002 -0.55450517 0.030206762 0.33495587 0.11817745 -0.22517273 0.04061659 0.00037065317 0.5329017 -0.39758712 0.1986043 0.071770675 -0.07093521 -0.10628328 -0.018849302 -0.1511127 -0.05563311 0.060659576 0.03854362 -0.3300358 -0.13935699 -0.15409884 0.4314779 -0.23166461 0.07961351 0.0673922 -0.110125035 0.13389038 -0.10637694 -0.16914445 0.062322147 0.15797512 0.13710587
44 -0.024442794 0.08937463 0.09487239 -0.02802609 -0.15709242 0.2836684 -0.22276966 0.004783591 0.0046066153 0.07608923 -0.058274444 -0.16197608 0.15195061 -0.357173 -0.0010007892 0.11927087 -0.19743253 -0.032727774 0.18118297 -0.037003104 -0.26640636 -0.05863019 -0.3378329 -0.15309636 0.052027263 0.18810073 -0.104140386 -0.29133135 0.29610625 0.115814544 -0.07453275 -0.20623837 4.229517e-05 -0.043393057 -0.023617623 -0.08452585 -0.012987535 0.20498072 -0.029492388 0.1905269 -0.19705574 0.24925417 -0.11360479 0.23401505 -0.09376384 0.10645485 -0.3583226 -0.10995886 0.39144608 0.06736149 -0.2000164 0.15715976 -0.14472438 0.3611228 0.34933302 -0.3144991 0.18497233 0.028020738 -0.11764337 -0.06401416 0.12782647 -0.016247276 -0.0415869 -0.12065182
33 -0.22516151 -0.03494795 0.2284704 -0.108815156 -0.06730793 -0.17566766 0.07679214 -0.10969926 -0.25537172 -0.15362434 -0.042534966 -0.21580361 0.13388671 0.005579111 -0.25522783 0.10930685 -0.18940397 -0.031478565 -0.09099733 -0.0012047631 -0.26971927 0.02247205 -0.03856412 -0.17538317 0.03075231 0.13946563 -0.04458326 -0.15084684 0.1510201 0.12240203 0.091766335 -0.25537723 -0.4116904 -0.06761525 0.020934792 0.20343049 0.05502138 -0.069265395 0.030621797 0.11452775 -0.30977854 0.17080125 0.18711199 0.21999377 0.12531765 -0.15188791 -0.14082056 -0.3617525 0.147602 0.1441662 -0.12365914 -0.01924346 -0.16544402 0.51312745 0.34892648 0.03689533 0.0024659024 -0.22170381 0.24788438 -0.103604496 -0.110482596 0.030668981 0.03919827 0.27392614
29 -0.17156841 0.029861644 0.30611622 -0.09888847 -0.02301571 -0.09935348 -0.12814897 0.020020273 -0.117904164 -0.010362662 -0.17856129 -0.19345939 0.08020614 -0.18276416 -0.22984101 -0.100150414 -0.114298895 -0.10254844 -0.009577232 -0.010290399 0.12180838 0.17837362 -0.23396087 -0.17559086 0.14247803 0.113287486 -0.020466693 -0.17026874 0.16427986 0.027811548 -0.013136093 -0.19351882 -0.3083764 -0.1546029 0.073626466 0.14202854 -0.09959704 0.1137595 -0.120358154 0.26255336 -0.2299806 0.34395823 0.19205876 0.26632103 0.028276836 0.03652974 -0.07755975 -0.38807392 0.18660532 0.12517586 -0.088751785 0.18063584 -0.24199057 0.41691953 0.17568472 -0.13302165 0.014237636 -0.15357976 0.021114519 0.066661485 -0.23671223 -0.014049673 0.085925415 -0.09119898
46 0.0045789247 -0.116855085 0.13617401 -0.048921105 -0.07928396 0.09673721 0.0059698047 0.14371076 -0.08510112 0.06345446 0.009215144 -0.07436997 0.07874904 -0.19000976 -0.24871784 0.17369343 -0.21589836 -0.0011739071 0.080632776 0.07813716 -0.17689607 -0.019278402 -0.14880385 -0.14370656 0.088553905 0.12956826 0.04447971 -0.37727368 0.33254996 0.14572579 -0.096040666 -0.25174809 -0.23870818 0.00081224146 0.13262129 -0.07737729 0.1105538 -0.03992975 0.044625204 -0.054171044 -0.27102298 0.3066711 0.18149018 0.37372148 0.041588705 0.080936395 -0.2537131 -0.48116353 0.25780115 0.15808974 0.011238194 -0.008306865 -0.26330096 0.64435035 0.4053304 -0.06833679 0.17752688 -0.28997177 0.12432824 -0.061624132 -0.0007604031 -0.08369221 0.11829044 0.16785139
42 -0.3716858 0.011199989 0.26764286 -0.2139353 0.15513915 -0.20255533 0.21907313 -0.29881063 -0.19419053 -0.37455574 -0.14888361 -0.19984086 0.044117104 -0.298904 0.12179017 0.08634134 -0.026935523 -0.2248826 -0.12780036 0.07919215 -0.2715903 -0.14552425 0.16274706 -0.22362268 -0.10442793 0.10424546 -0.06392051 -0.11106436 0.018534219 -0.0014116556 0.1079523 -0.23316261 -0.36043146 -0.12352964 0.06305144 0.11837921 -0.066972815 0.14059448 -0.03638834 0.023356682 -0.207543 0.08936367 -0.018770054 0.37662673 0.3178723 -0.12905143 -0.14807765 -0.25299135 0.32307974 -0.107294194 -0.13074024 -0.1679834 -0.20886154 0.25553608 0.40126082 0.11768411 -0.098753616 -0.02958312 0.043929208 -0.04022726 -0.05351379 -0.03274166 0.06550981 0.19143645
